{
 "variant": "mixed_frozen",
 "semantic_config_hash": "44e953d2140766b5",
 "full_config_hash": "1f0a63d451e8d491",
 "git_rev": "89fd78a",
 "devices": [
  "NVIDIA L40S"
 ],
 "wall_seconds": 26.2,
 "train_rows": [
  {
   "step": 0,
   "epoch": 0,
   "loss": 0.0822991842537054,
   "per_layer": [
    0.011625368148088455,
    0.008472172543406487,
    0.014880560338497162,
    0.023038428276777267,
    0.02252652868628502,
    0.026706960052251816,
    0.10163863748311996,
    0.07373648136854172,
    0.08883962780237198,
    0.07010568678379059,
    0.059142470359802246,
    0.08240380883216858,
    0.07417245954275131,
    0.07666448503732681,
    0.07960899919271469,
    0.08000493049621582,
    0.12268096208572388,
    0.09717487543821335,
    0.10811204463243484,
    0.11720171570777893,
    0.12079309672117233,
    0.17255432903766632,
    0.11673931777477264,
    0.12427545338869095,
    0.12235765904188156,
    0.10668319463729858,
    0.096242755651474,
    0.10599415004253387
   ],
   "accum_items": 4
  },
  {
   "step": 1,
   "epoch": 0,
   "loss": 0.2432306282987286,
   "per_layer": [
    0.0019936109893023968,
    0.00916040875017643,
    0.02495643123984337,
    0.046952344477176666,
    0.05661580711603165,
    0.08415982127189636,
    0.16623656451702118,
    0.22044062614440918,
    0.21980085968971252,
    0.20726270973682404,
    0.21317234635353088,
    0.2194066345691681,
    0.23477321863174438,
    0.24684999883174896,
    0.2379612773656845,
    0.2871662974357605,
    0.3070988655090332,
    0.30531975626945496,
    0.3236036002635956,
    0.35490578413009644,
    0.36440199613571167,
    0.3981531262397766,
    0.3997284471988678,
    0.41695061326026917,
    0.37977826595306396,
    0.37726259231567383,
    0.34164679050445557,
    0.3646987974643707
   ],
   "accum_items": 4
  },
  {
   "step": 2,
   "epoch": 0,
   "loss": 0.06483107605682951,
   "per_layer": [
    0.012461014091968536,
    0.008406933397054672,
    0.012729885056614876,
    0.02073701098561287,
    0.016966495662927628,
    0.019306538626551628,
    0.08901645243167877,
    0.05514509230852127,
    0.07473892718553543,
    0.05647057667374611,
    0.04458089917898178,
    0.07202662527561188,
    0.0628129094839096,
    0.06438612192869186,
    0.06467049568891525,
    0.06213083490729332,
    0.10558735579252243,
    0.07674503326416016,
    0.0812271237373352,
    0.08734923601150513,
    0.09105946868658066,
    0.14409320056438446,
    0.08626029640436172,
    0.08939491212368011,
    0.09229405969381332,
    0.07950402796268463,
    0.07017149776220322,
    0.07499710470438004
   ],
   "accum_items": 4
  },
  {
   "step": 3,
   "epoch": 0,
   "loss": 0.1806865981613685,
   "per_layer": [
    0.0042986697517335415,
    0.009244173765182495,
    0.020307838916778564,
    0.03639309108257294,
    0.04150098189711571,
    0.05792646110057831,
    0.13718679547309875,
    0.159947469830513,
    0.16945025324821472,
    0.15467339754104614,
    0.14737479388713837,
    0.15754303336143494,
    0.16386717557907104,
    0.1724705696105957,
    0.1721973419189453,
    0.20275023579597473,
    0.22859056293964386,
    0.22305944561958313,
    0.2385055273771286,
    0.26779112219810486,
    0.27295127511024475,
    0.3176066279411316,
    0.3003128170967102,
    0.3108692765235901,
    0.2820383906364441,
    0.27471280097961426,
    0.24842102825641632,
    0.2872335910797119
   ],
   "accum_items": 4
  }
 ],
 "eval_rows": [
  {
   "epoch": 0,
   "cer": 0.8299273427936218,
   "line_exact": 0.0,
   "gen_ce": 3.35888934135437
  }
 ],
 "done": {
  "vram_gb": 9.23,
  "vram_reserved_gb": 9.35,
  "vram_per_device_gb": [
   9.35
  ]
 },
 "checkpoint": {
  "model.embed_tokens.weight": {
   "numel": 155582464,
   "sum": -31284.20076261176,
   "abs": 3579471.0220369543,
   "sample": [
    -0.00927734375,
    0.05712890625,
    0.03369140625,
    0.04833984375,
    0.05224609375,
    -0.01092529296875,
    -0.024169921875,
    0.0242919921875,
    0.00098419189453125,
    0.005218505859375,
    -0.0150146484375,
    -0.0439453125,
    -0.009765625,
    0.023681640625,
    0.03125,
    0.005767822265625,
    -0.0172119140625,
    0.031005859375,
    -0.00201416015625,
    -0.0693359375,
    -0.006011962890625,
    0.000782012939453125,
    -0.062255859375,
    -0.0225830078125,
    0.08447265625,
    0.06005859375,
    -0.052978515625,
    -0.03857421875,
    0.022216796875,
    -0.0238037109375,
    0.0439453125,
    0.027099609375,
    0.00164031982421875,
    -0.041015625,
    -0.05224609375,
    0.040283203125,
    0.000751495361328125,
    -0.01080322265625,
    -0.0286865234375,
    0.020263671875,
    -0.01458740234375,
    -0.0277099609375,
    0.03955078125,
    0.006378173828125,
    -0.0576171875,
    0.02587890625,
    -0.025146484375,
    0.011962890625,
    0.005340576171875,
    0.0294189453125,
    -0.0247802734375,
    -0.00592041015625,
    0.0380859375,
    -0.0244140625,
    -0.000324249267578125,
    0.00787353515625,
    0.056640625,
    -0.0206298828125,
    0.03759765625,
    -0.000934600830078125,
    0.004852294921875,
    -0.004638671875,
    -0.024169921875,
    0.00567626953125
   ]
  },
  "model.layers.0.input_layernorm.weight": {
   "numel": 1024,
   "sum": 178.95654296875,
   "abs": 178.95654296875,
   "sample": [
    0.1357421875,
    0.515625,
    0.41796875,
    0.2177734375,
    0.146484375,
    0.2158203125,
    0.2236328125,
    0.34375,
    0.1435546875,
    0.1455078125,
    0.1455078125,
    0.166015625,
    0.1611328125,
    0.1611328125,
    0.1455078125,
    0.1396484375,
    0.134765625,
    0.1455078125,
    0.1640625,
    0.1708984375,
    0.1552734375,
    0.193359375,
    0.1572265625,
    0.197265625,
    0.134765625,
    0.28125,
    0.1435546875,
    0.1513671875,
    0.1806640625,
    0.169921875,
    0.1552734375,
    0.16796875,
    0.1796875,
    0.15625,
    0.177734375,
    0.166015625,
    0.1533203125,
    0.1728515625,
    0.166015625,
    0.14453125,
    0.1591796875,
    0.1513671875,
    0.162109375,
    0.1669921875,
    0.15625,
    0.1611328125,
    0.1669921875,
    0.16796875,
    0.154296875,
    0.1591796875,
    0.1728515625,
    0.1630859375,
    0.1572265625,
    0.1474609375,
    0.1455078125,
    0.15625,
    0.1435546875,
    0.154296875,
    0.140625,
    0.138671875,
    0.1591796875,
    0.15625,
    0.1494140625,
    0.1552734375
   ]
  },
  "model.layers.0.mlp.down_proj.weight": {
   "numel": 3145728,
   "sum": 14.587292166252155,
   "abs": 64958.86152199906,
   "sample": [
    0.02099609375,
    -0.023681640625,
    0.05419921875,
    -0.0009002685546875,
    -0.0030364990234375,
    0.020751953125,
    -0.0274658203125,
    -0.012451171875,
    0.0167236328125,
    -0.0155029296875,
    0.04150390625,
    0.028564453125,
    -0.0262451171875,
    -0.043212890625,
    -0.041748046875,
    -0.031005859375,
    0.018310546875,
    -0.0272216796875,
    0.00994873046875,
    0.01409912109375,
    -0.0003681182861328125,
    0.023193359375,
    -0.0732421875,
    0.044921875,
    -0.006927490234375,
    0.001495361328125,
    -0.01318359375,
    0.0164794921875,
    0.034423828125,
    -0.03076171875,
    0.000804901123046875,
    0.035400390625,
    0.0233154296875,
    -0.00823974609375,
    -0.017822265625,
    0.004730224609375,
    -0.017822265625,
    0.000637054443359375,
    -0.080078125,
    -0.0267333984375,
    -0.0234375,
    -0.0052490234375,
    -0.02001953125,
    -0.00140380859375,
    0.009521484375,
    0.010498046875,
    0.0625,
    0.004180908203125,
    0.01116943359375,
    -0.00262451171875,
    0.014404296875,
    0.00128936767578125,
    -0.0234375,
    0.0279541015625,
    0.0262451171875,
    -0.006011962890625,
    -0.049560546875,
    -0.007720947265625,
    0.0008087158203125,
    0.002410888671875,
    -0.0247802734375,
    -0.01068115234375,
    0.0125732421875,
    0.006744384765625
   ]
  },
  "model.layers.0.mlp.gate_proj.weight": {
   "numel": 3145728,
   "sum": 118.99656659550965,
   "abs": 88958.94072965626,
   "sample": [
    -0.0186767578125,
    0.03271484375,
    0.0223388671875,
    -0.04345703125,
    0.0478515625,
    -0.00836181640625,
    0.02294921875,
    0.00897216796875,
    0.0244140625,
    0.006927490234375,
    -0.00885009765625,
    -0.0390625,
    -0.0164794921875,
    0.01397705078125,
    -0.0103759765625,
    -0.007080078125,
    -0.0556640625,
    0.02978515625,
    -0.01324462890625,
    0.0081787109375,
    -0.01104736328125,
    0.01263427734375,
    -0.064453125,
    0.03076171875,
    -0.0250244140625,
    -0.007568359375,
    0.002532958984375,
    -0.059814453125,
    0.00177001953125,
    0.0035400390625,
    0.01318359375,
    -0.0361328125,
    -0.0654296875,
    0.01611328125,
    -0.02001953125,
    0.004547119140625,
    0.0103759765625,
    0.043212890625,
    0.0157470703125,
    -0.058349609375,
    0.052490234375,
    0.017822265625,
    0.00836181640625,
    0.034912109375,
    -0.0031890869140625,
    0.021728515625,
    -0.00151824951171875,
    -0.0016021728515625,
    0.0152587890625,
    0.0203857421875,
    -0.0067138671875,
    -0.0218505859375,
    -0.053955078125,
    0.033935546875,
    0.056884765625,
    -0.031494140625,
    -0.003692626953125,
    -0.0059814453125,
    0.00836181640625,
    -0.04248046875,
    0.00482177734375,
    -0.029052734375,
    -0.004730224609375,
    0.0135498046875
   ]
  },
  "model.layers.0.mlp.up_proj.weight": {
   "numel": 3145728,
   "sum": -48.34952542738756,
   "abs": 64017.12749390182,
   "sample": [
    -0.04248046875,
    -0.0037841796875,
    -0.04296875,
    0.0238037109375,
    0.018310546875,
    -0.015625,
    0.0185546875,
    0.00604248046875,
    0.01544189453125,
    0.006134033203125,
    -0.0238037109375,
    -0.044677734375,
    -0.01953125,
    -0.03759765625,
    -0.037841796875,
    -0.00457763671875,
    -0.030029296875,
    -0.007659912109375,
    0.00994873046875,
    0.0206298828125,
    -0.00970458984375,
    -0.055419921875,
    -0.001556396484375,
    0.048828125,
    0.00089263916015625,
    0.02783203125,
    -0.0257568359375,
    -0.04296875,
    0.015380859375,
    0.0306396484375,
    0.00173187255859375,
    0.02001953125,
    -0.03125,
    0.04345703125,
    0.027587890625,
    0.004730224609375,
    0.0025177001953125,
    0.004730224609375,
    -0.0244140625,
    -0.004730224609375,
    0.03564453125,
    -0.0101318359375,
    0.0302734375,
    -0.015869140625,
    -0.021728515625,
    0.0108642578125,
    -0.040283203125,
    0.026611328125,
    0.00787353515625,
    -0.0101318359375,
    0.00069427490234375,
    0.005828857421875,
    0.03125,
    -0.0001735687255859375,
    0.01019287109375,
    -0.0140380859375,
    -0.0194091796875,
    0.01611328125,
    -0.007049560546875,
    0.01092529296875,
    0.01300048828125,
    -0.002166748046875,
    -0.0228271484375,
    0.0162353515625
   ]
  },
  "model.layers.0.post_attention_layernorm.weight": {
   "numel": 1024,
   "sum": 413.8964247107506,
   "abs": 510.9083532691002,
   "sample": [
    0.474609375,
    0.482421875,
    0.67578125,
    0.609375,
    -0.6640625,
    0.671875,
    0.5234375,
    -0.5078125,
    0.298828125,
    0.294921875,
    0.2578125,
    0.4453125,
    0.263671875,
    0.44921875,
    0.337890625,
    0.2216796875,
    0.3046875,
    0.232421875,
    0.408203125,
    0.47265625,
    0.4375,
    -0.43359375,
    0.4375,
    0.44921875,
    0.6171875,
    0.578125,
    0.43359375,
    0.427734375,
    0.46484375,
    0.453125,
    0.4453125,
    0.43359375,
    0.43359375,
    0.55078125,
    -0.63671875,
    0.455078125,
    0.46484375,
    0.41796875,
    0.44140625,
    0.55078125,
    0.466796875,
    0.515625,
    0.515625,
    0.486328125,
    0.5234375,
    0.54296875,
    0.462890625,
    0.56640625,
    0.546875,
    0.5546875,
    0.5234375,
    0.478515625,
    -0.58203125,
    0.57421875,
    0.546875,
    0.58984375,
    0.50390625,
    0.5546875,
    -0.5859375,
    -0.640625,
    0.51171875,
    -0.5546875,
    0.56640625,
    0.5703125
   ]
  },
  "model.layers.0.self_attn.k_norm.weight": {
   "numel": 128,
   "sum": 456.79541015625,
   "abs": 456.79541015625,
   "sample": [
    1.296875,
    4.40625,
    1.7578125,
    4.28125,
    1.609375,
    2.265625,
    5.34375,
    2.390625,
    2.296875,
    2.0625,
    1.90625,
    2.546875,
    1.2734375,
    2.078125,
    2.15625,
    2.40625,
    0.1591796875,
    2.59375,
    3.53125,
    3.375,
    2.5,
    3.890625,
    2.171875,
    2.9375,
    1.5234375,
    96.5,
    4.0625,
    1.0078125,
    1.890625,
    2.390625,
    2.609375,
    1.8671875,
    0.98046875,
    3.71875,
    1.8046875,
    3.734375,
    1.7734375,
    2.5625,
    1.1796875,
    2.265625,
    2.125,
    2.140625,
    1.828125,
    2.546875,
    26.25,
    2.296875,
    2.265625,
    2.484375,
    2.875,
    3.5625,
    2.84375,
    2.046875,
    2.875,
    2.21875,
    2.203125,
    1.8046875,
    4.21875,
    1.2109375,
    1.5234375,
    2.796875,
    3.109375,
    2.140625,
    2.0,
    2.015625
   ]
  },
  "model.layers.0.self_attn.k_proj.weight": {
   "numel": 1048576,
   "sum": -32.651308267144486,
   "abs": 24449.428643495077,
   "sample": [
    -0.0166015625,
    -0.00823974609375,
    0.11669921875,
    0.0042724609375,
    -0.0174560546875,
    0.0185546875,
    0.023681640625,
    0.004180908203125,
    0.10107421875,
    -0.0172119140625,
    -0.023193359375,
    0.01214599609375,
    -0.0126953125,
    0.01177978515625,
    0.00811767578125,
    0.0439453125,
    0.03564453125,
    -0.00020885467529296875,
    -0.002532958984375,
    0.08349609375,
    -0.004638671875,
    -0.017333984375,
    -0.035400390625,
    0.03369140625,
    0.0291748046875,
    -0.006103515625,
    0.003814697265625,
    -0.0017547607421875,
    0.018798828125,
    -0.02978515625,
    -0.0498046875,
    -0.0260009765625,
    0.01513671875,
    0.107421875,
    0.016845703125,
    0.0478515625,
    0.0517578125,
    0.00092315673828125,
    0.004791259765625,
    0.01409912109375,
    0.0107421875,
    0.0026702880859375,
    -0.01446533203125,
    0.0390625,
    -0.006500244140625,
    -0.00787353515625,
    -0.03173828125,
    0.035400390625,
    -0.01422119140625,
    0.0159912109375,
    0.05126953125,
    0.01287841796875,
    0.1591796875,
    0.0263671875,
    -0.03271484375,
    0.0225830078125,
    0.042236328125,
    -0.015869140625,
    0.026611328125,
    -0.0033416748046875,
    0.01611328125,
    -0.004150390625,
    0.0255126953125,
    -0.00604248046875
   ]
  },
  "model.layers.0.self_attn.o_proj.weight": {
   "numel": 2097152,
   "sum": 26.008040889835684,
   "abs": 40595.956425207754,
   "sample": [
    0.01446533203125,
    -0.00152587890625,
    0.032470703125,
    0.0020294189453125,
    0.01153564453125,
    -0.045166015625,
    -0.012939453125,
    -0.01141357421875,
    -0.01318359375,
    -0.0003032684326171875,
    0.003387451171875,
    -0.005340576171875,
    0.004058837890625,
    0.0113525390625,
    -0.01123046875,
    -0.0947265625,
    -0.047119140625,
    -0.01153564453125,
    -0.00018596649169921875,
    -0.006378173828125,
    -0.01953125,
    -0.0004825592041015625,
    0.01055908203125,
    0.0152587890625,
    -0.052734375,
    0.02685546875,
    0.025390625,
    -0.000701904296875,
    0.059814453125,
    -0.0810546875,
    -0.00341796875,
    -0.015380859375,
    -0.007568359375,
    -0.028564453125,
    -0.024658203125,
    0.01611328125,
    -0.005615234375,
    -0.0014190673828125,
    -0.04052734375,
    -0.043701171875,
    0.0038604736328125,
    -0.0279541015625,
    0.015625,
    0.00958251953125,
    0.0130615234375,
    0.03369140625,
    0.005523681640625,
    -0.03759765625,
    0.005279541015625,
    -0.004913330078125,
    0.017822265625,
    -0.0361328125,
    0.00421142578125,
    -0.01123046875,
    0.027099609375,
    0.0234375,
    -0.025146484375,
    0.0233154296875,
    -0.01513671875,
    0.0159912109375,
    -0.025390625,
    -0.009521484375,
    -0.0208740234375,
    -0.0228271484375
   ]
  },
  "model.layers.0.self_attn.q_norm.weight": {
   "numel": 128,
   "sum": 251.31468200683594,
   "abs": 252.85472106933594,
   "sample": [
    4.53125,
    -0.734375,
    2.59375,
    1.09375,
    2.765625,
    1.84375,
    0.734375,
    1.8984375,
    1.9375,
    2.1875,
    2.421875,
    1.7734375,
    1.046875,
    2.25,
    2.109375,
    1.8828125,
    11.8125,
    1.6640625,
    1.3203125,
    1.3828125,
    1.8828125,
    1.1875,
    2.109375,
    1.59375,
    3.140625,
    0.0023040771484375,
    1.2109375,
    4.84375,
    2.5,
    1.9296875,
    1.8671875,
    2.625,
    1.625,
    0.96875,
    2.109375,
    1.203125,
    2.515625,
    1.71875,
    2.0,
    1.9921875,
    2.09375,
    2.15625,
    2.484375,
    1.8046875,
    0.0218505859375,
    1.9453125,
    2.0,
    1.84375,
    0.15234375,
    1.3046875,
    1.6015625,
    2.140625,
    1.59375,
    2.03125,
    2.125,
    2.640625,
    1.140625,
    1.3046875,
    3.125,
    1.671875,
    1.484375,
    2.1875,
    2.34375,
    2.390625
   ]
  },
  "model.layers.0.self_attn.q_proj.weight": {
   "numel": 2097152,
   "sum": -57.638320175683475,
   "abs": 49550.09723921814,
   "sample": [
    0.0033721923828125,
    0.01007080078125,
    -0.025146484375,
    -0.0107421875,
    -0.00970458984375,
    0.053955078125,
    0.0400390625,
    -0.0179443359375,
    0.037109375,
    0.0103759765625,
    -0.004547119140625,
    -0.00140380859375,
    -0.0291748046875,
    0.024169921875,
    -0.0238037109375,
    -0.046630859375,
    -0.0225830078125,
    -0.01416015625,
    0.10498046875,
    0.021484375,
    -0.00592041015625,
    -0.0164794921875,
    0.055908203125,
    0.06005859375,
    0.0281982421875,
    0.034912109375,
    0.0361328125,
    0.00099945068359375,
    0.0830078125,
    -0.027099609375,
    0.041748046875,
    0.04638671875,
    0.0004673004150390625,
    0.0272216796875,
    0.03759765625,
    0.06640625,
    -0.027587890625,
    -0.0771484375,
    0.037841796875,
    -0.0037841796875,
    -0.0130615234375,
    0.04345703125,
    0.046875,
    0.017822265625,
    0.026123046875,
    -0.0211181640625,
    0.0234375,
    0.0400390625,
    0.0017242431640625,
    0.05712890625,
    -0.009521484375,
    -0.029296875,
    -0.0257568359375,
    -0.02783203125,
    0.07958984375,
    -0.025146484375,
    0.005096435546875,
    -0.009033203125,
    -0.0030517578125,
    -0.004791259765625,
    -0.0281982421875,
    0.041259765625,
    -0.020751953125,
    0.07763671875
   ]
  },
  "model.layers.0.self_attn.v_proj.weight": {
   "numel": 1048576,
   "sum": 74.1914752816665,
   "abs": 21888.656966297713,
   "sample": [
    0.01220703125,
    -0.0213623046875,
    -0.0208740234375,
    -0.0125732421875,
    0.0084228515625,
    0.00994873046875,
    -0.017578125,
    -0.020263671875,
    -0.0120849609375,
    0.0162353515625,
    0.01190185546875,
    0.021240234375,
    -0.0037689208984375,
    0.00848388671875,
    0.03759765625,
    -0.005523681640625,
    0.01177978515625,
    0.00176239013671875,
    0.04638671875,
    0.007354736328125,
    -0.01458740234375,
    -0.03125,
    -0.032958984375,
    -0.0283203125,
    -0.00726318359375,
    -0.025146484375,
    -0.03662109375,
    -0.007110595703125,
    0.0220947265625,
    -0.02587890625,
    0.0067138671875,
    -0.01513671875,
    -0.02685546875,
    0.0238037109375,
    0.02783203125,
    -0.0458984375,
    0.0023651123046875,
    0.0245361328125,
    0.033447265625,
    0.05419921875,
    -0.018798828125,
    0.004547119140625,
    0.0274658203125,
    0.029541015625,
    0.03857421875,
    0.006622314453125,
    0.0181884765625,
    0.0198974609375,
    -0.029052734375,
    0.01318359375,
    -0.0107421875,
    -0.0003662109375,
    -0.0045166015625,
    0.007293701171875,
    0.0291748046875,
    0.006622314453125,
    -0.00010633468627929688,
    -0.040283203125,
    -0.01708984375,
    -0.0458984375,
    -0.033935546875,
    0.01446533203125,
    0.02392578125,
    -0.0283203125
   ]
  },
  "model.layers.1.input_layernorm.weight": {
   "numel": 1024,
   "sum": 55.13764953613281,
   "abs": 141.3535919189453,
   "sample": [
    0.2255859375,
    -0.1767578125,
    0.18359375,
    0.1455078125,
    0.25,
    -0.158203125,
    -0.1357421875,
    0.12451171875,
    0.08642578125,
    -0.0888671875,
    0.06689453125,
    0.1328125,
    0.0712890625,
    0.12109375,
    0.10205078125,
    0.057861328125,
    0.0810546875,
    0.06591796875,
    0.10986328125,
    0.1279296875,
    0.10986328125,
    0.11083984375,
    -0.1181640625,
    0.10888671875,
    0.251953125,
    0.1455078125,
    -0.10400390625,
    0.11083984375,
    0.11328125,
    0.11865234375,
    0.11865234375,
    0.10009765625,
    0.10986328125,
    0.1591796875,
    -0.185546875,
    -0.11669921875,
    0.1103515625,
    0.10498046875,
    0.0986328125,
    0.1396484375,
    -0.12060546875,
    -0.1298828125,
    -0.1318359375,
    0.111328125,
    -0.123046875,
    0.142578125,
    -0.115234375,
    0.1474609375,
    -0.138671875,
    -0.142578125,
    -0.1298828125,
    0.1123046875,
    -0.1533203125,
    0.1552734375,
    0.1533203125,
    -0.158203125,
    0.11962890625,
    0.138671875,
    0.1591796875,
    -0.1865234375,
    0.1318359375,
    0.1484375,
    0.14453125,
    0.1513671875
   ]
  },
  "model.layers.1.mlp.down_proj.weight": {
   "numel": 3145728,
   "sum": -15.962617306075117,
   "abs": 55704.47218119722,
   "sample": [
    -0.006439208984375,
    -0.00836181640625,
    -0.00311279296875,
    -0.0120849609375,
    0.0235595703125,
    -0.0184326171875,
    0.00933837890625,
    0.0556640625,
    0.0213623046875,
    -0.007720947265625,
    0.043701171875,
    -0.029541015625,
    0.00726318359375,
    0.05224609375,
    0.0108642578125,
    0.018798828125,
    -0.036376953125,
    -0.0074462890625,
    -0.0059814453125,
    0.0040283203125,
    -0.00836181640625,
    -0.01904296875,
    -0.0157470703125,
    -0.01177978515625,
    0.006256103515625,
    -0.00110626220703125,
    -0.0277099609375,
    0.03271484375,
    0.0081787109375,
    0.013916015625,
    0.0224609375,
    0.007110595703125,
    0.0189208984375,
    -0.004638671875,
    -0.01708984375,
    -0.000919342041015625,
    -0.0206298828125,
    -0.0224609375,
    -0.0084228515625,
    0.0002574920654296875,
    -0.0238037109375,
    -0.004119873046875,
    0.0250244140625,
    -0.02490234375,
    0.0155029296875,
    -0.020751953125,
    -0.0247802734375,
    0.005889892578125,
    0.020751953125,
    -0.0150146484375,
    -0.0054931640625,
    0.01239013671875,
    0.007110595703125,
    -0.0250244140625,
    0.0576171875,
    -0.0021820068359375,
    -0.013671875,
    -0.0244140625,
    0.01507568359375,
    0.0260009765625,
    0.02490234375,
    -0.00787353515625,
    0.013916015625,
    0.00701904296875
   ]
  },
  "model.layers.1.mlp.gate_proj.weight": {
   "numel": 3145728,
   "sum": 302.48789238830796,
   "abs": 107216.24820353364,
   "sample": [
    0.051025390625,
    -0.00141143798828125,
    -0.0196533203125,
    0.037841796875,
    -0.0015869140625,
    -0.07080078125,
    0.01446533203125,
    -0.0018157958984375,
    0.031005859375,
    -0.0198974609375,
    0.01531982421875,
    0.01611328125,
    0.007171630859375,
    -0.018798828125,
    -0.0556640625,
    -0.05126953125,
    -0.0302734375,
    -0.00160980224609375,
    0.00799560546875,
    -0.039306640625,
    -0.004241943359375,
    0.00921630859375,
    0.050537109375,
    -0.038818359375,
    0.04296875,
    0.03662109375,
    -0.0205078125,
    0.028076171875,
    -0.045166015625,
    -0.0250244140625,
    -0.07666015625,
    0.08544921875,
    0.10791015625,
    0.005523681640625,
    -0.0498046875,
    0.0947265625,
    -0.01092529296875,
    0.0732421875,
    -0.03515625,
    0.03564453125,
    -0.08349609375,
    -0.0250244140625,
    0.0033111572265625,
    -0.00506591796875,
    0.0203857421875,
    0.0079345703125,
    -0.060791015625,
    0.03857421875,
    0.0009765625,
    -0.043701171875,
    -0.00274658203125,
    0.059326171875,
    -0.0230712890625,
    -0.078125,
    -0.02734375,
    -0.0128173828125,
    -0.041748046875,
    0.020263671875,
    0.0537109375,
    0.01422119140625,
    0.07763671875,
    -0.047607421875,
    0.0260009765625,
    0.0185546875
   ]
  },
  "model.layers.1.mlp.up_proj.weight": {
   "numel": 3145728,
   "sum": 31.825510500504606,
   "abs": 57300.1959514015,
   "sample": [
    -0.0146484375,
    0.0263671875,
    0.0029296875,
    0.00299072265625,
    -0.0208740234375,
    -0.0419921875,
    -0.006622314453125,
    0.003570556640625,
    -0.000667572021484375,
    -0.01287841796875,
    -0.0164794921875,
    0.0040283203125,
    -0.0035858154296875,
    0.039306640625,
    0.0026092529296875,
    -0.0034332275390625,
    -0.01361083984375,
    0.060302734375,
    -0.0128173828125,
    0.0277099609375,
    0.005218505859375,
    0.006195068359375,
    0.0118408203125,
    -0.005523681640625,
    0.004547119140625,
    0.046142578125,
    0.008544921875,
    -0.01385498046875,
    0.015869140625,
    0.0211181640625,
    0.03564453125,
    -0.002410888671875,
    0.009033203125,
    0.0205078125,
    -0.00189971923828125,
    0.03955078125,
    0.01068115234375,
    0.01446533203125,
    0.0250244140625,
    0.0240478515625,
    0.01434326171875,
    -0.013671875,
    -0.014892578125,
    -0.004302978515625,
    -0.0174560546875,
    -0.0019989013671875,
    0.0103759765625,
    -0.007232666015625,
    0.00244140625,
    0.0361328125,
    -0.00147247314453125,
    0.0238037109375,
    0.01611328125,
    -0.01348876953125,
    0.031494140625,
    -0.0299072265625,
    0.002655029296875,
    -0.008544921875,
    -0.05517578125,
    -0.011962890625,
    0.03515625,
    -0.0257568359375,
    0.003997802734375,
    -0.009521484375
   ]
  },
  "model.layers.1.post_attention_layernorm.weight": {
   "numel": 1024,
   "sum": 887.1795716285706,
   "abs": 901.554850101471,
   "sample": [
    1.6484375,
    2.28125,
    1.09375,
    1.03125,
    1.09375,
    1.0625,
    0.92578125,
    0.87890625,
    0.609375,
    0.57421875,
    0.5234375,
    0.76953125,
    0.546875,
    0.796875,
    0.63671875,
    0.43359375,
    0.5859375,
    0.470703125,
    0.7421875,
    0.828125,
    0.78125,
    0.78515625,
    0.76171875,
    0.8046875,
    1.0625,
    0.9609375,
    0.78515625,
    0.76171875,
    0.8125,
    0.78515625,
    0.78125,
    0.78125,
    0.75,
    0.96484375,
    1.0703125,
    0.84375,
    0.8203125,
    0.75390625,
    0.79296875,
    0.90234375,
    0.84375,
    0.88671875,
    0.90625,
    0.8359375,
    0.8984375,
    0.93359375,
    0.83984375,
    0.9609375,
    0.9296875,
    0.9609375,
    0.90234375,
    0.8046875,
    0.99609375,
    0.95703125,
    0.96484375,
    0.99609375,
    0.87890625,
    0.93359375,
    1.0234375,
    1.0546875,
    0.87109375,
    1.015625,
    0.953125,
    0.9453125
   ]
  },
  "model.layers.1.self_attn.k_norm.weight": {
   "numel": 128,
   "sum": 300.0321044921875,
   "abs": 312.2955322265625,
   "sample": [
    5.78125,
    4.4375,
    2.484375,
    0.83203125,
    -0.25,
    0.609375,
    1.078125,
    1.6484375,
    1.8671875,
    1.1015625,
    2.953125,
    1.1796875,
    2.90625,
    2.03125,
    3.25,
    3.328125,
    1.875,
    3.828125,
    2.34375,
    3.140625,
    2.234375,
    2.0625,
    -1.75,
    1.6171875,
    1.6484375,
    0.6484375,
    44.5,
    1.078125,
    2.0,
    2.859375,
    2.421875,
    1.796875,
    5.28125,
    2.40625,
    1.5859375,
    0.75,
    0.83984375,
    1.28125,
    0.78125,
    1.8125,
    1.25,
    2.359375,
    1.921875,
    3.78125,
    2.6875,
    2.859375,
    3.359375,
    2.859375,
    1.78125,
    2.59375,
    2.296875,
    1.8046875,
    1.1171875,
    1.8828125,
    6.84375,
    1.6171875,
    1.65625,
    2.25,
    -3.859375,
    1.234375,
    1.984375,
    2.0625,
    1.6875,
    2.171875
   ]
  },
  "model.layers.1.self_attn.k_proj.weight": {
   "numel": 1048576,
   "sum": -4.283128221519291,
   "abs": 23005.631863319315,
   "sample": [
    -0.0118408203125,
    -0.035400390625,
    0.05908203125,
    0.029296875,
    -0.0054931640625,
    -0.010986328125,
    -0.04052734375,
    -0.031494140625,
    0.00970458984375,
    0.019775390625,
    -0.005462646484375,
    0.0113525390625,
    0.00201416015625,
    -0.0179443359375,
    -0.00909423828125,
    -0.0201416015625,
    -0.0308837890625,
    -0.017333984375,
    -0.01275634765625,
    -0.0123291015625,
    -0.003936767578125,
    0.0054931640625,
    -0.03955078125,
    0.04296875,
    -0.004150390625,
    0.0281982421875,
    -0.0184326171875,
    0.06494140625,
    0.0311279296875,
    -0.02880859375,
    0.0103759765625,
    0.053955078125,
    -0.0263671875,
    0.01556396484375,
    -0.06591796875,
    -0.05859375,
    0.009521484375,
    -0.032470703125,
    -0.022216796875,
    0.01239013671875,
    0.00148773193359375,
    0.0166015625,
    0.01507568359375,
    0.026611328125,
    0.0174560546875,
    -0.028076171875,
    -0.0341796875,
    0.0084228515625,
    0.0233154296875,
    -0.00077056884765625,
    0.05078125,
    0.058349609375,
    0.0281982421875,
    -0.020751953125,
    -0.01080322265625,
    0.0019683837890625,
    0.00048065185546875,
    -0.01348876953125,
    -0.0033721923828125,
    0.03564453125,
    -0.01263427734375,
    0.0123291015625,
    -0.09375,
    -0.047119140625
   ]
  },
  "model.layers.1.self_attn.o_proj.weight": {
   "numel": 2097152,
   "sum": 17.552244753518607,
   "abs": 43638.15823548712,
   "sample": [
    -0.0264892578125,
    -0.02099609375,
    -0.0169677734375,
    -0.07275390625,
    0.0037078857421875,
    -0.040771484375,
    0.01043701171875,
    0.058349609375,
    -0.00150299072265625,
    0.0033111572265625,
    -0.0142822265625,
    -0.005035400390625,
    -0.0155029296875,
    0.0126953125,
    -0.0179443359375,
    0.0272216796875,
    -0.0284423828125,
    0.0186767578125,
    -0.0084228515625,
    -0.0133056640625,
    -0.0096435546875,
    0.048095703125,
    -0.0322265625,
    0.0019073486328125,
    -0.01422119140625,
    -0.0225830078125,
    0.004150390625,
    -0.0181884765625,
    0.03662109375,
    -0.005096435546875,
    -0.004547119140625,
    -0.0203857421875,
    0.0194091796875,
    -0.0299072265625,
    -0.03369140625,
    0.0208740234375,
    -0.01214599609375,
    0.01068115234375,
    0.002960205078125,
    -0.0057373046875,
    0.01507568359375,
    0.0306396484375,
    0.02685546875,
    0.03466796875,
    -0.01544189453125,
    -0.0125732421875,
    0.0283203125,
    -0.0299072265625,
    0.027099609375,
    0.0125732421875,
    -0.01446533203125,
    -0.006561279296875,
    -0.047607421875,
    0.03564453125,
    0.0194091796875,
    -0.0087890625,
    0.03564453125,
    -0.052978515625,
    -0.018798828125,
    -0.0172119140625,
    0.0296630859375,
    -0.0228271484375,
    0.040771484375,
    -0.00494384765625
   ]
  },
  "model.layers.1.self_attn.q_norm.weight": {
   "numel": 128,
   "sum": 191.98779296875,
   "abs": 199.68310546875,
   "sample": [
    0.400390625,
    0.79296875,
    1.2421875,
    3.21875,
    3.453125,
    2.4375,
    3.375,
    1.84375,
    1.734375,
    1.5234375,
    1.046875,
    1.3984375,
    1.140625,
    1.4453125,
    0.90625,
    0.8046875,
    1.6953125,
    0.83203125,
    1.3515625,
    0.859375,
    1.15625,
    1.3828125,
    1.5,
    1.5859375,
    1.578125,
    5.375,
    0.2109375,
    2.625,
    1.3828125,
    0.96875,
    1.8203125,
    1.71875,
    0.83984375,
    0.83984375,
    -1.1015625,
    2.40625,
    3.8125,
    2.140625,
    3.15625,
    1.4609375,
    1.859375,
    1.46875,
    1.359375,
    0.80078125,
    1.0625,
    1.0703125,
    0.92578125,
    0.80078125,
    1.6796875,
    0.9765625,
    1.34375,
    1.4296875,
    2.09375,
    1.5234375,
    0.5703125,
    1.6171875,
    1.5234375,
    -0.17578125,
    0.70703125,
    2.203125,
    1.4296875,
    2.15625,
    2.109375,
    1.34375
   ]
  },
  "model.layers.1.self_attn.q_proj.weight": {
   "numel": 2097152,
   "sum": 36.87174684094498,
   "abs": 47905.00888439623,
   "sample": [
    0.005401611328125,
    -0.034912109375,
    -0.008056640625,
    0.044189453125,
    0.018798828125,
    -0.004913330078125,
    -0.026611328125,
    -0.01904296875,
    -0.0014190673828125,
    0.0098876953125,
    0.0145263671875,
    0.005279541015625,
    -0.0025787353515625,
    -0.01123046875,
    0.0108642578125,
    -0.0306396484375,
    0.005859375,
    0.028076171875,
    0.002838134765625,
    -0.02587890625,
    0.0031585693359375,
    -0.0130615234375,
    -0.03564453125,
    0.0203857421875,
    0.01324462890625,
    0.01336669921875,
    0.0137939453125,
    0.027587890625,
    -0.0155029296875,
    -0.003082275390625,
    0.020263671875,
    -0.0162353515625,
    -0.010986328125,
    -0.015625,
    -0.039306640625,
    0.0223388671875,
    0.061767578125,
    0.0098876953125,
    -0.0076904296875,
    -0.0068359375,
    -0.004547119140625,
    -0.01007080078125,
    -0.034912109375,
    0.05712890625,
    0.00191497802734375,
    0.0086669921875,
    -0.0093994140625,
    0.0162353515625,
    0.00244140625,
    0.033935546875,
    -0.010498046875,
    0.04345703125,
    0.0216064453125,
    -0.03369140625,
    0.03173828125,
    -0.03564453125,
    0.10498046875,
    -0.011474609375,
    0.080078125,
    -0.003509521484375,
    -0.02978515625,
    0.0269775390625,
    0.006439208984375,
    -0.0306396484375
   ]
  },
  "model.layers.1.self_attn.v_proj.weight": {
   "numel": 1048576,
   "sum": 18.690399584826082,
   "abs": 23434.12325479416,
   "sample": [
    -0.00830078125,
    0.039794921875,
    -0.0135498046875,
    -0.0341796875,
    0.006744384765625,
    -0.01336669921875,
    -0.01007080078125,
    -0.00537109375,
    0.0072021484375,
    -0.007537841796875,
    0.0003814697265625,
    0.01385498046875,
    0.017333984375,
    0.01531982421875,
    0.00909423828125,
    0.041015625,
    0.038330078125,
    -0.045654296875,
    -0.07666015625,
    -0.0263671875,
    -0.01483154296875,
    0.0213623046875,
    -0.0194091796875,
    0.01348876953125,
    0.0145263671875,
    -0.0179443359375,
    -0.005584716796875,
    0.054931640625,
    0.01904296875,
    0.0045166015625,
    -0.01043701171875,
    0.009765625,
    -0.032958984375,
    0.023193359375,
    0.031982421875,
    -0.0016326904296875,
    0.049560546875,
    -0.0179443359375,
    0.06103515625,
    0.0166015625,
    -0.031005859375,
    -0.0023956298828125,
    -0.05126953125,
    -0.0013885498046875,
    0.000885009765625,
    0.06298828125,
    0.01104736328125,
    0.008056640625,
    -0.0096435546875,
    0.012939453125,
    -0.03662109375,
    -0.041259765625,
    -0.044677734375,
    0.0062255859375,
    -0.0262451171875,
    -0.00421142578125,
    -0.0308837890625,
    -0.004486083984375,
    -0.0206298828125,
    0.006561279296875,
    -0.037353515625,
    -0.0223388671875,
    -0.050537109375,
    0.007720947265625
   ]
  },
  "model.layers.10.input_layernorm.weight": {
   "numel": 1024,
   "sum": 1128.1591796875,
   "abs": 1129.2373046875,
   "sample": [
    1.703125,
    2.328125,
    0.9140625,
    0.9140625,
    1.84375,
    0.953125,
    0.83984375,
    1.1953125,
    0.302734375,
    0.29296875,
    0.232421875,
    0.76953125,
    0.2431640625,
    0.8828125,
    0.388671875,
    0.15625,
    0.306640625,
    0.1669921875,
    0.80078125,
    0.90234375,
    0.87109375,
    0.88671875,
    0.94921875,
    0.89453125,
    1.5390625,
    1.2890625,
    1.2265625,
    1.015625,
    1.078125,
    1.078125,
    1.03125,
    1.078125,
    1.09375,
    1.265625,
    1.6015625,
    1.0703125,
    1.15625,
    1.0625,
    1.0859375,
    1.453125,
    1.2109375,
    1.1875,
    1.1484375,
    1.109375,
    1.2109375,
    1.2109375,
    1.15625,
    1.28125,
    1.25,
    1.1484375,
    1.203125,
    1.1796875,
    1.3046875,
    1.21875,
    1.3046875,
    1.3046875,
    1.203125,
    1.2421875,
    1.359375,
    1.546875,
    1.265625,
    1.390625,
    1.2890625,
    1.2421875
   ]
  },
  "model.layers.10.mlp.down_proj.weight": {
   "numel": 3145728,
   "sum": 132.53767919111124,
   "abs": 56744.351541781725,
   "sample": [
    0.00537109375,
    0.02001953125,
    0.025390625,
    -0.0225830078125,
    0.00860595703125,
    0.018310546875,
    -0.01031494140625,
    0.034912109375,
    0.0174560546875,
    -0.014404296875,
    0.005767822265625,
    -0.00102996826171875,
    0.0093994140625,
    -0.009765625,
    -0.003265380859375,
    -0.00616455078125,
    0.00714111328125,
    0.005950927734375,
    0.01104736328125,
    0.057861328125,
    -0.00634765625,
    0.0029449462890625,
    -0.004425048828125,
    0.02587890625,
    -0.003997802734375,
    0.0167236328125,
    0.04638671875,
    0.0303955078125,
    -0.005615234375,
    0.018798828125,
    -0.00946044921875,
    0.010498046875,
    -0.00274658203125,
    0.01202392578125,
    0.006134033203125,
    -0.03466796875,
    -0.0147705078125,
    -0.02880859375,
    -0.0361328125,
    0.0262451171875,
    0.004364013671875,
    -0.0147705078125,
    0.026123046875,
    -0.032958984375,
    -0.005828857421875,
    -0.0245361328125,
    -0.0322265625,
    -0.034912109375,
    -0.003204345703125,
    0.017333984375,
    -0.0302734375,
    -0.050048828125,
    0.017578125,
    0.041748046875,
    0.0233154296875,
    -0.00482177734375,
    0.0159912109375,
    -0.0341796875,
    0.03125,
    0.0252685546875,
    0.0218505859375,
    0.001708984375,
    0.036865234375,
    0.021484375
   ]
  },
  "model.layers.10.mlp.gate_proj.weight": {
   "numel": 3145728,
   "sum": 63.686752944486216,
   "abs": 79079.77489727759,
   "sample": [
    -0.027099609375,
    -0.02392578125,
    0.0033721923828125,
    -0.0213623046875,
    -0.002288818359375,
    -0.02392578125,
    0.010009765625,
    -0.0262451171875,
    0.00057220458984375,
    -0.034912109375,
    -0.038330078125,
    0.054931640625,
    0.023681640625,
    0.0294189453125,
    0.005462646484375,
    0.009765625,
    -0.027587890625,
    0.0005340576171875,
    -0.005279541015625,
    0.042724609375,
    -0.01007080078125,
    -0.0208740234375,
    0.03125,
    0.01031494140625,
    0.041259765625,
    -0.054443359375,
    0.01092529296875,
    -0.0230712890625,
    -0.017333984375,
    0.010498046875,
    -0.0022735595703125,
    0.019775390625,
    -0.0284423828125,
    0.00909423828125,
    -0.0022125244140625,
    0.01397705078125,
    -0.015869140625,
    0.00107574462890625,
    -0.07080078125,
    -0.01611328125,
    -0.0478515625,
    0.005889892578125,
    0.10107421875,
    0.0654296875,
    0.019287109375,
    -0.009521484375,
    0.0142822265625,
    -0.080078125,
    -0.033935546875,
    0.00830078125,
    0.01544189453125,
    0.0169677734375,
    0.01080322265625,
    0.033935546875,
    -0.037353515625,
    -0.0255126953125,
    0.0279541015625,
    -0.03271484375,
    -0.0120849609375,
    0.029296875,
    0.02001953125,
    0.054931640625,
    -0.003021240234375,
    0.04248046875
   ]
  },
  "model.layers.10.mlp.up_proj.weight": {
   "numel": 3145728,
   "sum": 72.175455896926,
   "abs": 63789.98982863773,
   "sample": [
    0.00106048583984375,
    0.0167236328125,
    -0.0146484375,
    -0.01348876953125,
    0.037109375,
    0.0244140625,
    0.02587890625,
    0.010009765625,
    0.0157470703125,
    0.0012969970703125,
    -0.0235595703125,
    -0.00762939453125,
    0.00335693359375,
    0.00811767578125,
    0.02880859375,
    0.00726318359375,
    -0.00274658203125,
    -0.00689697265625,
    0.034912109375,
    -0.0289306640625,
    -0.056396484375,
    0.00885009765625,
    -0.01904296875,
    -0.00848388671875,
    0.022705078125,
    -0.01904296875,
    0.0033721923828125,
    0.0255126953125,
    0.052734375,
    0.018798828125,
    -0.002655029296875,
    0.004058837890625,
    -0.038818359375,
    -0.030029296875,
    0.000202178955078125,
    0.02685546875,
    0.0250244140625,
    0.0186767578125,
    -0.013671875,
    0.01336669921875,
    -0.0009307861328125,
    -0.0115966796875,
    0.035400390625,
    -0.038818359375,
    -0.0184326171875,
    5.555152893066406e-05,
    0.031494140625,
    -0.038818359375,
    0.022705078125,
    0.0264892578125,
    -0.021240234375,
    -0.0230712890625,
    0.038330078125,
    -0.00091552734375,
    0.0169677734375,
    -0.037109375,
    0.01470947265625,
    0.0673828125,
    -0.01556396484375,
    -0.023681640625,
    0.037109375,
    0.028564453125,
    -0.0034332275390625,
    0.0147705078125
   ]
  },
  "model.layers.10.post_attention_layernorm.weight": {
   "numel": 1024,
   "sum": 1179.9297454357147,
   "abs": 1179.9299018383026,
   "sample": [
    1.3359375,
    1.890625,
    1.359375,
    1.171875,
    0.98828125,
    1.1796875,
    1.1640625,
    1.3046875,
    0.466796875,
    0.447265625,
    0.369140625,
    0.8125,
    0.384765625,
    0.9453125,
    0.51953125,
    0.2197265625,
    0.4921875,
    0.2265625,
    0.9296875,
    0.984375,
    0.95703125,
    1.0,
    1.015625,
    1.109375,
    1.3515625,
    1.3828125,
    1.2890625,
    1.0703125,
    1.2265625,
    1.1484375,
    1.1328125,
    1.2890625,
    1.171875,
    1.328125,
    1.46875,
    1.21875,
    1.265625,
    1.15625,
    1.2265625,
    1.40625,
    1.2265625,
    1.265625,
    1.265625,
    1.265625,
    1.359375,
    1.296875,
    1.2421875,
    1.28125,
    1.328125,
    1.3046875,
    1.2734375,
    1.2578125,
    1.4453125,
    1.2734375,
    1.3359375,
    1.390625,
    1.296875,
    1.34375,
    1.34375,
    1.4296875,
    1.3125,
    1.3828125,
    1.421875,
    1.3046875
   ]
  },
  "model.layers.10.self_attn.k_norm.weight": {
   "numel": 128,
   "sum": 248.27989435195923,
   "abs": 248.28101587295532,
   "sample": [
    0.890625,
    -0.00022125244140625,
    1.328125,
    1.9375,
    1.8203125,
    0.00011587142944335938,
    2.421875,
    1.53125,
    2.953125,
    3.71875,
    1.0703125,
    1.796875,
    5.71875,
    2.609375,
    3.25,
    1.6640625,
    1.453125,
    1.765625,
    6.34375,
    1.75,
    1.015625,
    1.484375,
    0.267578125,
    1.0390625,
    1.703125,
    2.71875,
    0.1875,
    1.8515625,
    1.203125,
    1.375,
    2.984375,
    3.359375,
    1.265625,
    1.0859375,
    1.78125,
    0.65234375,
    0.00189208984375,
    0.48046875,
    1.7421875,
    1.3671875,
    1.4140625,
    2.203125,
    1.9375,
    2.421875,
    0.48046875,
    1.3125,
    1.03125,
    1.6484375,
    1.7890625,
    1.3046875,
    1.8046875,
    1.546875,
    2.28125,
    1.59375,
    0.64453125,
    1.125,
    1.609375,
    1.390625,
    10.125,
    1.1796875,
    1.484375,
    2.234375,
    1.8671875,
    2.609375
   ]
  },
  "model.layers.10.self_attn.k_proj.weight": {
   "numel": 1048576,
   "sum": -12.4666155599989,
   "abs": 21634.51962338062,
   "sample": [
    -0.0040283203125,
    -0.05419921875,
    -0.0162353515625,
    -0.0024261474609375,
    0.03759765625,
    0.016357421875,
    -0.018798828125,
    -0.0181884765625,
    0.031494140625,
    -0.000843048095703125,
    0.00897216796875,
    0.0234375,
    0.015869140625,
    0.0390625,
    -0.0067138671875,
    -0.0020904541015625,
    0.00506591796875,
    -0.0093994140625,
    0.021728515625,
    0.0257568359375,
    0.06787109375,
    -0.038330078125,
    -0.006256103515625,
    0.0274658203125,
    0.048583984375,
    -0.038818359375,
    -0.0042724609375,
    0.042236328125,
    -0.0255126953125,
    -0.018798828125,
    0.022705078125,
    0.029541015625,
    0.0032196044921875,
    0.01422119140625,
    -0.002410888671875,
    -0.0299072265625,
    -0.006866455078125,
    -0.0174560546875,
    -0.026611328125,
    -0.025146484375,
    0.0113525390625,
    0.0038604736328125,
    0.030517578125,
    0.0108642578125,
    0.001312255859375,
    0.01336669921875,
    -0.0087890625,
    -0.01470947265625,
    -0.0311279296875,
    0.01080322265625,
    0.00157928466796875,
    0.0245361328125,
    -0.011474609375,
    -0.0274658203125,
    -0.033935546875,
    -0.01318359375,
    0.003204345703125,
    -0.0155029296875,
    -0.0213623046875,
    0.0019683837890625,
    -0.034423828125,
    0.046875,
    -0.01507568359375,
    0.034423828125
   ]
  },
  "model.layers.10.self_attn.o_proj.weight": {
   "numel": 2097152,
   "sum": 5.270201343402732,
   "abs": 39606.81871899514,
   "sample": [
    -0.004302978515625,
    -0.0027008056640625,
    0.0013580322265625,
    -0.0196533203125,
    -0.01416015625,
    -0.044921875,
    -0.0244140625,
    0.0017852783203125,
    0.024658203125,
    0.001953125,
    0.0045166015625,
    0.02490234375,
    -0.005950927734375,
    -0.0301513671875,
    -0.00482177734375,
    -0.0150146484375,
    0.000934600830078125,
    0.0281982421875,
    -0.04541015625,
    -0.015625,
    -0.0194091796875,
    -0.07861328125,
    -0.0220947265625,
    0.03857421875,
    -0.03271484375,
    -0.029296875,
    -0.0306396484375,
    -0.0242919921875,
    -0.01409912109375,
    0.055419921875,
    -0.03173828125,
    0.00225830078125,
    0.0272216796875,
    0.0228271484375,
    -0.00457763671875,
    0.0537109375,
    -0.0030059814453125,
    0.00372314453125,
    -0.01611328125,
    0.0185546875,
    0.0260009765625,
    -0.0242919921875,
    -0.0179443359375,
    0.005096435546875,
    -0.016845703125,
    -0.033935546875,
    0.01092529296875,
    -0.0252685546875,
    -0.0198974609375,
    0.04052734375,
    0.0234375,
    -0.04638671875,
    0.010986328125,
    -0.0174560546875,
    0.0244140625,
    -0.0439453125,
    0.004302978515625,
    -0.01019287109375,
    -0.03564453125,
    0.031494140625,
    -0.0030975341796875,
    0.00946044921875,
    -0.0179443359375,
    0.038330078125
   ]
  },
  "model.layers.10.self_attn.q_norm.weight": {
   "numel": 128,
   "sum": 223.55825805664062,
   "abs": 223.55825805664062,
   "sample": [
    2.125,
    2.109375,
    1.28125,
    1.1484375,
    1.4921875,
    8.1875,
    1.0,
    1.3359375,
    0.9296875,
    0.765625,
    1.9609375,
    1.1953125,
    0.6015625,
    0.8828125,
    0.8359375,
    1.296875,
    1.5234375,
    1.2734375,
    0.46484375,
    1.34375,
    2.328125,
    1.546875,
    8.75,
    2.46875,
    1.3359375,
    0.8828125,
    3.953125,
    1.5703125,
    1.9296875,
    2.09375,
    1.0234375,
    0.80859375,
    2.109375,
    1.6875,
    1.2421875,
    1.296875,
    1.515625,
    6.6875,
    1.0703125,
    1.484375,
    1.421875,
    1.0,
    1.2734375,
    0.88671875,
    1.6640625,
    1.609375,
    1.8359375,
    1.421875,
    1.2734375,
    1.6015625,
    1.3515625,
    1.484375,
    1.0234375,
    1.390625,
    3.90625,
    2.5,
    1.4140625,
    1.609375,
    0.373046875,
    2.046875,
    1.78125,
    1.3125,
    1.734375,
    1.359375
   ]
  },
  "model.layers.10.self_attn.q_proj.weight": {
   "numel": 2097152,
   "sum": 15.026445215160493,
   "abs": 45961.471682924835,
   "sample": [
    -0.01556396484375,
    -0.004791259765625,
    -0.007781982421875,
    0.042724609375,
    0.014892578125,
    0.0302734375,
    0.010986328125,
    0.019287109375,
    0.0001373291015625,
    -0.020263671875,
    0.036376953125,
    0.0615234375,
    -0.025634765625,
    -0.001556396484375,
    -0.019775390625,
    -0.0220947265625,
    0.010986328125,
    -0.006591796875,
    0.01348876953125,
    0.00701904296875,
    -0.0034637451171875,
    -0.0184326171875,
    -0.0302734375,
    0.0007171630859375,
    -0.027587890625,
    0.0206298828125,
    0.005950927734375,
    0.01953125,
    -0.0179443359375,
    -0.001800537109375,
    -0.049072265625,
    0.0220947265625,
    -0.0012969970703125,
    0.00555419921875,
    0.0125732421875,
    -0.0101318359375,
    -0.0303955078125,
    0.010986328125,
    0.0032196044921875,
    -0.002899169921875,
    0.033447265625,
    0.06689453125,
    -0.03369140625,
    0.0264892578125,
    0.000782012939453125,
    -0.0089111328125,
    0.00165557861328125,
    0.0269775390625,
    0.06982421875,
    -0.0615234375,
    0.00311279296875,
    -0.002471923828125,
    -0.0042724609375,
    0.01190185546875,
    -0.04443359375,
    0.002471923828125,
    -0.00823974609375,
    -0.01275634765625,
    0.006622314453125,
    0.006195068359375,
    0.00119781494140625,
    -0.0089111328125,
    0.0240478515625,
    -0.017822265625
   ]
  },
  "model.layers.10.self_attn.v_proj.weight": {
   "numel": 1048576,
   "sum": -15.661482875351794,
   "abs": 22104.17673437216,
   "sample": [
    -0.00390625,
    -0.05712890625,
    0.0120849609375,
    -0.028076171875,
    -0.001251220703125,
    0.01202392578125,
    -0.001190185546875,
    0.023681640625,
    -0.00897216796875,
    -0.0030364990234375,
    -0.0086669921875,
    0.07958984375,
    -0.033935546875,
    -0.00104522705078125,
    -0.008056640625,
    0.05126953125,
    -0.00130462646484375,
    -0.0257568359375,
    0.0152587890625,
    -0.034423828125,
    -0.01312255859375,
    -0.0206298828125,
    -0.04833984375,
    -0.025390625,
    -0.00970458984375,
    0.01043701171875,
    0.04052734375,
    -0.00885009765625,
    0.012451171875,
    -0.036865234375,
    -0.021484375,
    -0.03173828125,
    -0.030517578125,
    -0.010009765625,
    -0.04833984375,
    0.0260009765625,
    -0.0306396484375,
    0.01055908203125,
    -0.046630859375,
    0.03271484375,
    -0.010009765625,
    0.0137939453125,
    0.024658203125,
    -0.000492095947265625,
    0.0211181640625,
    2.968311309814453e-05,
    -0.007598876953125,
    -0.01177978515625,
    -0.029541015625,
    0.0211181640625,
    -0.017822265625,
    0.049072265625,
    0.0191650390625,
    -0.00787353515625,
    -0.0181884765625,
    0.024169921875,
    0.006256103515625,
    0.0301513671875,
    0.02099609375,
    -0.016845703125,
    -0.02783203125,
    0.00604248046875,
    0.03564453125,
    0.07568359375
   ]
  },
  "model.layers.11.input_layernorm.weight": {
   "numel": 1024,
   "sum": 1440.9638671875,
   "abs": 1440.9638671875,
   "sample": [
    2.421875,
    3.140625,
    1.09375,
    0.96484375,
    2.890625,
    1.0546875,
    0.90625,
    1.3359375,
    1.765625,
    1.4453125,
    1.4375,
    0.91796875,
    1.40625,
    1.03125,
    1.09375,
    0.2373046875,
    0.65625,
    0.263671875,
    0.87890625,
    0.9453125,
    0.984375,
    1.0234375,
    1.0703125,
    0.96875,
    2.046875,
    1.640625,
    1.3984375,
    1.1484375,
    1.140625,
    1.28125,
    1.1796875,
    1.1953125,
    1.265625,
    1.625,
    1.921875,
    1.2421875,
    1.375,
    1.125,
    1.203125,
    1.8203125,
    1.3203125,
    1.421875,
    1.359375,
    1.375,
    1.4375,
    1.46875,
    1.328125,
    1.578125,
    1.4921875,
    1.328125,
    1.4296875,
    1.4140625,
    1.9453125,
    1.53125,
    1.671875,
    1.7265625,
    1.515625,
    1.453125,
    1.796875,
    2.03125,
    1.5625,
    1.796875,
    1.5859375,
    1.5
   ]
  },
  "model.layers.11.mlp.down_proj.weight": {
   "numel": 3145728,
   "sum": -14.020845249011472,
   "abs": 60565.931395946005,
   "sample": [
    0.017578125,
    -0.036376953125,
    0.01190185546875,
    -0.0026092529296875,
    0.01458740234375,
    0.0126953125,
    -0.0223388671875,
    -0.012451171875,
    0.00933837890625,
    -0.0107421875,
    -0.00194549560546875,
    0.00787353515625,
    0.004730224609375,
    -0.01507568359375,
    -0.02734375,
    0.017578125,
    0.0036773681640625,
    0.00531005859375,
    0.0234375,
    -0.038818359375,
    0.006103515625,
    0.01141357421875,
    -0.02001953125,
    0.043212890625,
    -0.0096435546875,
    0.01483154296875,
    -0.0201416015625,
    0.01458740234375,
    0.00946044921875,
    0.0257568359375,
    0.0107421875,
    -0.0615234375,
    -0.027099609375,
    0.0118408203125,
    -0.005401611328125,
    0.006561279296875,
    -0.0186767578125,
    -0.01611328125,
    -0.0172119140625,
    0.00537109375,
    0.01116943359375,
    -0.0126953125,
    0.006439208984375,
    0.0074462890625,
    -0.0228271484375,
    0.0264892578125,
    -0.0002899169921875,
    -0.025390625,
    -0.0155029296875,
    0.032958984375,
    0.04638671875,
    0.00081634521484375,
    0.0045166015625,
    0.00823974609375,
    0.01495361328125,
    -0.029541015625,
    -0.006683349609375,
    -0.00994873046875,
    -0.0146484375,
    -0.04150390625,
    0.0174560546875,
    -0.003997802734375,
    -0.00677490234375,
    -0.0013427734375
   ]
  },
  "model.layers.11.mlp.gate_proj.weight": {
   "numel": 3145728,
   "sum": 70.42797392827924,
   "abs": 74360.08989295119,
   "sample": [
    -0.040283203125,
    0.0177001953125,
    0.024169921875,
    -0.002197265625,
    0.0201416015625,
    0.00848388671875,
    -0.007171630859375,
    -0.00982666015625,
    0.0257568359375,
    -0.007110595703125,
    -0.039794921875,
    -0.04833984375,
    -0.01177978515625,
    -0.0157470703125,
    0.04150390625,
    -0.0205078125,
    0.0118408203125,
    0.009765625,
    -0.0103759765625,
    -0.039306640625,
    0.035888671875,
    -0.01104736328125,
    -0.0223388671875,
    0.0166015625,
    0.0306396484375,
    -0.015869140625,
    0.00250244140625,
    -0.023193359375,
    -0.050537109375,
    0.0206298828125,
    0.0032196044921875,
    -0.003936767578125,
    -0.056884765625,
    -0.004791259765625,
    -0.003448486328125,
    -0.0703125,
    -0.003631591796875,
    -0.00188446044921875,
    0.0361328125,
    -0.11181640625,
    -0.006103515625,
    0.0419921875,
    -0.0003719329833984375,
    -0.00927734375,
    -0.053955078125,
    -0.0283203125,
    0.00173187255859375,
    -0.0277099609375,
    0.0245361328125,
    0.03662109375,
    -0.01019287109375,
    -0.02392578125,
    0.0003910064697265625,
    0.0030059814453125,
    0.00946044921875,
    -0.044677734375,
    0.0068359375,
    0.017822265625,
    0.07177734375,
    -0.01043701171875,
    -0.08154296875,
    0.0035400390625,
    0.0262451171875,
    0.0081787109375
   ]
  },
  "model.layers.11.mlp.up_proj.weight": {
   "numel": 3145728,
   "sum": 5.325836803363927,
   "abs": 66027.17727649683,
   "sample": [
    -0.0018157958984375,
    0.00677490234375,
    0.022216796875,
    -0.0179443359375,
    0.00909423828125,
    0.041015625,
    -0.017578125,
    0.015380859375,
    -0.0203857421875,
    -0.00933837890625,
    0.0693359375,
    0.00628662109375,
    0.0086669921875,
    0.0166015625,
    0.031982421875,
    0.01153564453125,
    -0.00390625,
    -0.042724609375,
    -0.0208740234375,
    -0.0019378662109375,
    -0.0157470703125,
    0.010498046875,
    -0.01300048828125,
    0.04150390625,
    0.0038909912109375,
    -0.004364013671875,
    0.0281982421875,
    0.010986328125,
    0.00872802734375,
    0.0240478515625,
    -0.00286865234375,
    -0.00075531005859375,
    0.001678466796875,
    -0.02734375,
    0.017333984375,
    -0.03564453125,
    -0.041748046875,
    -0.0026092529296875,
    -0.0169677734375,
    0.0400390625,
    0.035888671875,
    0.00885009765625,
    0.0026092529296875,
    0.02001953125,
    0.01043701171875,
    0.049560546875,
    0.007354736328125,
    -0.004241943359375,
    -0.01092529296875,
    -0.0751953125,
    0.0194091796875,
    -0.02880859375,
    -0.059814453125,
    -0.0233154296875,
    0.037841796875,
    -0.01708984375,
    0.0021209716796875,
    0.002471923828125,
    -0.01031494140625,
    -0.002838134765625,
    0.0184326171875,
    -0.0128173828125,
    -0.044189453125,
    0.0380859375
   ]
  },
  "model.layers.11.post_attention_layernorm.weight": {
   "numel": 1024,
   "sum": 1226.25910282135,
   "abs": 1228.49347782135,
   "sample": [
    1.0703125,
    1.6171875,
    1.25,
    1.0546875,
    1.046875,
    1.1015625,
    1.109375,
    1.40625,
    0.25,
    0.267578125,
    0.19921875,
    0.78125,
    0.2216796875,
    0.96875,
    0.40625,
    0.216796875,
    0.294921875,
    0.23828125,
    0.87109375,
    0.9921875,
    0.9921875,
    0.984375,
    1.015625,
    1.0546875,
    1.5703125,
    1.546875,
    1.3515625,
    1.109375,
    1.2421875,
    1.1796875,
    1.1875,
    1.2734375,
    1.234375,
    1.4765625,
    1.7109375,
    1.265625,
    1.3125,
    1.15625,
    1.2734375,
    1.4921875,
    1.3125,
    1.390625,
    1.3515625,
    1.390625,
    1.375,
    1.4609375,
    1.3046875,
    1.484375,
    1.453125,
    1.390625,
    1.34375,
    1.359375,
    1.71875,
    1.4609375,
    1.5234375,
    1.6015625,
    1.4296875,
    1.5078125,
    1.6171875,
    1.8046875,
    1.4921875,
    1.5859375,
    1.4453125,
    1.46875
   ]
  },
  "model.layers.11.self_attn.k_norm.weight": {
   "numel": 128,
   "sum": 266.1651086807251,
   "abs": 266.26090145111084,
   "sample": [
    0.423828125,
    0.59375,
    0.203125,
    -0.00238037109375,
    3.421875,
    -0.0020751953125,
    0.006195068359375,
    0.796875,
    0.00173187255859375,
    3.515625,
    3.5625,
    0.490234375,
    3.078125,
    2.140625,
    2.390625,
    1.90625,
    2.1875,
    2.015625,
    2.171875,
    2.140625,
    2.046875,
    2.09375,
    1.625,
    3.625,
    2.78125,
    2.515625,
    2.21875,
    2.4375,
    2.25,
    2.703125,
    3.828125,
    3.609375,
    2.296875,
    1.1328125,
    1.53125,
    1.9453125,
    5.1875,
    1.09375,
    2.078125,
    2.703125,
    1.984375,
    2.203125,
    2.3125,
    1.5078125,
    1.6640625,
    0.7734375,
    1.828125,
    1.9921875,
    1.546875,
    1.515625,
    1.9296875,
    3.046875,
    2.609375,
    2.171875,
    3.453125,
    1.921875,
    2.28125,
    2.703125,
    2.234375,
    2.421875,
    2.21875,
    2.71875,
    3.765625,
    4.15625
   ]
  },
  "model.layers.11.self_attn.k_proj.weight": {
   "numel": 1048576,
   "sum": -51.10064684553072,
   "abs": 20364.40433071414,
   "sample": [
    -0.028076171875,
    0.01275634765625,
    -3.3855438232421875e-05,
    -0.07568359375,
    0.05126953125,
    -0.044189453125,
    -0.0223388671875,
    0.01708984375,
    0.00335693359375,
    0.0072021484375,
    0.00506591796875,
    -0.035888671875,
    0.0299072265625,
    0.0299072265625,
    -0.00531005859375,
    -0.049560546875,
    -0.0211181640625,
    -0.01104736328125,
    -0.00933837890625,
    0.0089111328125,
    -0.0174560546875,
    0.0162353515625,
    -0.016845703125,
    -0.03466796875,
    0.059814453125,
    -0.07177734375,
    -0.039794921875,
    0.0228271484375,
    -0.0458984375,
    -0.06640625,
    0.0223388671875,
    -0.02734375,
    0.0004634857177734375,
    0.01153564453125,
    0.01177978515625,
    -0.0045166015625,
    -0.01226806640625,
    0.00653076171875,
    0.00070953369140625,
    0.026611328125,
    0.004852294921875,
    -0.005767822265625,
    -0.0169677734375,
    0.032958984375,
    -0.017822265625,
    -0.00070953369140625,
    0.0179443359375,
    -0.0274658203125,
    -0.00885009765625,
    -0.030517578125,
    2.5987625122070312e-05,
    0.012451171875,
    0.0224609375,
    -0.0093994140625,
    -0.0035552978515625,
    0.0152587890625,
    -0.083984375,
    0.00897216796875,
    0.043701171875,
    -0.031982421875,
    -0.03662109375,
    0.0078125,
    -0.00128936767578125,
    0.00046539306640625
   ]
  },
  "model.layers.11.self_attn.o_proj.weight": {
   "numel": 2097152,
   "sum": 21.914315640111454,
   "abs": 35970.22109104588,
   "sample": [
    0.00872802734375,
    -0.0036468505859375,
    0.0255126953125,
    0.001800537109375,
    -0.0250244140625,
    -0.003509521484375,
    0.0242919921875,
    0.02685546875,
    -0.0030975341796875,
    -0.003997802734375,
    -0.00162506103515625,
    -0.01348876953125,
    -0.00110626220703125,
    -0.0050048828125,
    0.1376953125,
    0.009765625,
    0.02783203125,
    0.00579833984375,
    0.023193359375,
    -0.01043701171875,
    0.00170135498046875,
    -0.0028839111328125,
    0.0137939453125,
    -0.0107421875,
    0.025390625,
    -0.002471923828125,
    -0.0015106201171875,
    0.032958984375,
    -0.0042724609375,
    -0.0289306640625,
    -0.0045166015625,
    0.00860595703125,
    -0.000270843505859375,
    -0.007659912109375,
    0.009765625,
    -0.037109375,
    -0.01190185546875,
    0.0257568359375,
    -0.00148773193359375,
    -0.0135498046875,
    -0.0081787109375,
    0.010009765625,
    0.0087890625,
    -0.0196533203125,
    -0.004974365234375,
    0.01275634765625,
    0.02978515625,
    0.01324462890625,
    -0.01300048828125,
    0.02587890625,
    0.035400390625,
    -0.0004730224609375,
    0.027099609375,
    -0.00811767578125,
    -0.0169677734375,
    0.012939453125,
    0.023193359375,
    0.007232666015625,
    0.0037994384765625,
    0.04541015625,
    -0.042236328125,
    0.0035858154296875,
    -0.0162353515625,
    -0.00118255615234375
   ]
  },
  "model.layers.11.self_attn.q_norm.weight": {
   "numel": 128,
   "sum": 225.36004638671875,
   "abs": 225.36004638671875,
   "sample": [
    1.578125,
    0.00482177734375,
    0.04248046875,
    1.34375,
    0.6875,
    2.90625,
    1.4765625,
    1.265625,
    2.0,
    1.03125,
    1.1484375,
    2.53125,
    1.375,
    1.6875,
    1.8046875,
    1.7421875,
    1.984375,
    2.265625,
    1.90625,
    2.03125,
    2.25,
    2.0,
    3.078125,
    1.8046875,
    1.5390625,
    1.8203125,
    1.953125,
    1.78125,
    2.140625,
    2.03125,
    1.5078125,
    1.8515625,
    1.3984375,
    2.4375,
    2.34375,
    1.6015625,
    0.78125,
    2.953125,
    1.640625,
    1.1640625,
    1.9609375,
    1.0546875,
    1.125,
    2.40625,
    1.4375,
    1.9765625,
    1.859375,
    1.8203125,
    2.296875,
    2.671875,
    2.109375,
    1.6484375,
    1.984375,
    1.9296875,
    1.75,
    2.34375,
    2.109375,
    1.609375,
    1.8828125,
    1.8359375,
    2.171875,
    2.515625,
    1.6328125,
    1.4609375
   ]
  },
  "model.layers.11.self_attn.q_proj.weight": {
   "numel": 2097152,
   "sum": -26.902450723806396,
   "abs": 45724.65377309336,
   "sample": [
    0.0169677734375,
    -0.012939453125,
    -0.07470703125,
    -0.001129150390625,
    0.037353515625,
    0.01263427734375,
    0.006988525390625,
    0.001495361328125,
    0.0279541015625,
    -0.00078582763671875,
    0.00372314453125,
    -0.007720947265625,
    -0.004852294921875,
    -0.00109100341796875,
    0.03564453125,
    0.01556396484375,
    -0.000274658203125,
    0.049560546875,
    0.0118408203125,
    -0.006500244140625,
    -0.0093994140625,
    0.00323486328125,
    0.00482177734375,
    -0.03515625,
    0.0216064453125,
    -0.0164794921875,
    0.040283203125,
    0.0084228515625,
    -0.0062255859375,
    -0.01483154296875,
    -0.00225830078125,
    -0.0274658203125,
    -0.0001811981201171875,
    -0.0211181640625,
    -0.0194091796875,
    -0.0029144287109375,
    0.00799560546875,
    0.0361328125,
    0.1015625,
    0.025146484375,
    -0.0257568359375,
    -0.00799560546875,
    -0.0025634765625,
    0.041748046875,
    0.01068115234375,
    -0.0281982421875,
    -0.01080322265625,
    0.00537109375,
    -0.02880859375,
    -0.01025390625,
    0.00457763671875,
    0.01611328125,
    0.00153350830078125,
    0.0098876953125,
    0.02734375,
    0.020263671875,
    -0.01397705078125,
    0.00225830078125,
    -0.0390625,
    -0.0400390625,
    0.0291748046875,
    -0.0191650390625,
    0.0615234375,
    -0.01470947265625
   ]
  },
  "model.layers.11.self_attn.v_proj.weight": {
   "numel": 1048576,
   "sum": 7.112221157876775,
   "abs": 20423.534405611455,
   "sample": [
    -0.0289306640625,
    -0.007415771484375,
    -0.01513671875,
    0.006500244140625,
    -0.00537109375,
    0.0250244140625,
    0.00034332275390625,
    0.0091552734375,
    0.00921630859375,
    -0.004913330078125,
    -0.05810546875,
    0.0159912109375,
    -0.0185546875,
    -0.043701171875,
    -0.0089111328125,
    1.633167266845703e-05,
    -0.0023956298828125,
    0.015380859375,
    0.00439453125,
    0.00323486328125,
    0.0115966796875,
    -0.010009765625,
    0.0162353515625,
    -0.0615234375,
    0.01373291015625,
    -0.0185546875,
    0.031982421875,
    0.0224609375,
    -0.041748046875,
    0.01141357421875,
    0.00170135498046875,
    -0.00130462646484375,
    -0.01141357421875,
    0.032958984375,
    0.023681640625,
    -0.00799560546875,
    -0.01043701171875,
    -0.0025787353515625,
    0.035888671875,
    -0.01806640625,
    -0.001983642578125,
    -0.025146484375,
    0.01385498046875,
    0.01361083984375,
    -0.036865234375,
    0.01165771484375,
    -0.0074462890625,
    0.00090789794921875,
    0.0133056640625,
    -0.0439453125,
    0.014404296875,
    -0.0208740234375,
    0.0341796875,
    0.01611328125,
    -0.03662109375,
    0.022705078125,
    -0.0419921875,
    -0.043212890625,
    0.02392578125,
    -0.0211181640625,
    -0.036376953125,
    -0.02685546875,
    0.01123046875,
    -0.0272216796875
   ]
  },
  "model.layers.12.input_layernorm.weight": {
   "numel": 1024,
   "sum": 1654.45654296875,
   "abs": 1661.83154296875,
   "sample": [
    1.75,
    3.0,
    1.140625,
    1.0859375,
    3.640625,
    1.0625,
    0.99609375,
    1.8046875,
    0.240234375,
    0.220703125,
    0.1611328125,
    0.9296875,
    0.1923828125,
    1.1015625,
    0.39453125,
    0.17578125,
    0.2734375,
    0.212890625,
    0.96875,
    1.09375,
    1.1171875,
    1.125,
    1.2109375,
    1.0859375,
    2.796875,
    2.09375,
    1.71875,
    1.3125,
    1.3125,
    1.3828125,
    1.3984375,
    1.375,
    1.4765625,
    1.9765625,
    2.796875,
    1.5,
    1.7421875,
    1.328125,
    1.546875,
    2.296875,
    1.765625,
    1.7265625,
    1.625,
    1.7578125,
    1.7421875,
    1.9375,
    1.6640625,
    2.109375,
    2.09375,
    1.671875,
    1.796875,
    1.796875,
    2.546875,
    1.9921875,
    2.359375,
    2.421875,
    1.890625,
    2.0,
    2.625,
    2.875,
    2.25,
    2.484375,
    2.046875,
    2.046875
   ]
  },
  "model.layers.12.mlp.down_proj.weight": {
   "numel": 3145728,
   "sum": -27.118993375450373,
   "abs": 60324.17912108195,
   "sample": [
    0.006500244140625,
    -0.00506591796875,
    -0.038330078125,
    0.03564453125,
    0.000438690185546875,
    -0.004486083984375,
    -0.024169921875,
    -0.01611328125,
    -0.017333984375,
    0.00897216796875,
    0.0247802734375,
    0.022705078125,
    0.001495361328125,
    -0.0341796875,
    -0.00909423828125,
    0.0247802734375,
    0.0289306640625,
    0.00933837890625,
    0.044677734375,
    -0.0225830078125,
    -0.0123291015625,
    -0.055908203125,
    -0.0152587890625,
    -0.0238037109375,
    -0.0037384033203125,
    -0.01226806640625,
    -0.03125,
    -0.004669189453125,
    0.048095703125,
    -0.0186767578125,
    0.006744384765625,
    -0.017333984375,
    -0.0291748046875,
    0.01251220703125,
    -0.025634765625,
    -0.0101318359375,
    -0.014892578125,
    -0.020263671875,
    0.033447265625,
    -0.0029296875,
    0.01202392578125,
    0.062255859375,
    -0.00341796875,
    -0.0245361328125,
    0.0040283203125,
    0.0189208984375,
    0.0211181640625,
    0.00738525390625,
    0.0096435546875,
    0.0185546875,
    -0.004425048828125,
    0.0281982421875,
    0.003082275390625,
    0.0027313232421875,
    -0.00799560546875,
    0.020263671875,
    0.000751495361328125,
    0.00811767578125,
    0.039794921875,
    -0.0198974609375,
    0.033203125,
    -0.0091552734375,
    0.00506591796875,
    -0.01007080078125
   ]
  },
  "model.layers.12.mlp.gate_proj.weight": {
   "numel": 3145728,
   "sum": 40.53290574881248,
   "abs": 71323.45034911972,
   "sample": [
    -0.0107421875,
    0.01220703125,
    -0.030029296875,
    0.01611328125,
    0.0263671875,
    0.0113525390625,
    -0.0032958984375,
    -0.03369140625,
    -0.0272216796875,
    0.01556396484375,
    -0.0191650390625,
    -0.0091552734375,
    -0.006866455078125,
    0.0130615234375,
    -0.0062255859375,
    -0.03955078125,
    -0.016845703125,
    -0.0213623046875,
    0.01434326171875,
    0.0089111328125,
    -0.0228271484375,
    0.0133056640625,
    0.006195068359375,
    -0.004119873046875,
    0.059326171875,
    -0.0115966796875,
    -0.044677734375,
    -0.025634765625,
    0.0002651214599609375,
    -0.0279541015625,
    0.04736328125,
    0.0303955078125,
    -0.04345703125,
    -0.021728515625,
    0.0419921875,
    0.00555419921875,
    0.037109375,
    0.0126953125,
    0.0166015625,
    0.032958984375,
    -0.03076171875,
    -0.0029144287109375,
    -0.029052734375,
    0.0206298828125,
    0.04345703125,
    0.0205078125,
    -0.0133056640625,
    0.038330078125,
    -0.00150299072265625,
    -0.0084228515625,
    -0.010498046875,
    -0.11376953125,
    0.046630859375,
    -0.033935546875,
    0.005615234375,
    0.0267333984375,
    -0.00518798828125,
    -0.0230712890625,
    -0.020751953125,
    -0.01416015625,
    -0.08935546875,
    0.0081787109375,
    -0.08642578125,
    0.0279541015625
   ]
  },
  "model.layers.12.mlp.up_proj.weight": {
   "numel": 3145728,
   "sum": 40.73126938100904,
   "abs": 65088.06369853811,
   "sample": [
    -0.0009765625,
    -0.07177734375,
    -0.000911712646484375,
    0.00982666015625,
    -0.034423828125,
    -0.03271484375,
    0.0096435546875,
    -0.01806640625,
    0.0050048828125,
    -0.04052734375,
    -0.01019287109375,
    0.0164794921875,
    0.0140380859375,
    0.0257568359375,
    -0.0145263671875,
    0.0026397705078125,
    0.0186767578125,
    0.029296875,
    -0.0093994140625,
    0.03466796875,
    0.050537109375,
    0.0019989013671875,
    0.01312255859375,
    -0.01416015625,
    0.01031494140625,
    -0.021240234375,
    -0.0205078125,
    -0.006591796875,
    0.0517578125,
    -0.01251220703125,
    0.036376953125,
    -0.00909423828125,
    -0.05126953125,
    0.019775390625,
    -0.0439453125,
    -0.0224609375,
    0.033203125,
    -0.0140380859375,
    -0.007232666015625,
    0.07958984375,
    0.0234375,
    0.00140380859375,
    -0.0174560546875,
    0.00408935546875,
    -0.00811767578125,
    0.02587890625,
    -0.0269775390625,
    -0.05859375,
    -0.0087890625,
    0.01409912109375,
    -0.00543212890625,
    -0.01483154296875,
    -0.0189208984375,
    0.0032196044921875,
    0.0030059814453125,
    -0.0150146484375,
    0.004913330078125,
    -0.0164794921875,
    -0.045166015625,
    -0.018798828125,
    0.0439453125,
    -0.06298828125,
    0.061279296875,
    -0.01287841796875
   ]
  },
  "model.layers.12.post_attention_layernorm.weight": {
   "numel": 1024,
   "sum": 1215.8575763702393,
   "abs": 1218.045175075531,
   "sample": [
    1.078125,
    1.5,
    1.203125,
    1.015625,
    0.9140625,
    1.015625,
    1.0390625,
    1.421875,
    0.244140625,
    0.2431640625,
    0.1884765625,
    0.76171875,
    0.2236328125,
    0.9609375,
    0.392578125,
    0.2177734375,
    0.302734375,
    0.236328125,
    0.8515625,
    0.94921875,
    0.94140625,
    0.90625,
    0.984375,
    0.98046875,
    1.484375,
    1.5625,
    1.3515625,
    1.0546875,
    1.203125,
    1.15625,
    1.1796875,
    1.21875,
    1.2109375,
    1.5390625,
    1.65625,
    1.25,
    1.2890625,
    1.125,
    1.2578125,
    1.4765625,
    1.3125,
    1.375,
    1.3671875,
    1.375,
    1.390625,
    1.40625,
    1.328125,
    1.5,
    1.46875,
    1.40625,
    1.3125,
    1.34375,
    1.734375,
    1.5,
    1.59375,
    1.6484375,
    1.453125,
    1.515625,
    1.640625,
    1.84375,
    1.4921875,
    1.6015625,
    1.46875,
    1.484375
   ]
  },
  "model.layers.12.self_attn.k_norm.weight": {
   "numel": 128,
   "sum": 225.1846957206726,
   "abs": 225.20325899124146,
   "sample": [
    0.6015625,
    0.640625,
    0.11767578125,
    0.00037384033203125,
    1.3359375,
    -0.00384521484375,
    1.21875,
    1.3046875,
    1.6796875,
    0.82421875,
    0.80078125,
    1.296875,
    1.53125,
    1.203125,
    2.21875,
    1.7265625,
    2.453125,
    2.28125,
    2.0,
    0.49609375,
    1.8984375,
    2.578125,
    3.0625,
    1.84375,
    1.3828125,
    1.625,
    1.1953125,
    1.734375,
    1.8203125,
    3.84375,
    2.265625,
    2.3125,
    0.65625,
    0.01129150390625,
    1.171875,
    0.80859375,
    0.045654296875,
    0.76953125,
    0.007080078125,
    0.0032501220703125,
    1.2890625,
    1.8515625,
    1.265625,
    1.890625,
    2.296875,
    0.8515625,
    1.9921875,
    0.380859375,
    1.9296875,
    1.859375,
    1.7265625,
    2.9375,
    1.7109375,
    2.140625,
    1.8125,
    2.921875,
    1.9375,
    1.4921875,
    1.25,
    1.734375,
    1.75,
    2.421875,
    2.125,
    2.34375
   ]
  },
  "model.layers.12.self_attn.k_proj.weight": {
   "numel": 1048576,
   "sum": -5.713270267879125,
   "abs": 20217.87941192364,
   "sample": [
    0.0107421875,
    0.01080322265625,
    -0.02294921875,
    -0.06005859375,
    -0.007659912109375,
    0.0185546875,
    -0.04443359375,
    -0.00133514404296875,
    0.056396484375,
    0.0179443359375,
    -0.01165771484375,
    -0.045166015625,
    -0.0087890625,
    -0.0023193359375,
    0.042724609375,
    0.0301513671875,
    -0.0576171875,
    0.01416015625,
    0.0078125,
    0.0299072265625,
    0.007049560546875,
    0.020263671875,
    0.00018978118896484375,
    0.0286865234375,
    -0.01373291015625,
    -0.005706787109375,
    -0.04150390625,
    0.00933837890625,
    -0.011962890625,
    0.00167083740234375,
    -0.0140380859375,
    0.01092529296875,
    -0.000385284423828125,
    -0.003631591796875,
    -0.0235595703125,
    -0.01324462890625,
    -0.0322265625,
    -0.0189208984375,
    -0.01361083984375,
    0.00982666015625,
    -0.00010347366333007812,
    -0.01251220703125,
    0.047607421875,
    -0.0240478515625,
    -0.00732421875,
    -0.0172119140625,
    0.0020599365234375,
    -0.011962890625,
    0.05224609375,
    0.002349853515625,
    0.0267333984375,
    0.01806640625,
    -0.0262451171875,
    -0.017822265625,
    -0.029052734375,
    0.00994873046875,
    0.0172119140625,
    -0.046142578125,
    0.0040283203125,
    -0.01019287109375,
    -0.01177978515625,
    0.02099609375,
    0.007232666015625,
    0.006561279296875
   ]
  },
  "model.layers.12.self_attn.o_proj.weight": {
   "numel": 2097152,
   "sum": -25.11478622283903,
   "abs": 37569.198344691395,
   "sample": [
    0.00250244140625,
    -0.0030059814453125,
    -0.0111083984375,
    0.020263671875,
    -0.025146484375,
    0.0004711151123046875,
    0.0166015625,
    0.006195068359375,
    -0.00087738037109375,
    -0.0038299560546875,
    0.0036163330078125,
    -0.01348876953125,
    -0.001800537109375,
    0.0211181640625,
    -0.0147705078125,
    -0.021240234375,
    0.046142578125,
    -0.01153564453125,
    -0.0255126953125,
    0.00579833984375,
    0.0172119140625,
    -0.034912109375,
    0.01519775390625,
    -0.059814453125,
    0.0201416015625,
    -0.033447265625,
    0.00186920166015625,
    5.155801773071289e-06,
    0.0263671875,
    -0.025390625,
    -0.0299072265625,
    0.02978515625,
    0.0191650390625,
    0.010009765625,
    -0.006500244140625,
    0.0048828125,
    -0.049072265625,
    -0.0341796875,
    0.0019073486328125,
    0.021240234375,
    0.0159912109375,
    -0.037841796875,
    -0.0211181640625,
    0.00537109375,
    -0.0125732421875,
    0.017822265625,
    -0.00885009765625,
    0.004638671875,
    -0.0084228515625,
    -0.00125885009765625,
    -0.00823974609375,
    -0.003875732421875,
    0.00750732421875,
    -0.0203857421875,
    0.03662109375,
    0.0135498046875,
    0.004852294921875,
    -0.00091552734375,
    -0.021240234375,
    0.0201416015625,
    -0.0252685546875,
    0.01361083984375,
    0.017333984375,
    0.00148773193359375
   ]
  },
  "model.layers.12.self_attn.q_norm.weight": {
   "numel": 128,
   "sum": 221.20362854003906,
   "abs": 221.23973083496094,
   "sample": [
    2.671875,
    2.78125,
    -0.0024261474609375,
    0.43359375,
    2.078125,
    0.16015625,
    2.03125,
    2.484375,
    1.9765625,
    1.6640625,
    2.359375,
    1.8984375,
    1.796875,
    2.734375,
    1.53125,
    2.21875,
    1.3515625,
    1.5625,
    1.7578125,
    3.390625,
    1.6171875,
    1.1796875,
    1.578125,
    1.8828125,
    1.8515625,
    1.7265625,
    2.578125,
    1.5,
    1.7734375,
    1.0625,
    1.5,
    2.5625,
    0.0732421875,
    0.0712890625,
    1.328125,
    3.125,
    0.04736328125,
    3.8125,
    0.1181640625,
    2.3125,
    1.9765625,
    1.6171875,
    2.296875,
    1.6796875,
    1.515625,
    3.46875,
    1.5703125,
    3.515625,
    1.65625,
    1.78125,
    1.90625,
    1.6640625,
    1.75,
    1.390625,
    2.0,
    1.28125,
    1.515625,
    1.7734375,
    2.234375,
    1.484375,
    1.796875,
    1.75,
    1.640625,
    1.6015625
   ]
  },
  "model.layers.12.self_attn.q_proj.weight": {
   "numel": 2097152,
   "sum": 4.829101859188313,
   "abs": 46088.93250455259,
   "sample": [
    -0.011962890625,
    0.021728515625,
    0.00168609619140625,
    -0.01953125,
    0.017333984375,
    -0.0250244140625,
    0.014404296875,
    -0.006988525390625,
    -0.035888671875,
    0.0703125,
    -0.0223388671875,
    -0.02734375,
    0.107421875,
    0.00628662109375,
    -0.002410888671875,
    0.0257568359375,
    -0.042724609375,
    -0.0269775390625,
    -0.004180908203125,
    -0.006561279296875,
    0.02294921875,
    -0.00445556640625,
    0.0096435546875,
    -0.000614166259765625,
    0.017822265625,
    -0.01611328125,
    0.0169677734375,
    0.0205078125,
    0.031494140625,
    0.002166748046875,
    0.00604248046875,
    -0.033935546875,
    -0.00054931640625,
    -0.00848388671875,
    0.01202392578125,
    0.0267333984375,
    0.01220703125,
    -0.01080322265625,
    -0.005462646484375,
    -0.0152587890625,
    -0.0162353515625,
    0.01116943359375,
    0.0546875,
    0.0111083984375,
    -0.0147705078125,
    0.01556396484375,
    0.00191497802734375,
    -0.0693359375,
    0.020751953125,
    -0.0703125,
    0.0225830078125,
    -0.032958984375,
    -0.00109100341796875,
    -0.03466796875,
    0.0166015625,
    -0.0230712890625,
    -0.028076171875,
    -0.0322265625,
    -0.027099609375,
    0.01287841796875,
    0.037109375,
    0.0198974609375,
    0.040771484375,
    -0.0152587890625
   ]
  },
  "model.layers.12.self_attn.v_proj.weight": {
   "numel": 1048576,
   "sum": -19.813968956354074,
   "abs": 21548.15656663489,
   "sample": [
    -0.00543212890625,
    0.010986328125,
    0.01251220703125,
    -0.028564453125,
    0.000591278076171875,
    -0.06396484375,
    -0.024169921875,
    -0.032470703125,
    -0.05224609375,
    0.002197265625,
    0.0272216796875,
    0.0164794921875,
    -0.0003719329833984375,
    0.02197265625,
    -0.01275634765625,
    0.00921630859375,
    -0.01287841796875,
    -0.00994873046875,
    0.01092529296875,
    -0.042236328125,
    0.03955078125,
    -0.0224609375,
    -0.009033203125,
    -0.004730224609375,
    0.003631591796875,
    0.01318359375,
    -0.0142822265625,
    0.0263671875,
    -0.01220703125,
    0.0146484375,
    -0.035888671875,
    0.00860595703125,
    -0.01055908203125,
    0.0115966796875,
    -0.0595703125,
    -0.0277099609375,
    -0.01251220703125,
    -0.031494140625,
    -0.01416015625,
    -0.01422119140625,
    0.00017642974853515625,
    -0.0037384033203125,
    0.0026397705078125,
    0.007232666015625,
    -0.04150390625,
    0.0302734375,
    0.035400390625,
    -0.018798828125,
    0.0267333984375,
    0.0133056640625,
    0.0145263671875,
    0.02490234375,
    -0.005401611328125,
    0.0250244140625,
    -0.04052734375,
    0.00531005859375,
    0.0260009765625,
    0.01214599609375,
    -0.037841796875,
    0.0252685546875,
    -0.0087890625,
    -0.006988525390625,
    0.044677734375,
    0.0223388671875
   ]
  },
  "model.layers.13.input_layernorm.weight": {
   "numel": 1024,
   "sum": 1728.3271484375,
   "abs": 1737.0693359375,
   "sample": [
    2.171875,
    3.359375,
    1.2109375,
    1.2109375,
    3.359375,
    1.15625,
    1.078125,
    1.765625,
    0.26171875,
    0.244140625,
    0.177734375,
    0.95703125,
    0.1884765625,
    1.1796875,
    0.43359375,
    0.201171875,
    0.275390625,
    0.2119140625,
    0.98046875,
    1.125,
    1.15625,
    1.09375,
    1.25,
    1.046875,
    2.96875,
    2.078125,
    1.7109375,
    1.3671875,
    1.3046875,
    1.4296875,
    1.515625,
    1.5234375,
    1.5234375,
    2.140625,
    2.84375,
    1.4296875,
    1.765625,
    1.34375,
    1.5078125,
    2.34375,
    1.7578125,
    1.9140625,
    1.8984375,
    1.828125,
    1.765625,
    1.8046875,
    1.7265625,
    2.3125,
    2.1875,
    1.78125,
    1.875,
    1.9375,
    2.546875,
    2.140625,
    2.53125,
    2.578125,
    1.9765625,
    2.1875,
    2.71875,
    3.015625,
    2.25,
    2.71875,
    2.25,
    2.25
   ]
  },
  "model.layers.13.mlp.down_proj.weight": {
   "numel": 3145728,
   "sum": 11.747246799845016,
   "abs": 57845.105508539214,
   "sample": [
    0.0247802734375,
    -0.0286865234375,
    0.0308837890625,
    -0.00049591064453125,
    0.012939453125,
    -0.004730224609375,
    0.01275634765625,
    0.0029296875,
    0.0014801025390625,
    -0.0001049041748046875,
    0.005462646484375,
    0.0040283203125,
    0.01275634765625,
    -0.0026702880859375,
    0.01806640625,
    -0.0019989013671875,
    0.004150390625,
    -0.005615234375,
    0.027099609375,
    0.05517578125,
    -0.004608154296875,
    0.00150299072265625,
    0.0264892578125,
    0.0159912109375,
    0.002044677734375,
    0.0111083984375,
    -0.034912109375,
    0.0250244140625,
    -0.03955078125,
    0.01953125,
    -0.034423828125,
    0.052978515625,
    0.06884765625,
    0.01202392578125,
    0.00087738037109375,
    0.0177001953125,
    -0.01019287109375,
    0.00897216796875,
    0.0390625,
    0.00177764892578125,
    -0.00787353515625,
    0.006805419921875,
    -0.0126953125,
    -0.01025390625,
    -0.0245361328125,
    -0.0037078857421875,
    -0.0036163330078125,
    -0.0108642578125,
    -0.00982666015625,
    0.03369140625,
    0.0517578125,
    -0.0223388671875,
    0.041259765625,
    0.0301513671875,
    0.0157470703125,
    -0.02392578125,
    -0.00750732421875,
    -0.0074462890625,
    0.01165771484375,
    -0.001617431640625,
    0.019287109375,
    -0.0390625,
    0.01007080078125,
    0.00034332275390625
   ]
  },
  "model.layers.13.mlp.gate_proj.weight": {
   "numel": 3145728,
   "sum": -24.751224078936502,
   "abs": 67937.54150933283,
   "sample": [
    -0.03857421875,
    -0.0067138671875,
    -0.01361083984375,
    -0.0081787109375,
    0.026611328125,
    0.012939453125,
    0.010009765625,
    0.016845703125,
    0.0291748046875,
    -0.0263671875,
    -0.000354766845703125,
    0.0245361328125,
    -0.007415771484375,
    0.0191650390625,
    -0.006683349609375,
    0.02783203125,
    0.0673828125,
    0.034423828125,
    -0.0225830078125,
    -0.0264892578125,
    -0.03173828125,
    -0.00225830078125,
    0.016845703125,
    0.0498046875,
    -0.017578125,
    -0.035888671875,
    0.0078125,
    0.041748046875,
    0.0181884765625,
    -0.018310546875,
    -0.031005859375,
    0.0546875,
    -0.07275390625,
    0.0201416015625,
    0.004241943359375,
    -0.0230712890625,
    -0.037353515625,
    0.0234375,
    0.0146484375,
    -0.008056640625,
    -0.034423828125,
    0.07177734375,
    0.02880859375,
    0.012451171875,
    -0.00799560546875,
    0.031982421875,
    -0.029052734375,
    -0.0024871826171875,
    -0.001434326171875,
    -0.00103759765625,
    0.0269775390625,
    -0.02294921875,
    -0.0128173828125,
    0.005279541015625,
    -0.0120849609375,
    0.017578125,
    0.01068115234375,
    4.482269287109375e-05,
    0.037109375,
    0.0439453125,
    0.0439453125,
    -0.0269775390625,
    0.00799560546875,
    0.002410888671875
   ]
  },
  "model.layers.13.mlp.up_proj.weight": {
   "numel": 3145728,
   "sum": 13.127828973229043,
   "abs": 62319.289428976015,
   "sample": [
    0.022216796875,
    0.005889892578125,
    0.0021820068359375,
    -0.0004138946533203125,
    0.0169677734375,
    -0.0252685546875,
    0.037109375,
    -0.0093994140625,
    -0.006378173828125,
    -0.007415771484375,
    -0.010009765625,
    -0.0283203125,
    0.024169921875,
    0.01416015625,
    -0.037109375,
    -0.08203125,
    0.0238037109375,
    -0.0220947265625,
    -0.025146484375,
    0.002044677734375,
    0.0277099609375,
    0.004364013671875,
    -0.0101318359375,
    -0.0006866455078125,
    -0.043212890625,
    0.00848388671875,
    -0.0135498046875,
    -0.034912109375,
    -0.0245361328125,
    0.04345703125,
    -0.017333984375,
    0.000583648681640625,
    0.0277099609375,
    0.0028839111328125,
    -0.03369140625,
    0.01251220703125,
    0.004638671875,
    0.0145263671875,
    0.0194091796875,
    0.05029296875,
    -0.0225830078125,
    0.036865234375,
    0.031494140625,
    -0.032958984375,
    0.005126953125,
    0.0037994384765625,
    0.006317138671875,
    0.024169921875,
    -0.043212890625,
    0.0206298828125,
    0.00823974609375,
    0.007537841796875,
    0.0206298828125,
    0.01409912109375,
    -0.0257568359375,
    -0.0294189453125,
    -0.02099609375,
    -0.0034027099609375,
    -0.08349609375,
    -0.00213623046875,
    0.03759765625,
    0.0223388671875,
    -0.0103759765625,
    0.046630859375
   ]
  },
  "model.layers.13.post_attention_layernorm.weight": {
   "numel": 1024,
   "sum": 1322.4695537090302,
   "abs": 1322.4699981212616,
   "sample": [
    1.2421875,
    1.6875,
    1.2578125,
    1.0703125,
    0.9296875,
    1.0703125,
    1.125,
    1.5625,
    0.263671875,
    0.271484375,
    0.2080078125,
    0.84375,
    0.2236328125,
    1.0078125,
    0.427734375,
    0.24609375,
    0.330078125,
    0.263671875,
    0.890625,
    0.96484375,
    1.0078125,
    0.93359375,
    1.03125,
    0.98828125,
    1.5625,
    1.84375,
    1.484375,
    1.1328125,
    1.2109375,
    1.1953125,
    1.2109375,
    1.3359375,
    1.2734375,
    1.6484375,
    1.9453125,
    1.328125,
    1.4140625,
    1.15625,
    1.2890625,
    1.59375,
    1.3984375,
    1.5234375,
    1.453125,
    1.5078125,
    1.4921875,
    1.5625,
    1.40625,
    1.6875,
    1.609375,
    1.4921875,
    1.4921875,
    1.40625,
    1.9453125,
    1.65625,
    1.8203125,
    1.84375,
    1.578125,
    1.6640625,
    1.828125,
    2.09375,
    1.6875,
    1.828125,
    1.65625,
    1.625
   ]
  },
  "model.layers.13.self_attn.k_norm.weight": {
   "numel": 128,
   "sum": 227.45911407470703,
   "abs": 227.50445175170898,
   "sample": [
    1.2890625,
    -0.0003261566162109375,
    1.0625,
    0.703125,
    0.515625,
    2.078125,
    1.96875,
    6.29425048828125e-05,
    1.28125,
    2.484375,
    1.578125,
    1.9765625,
    1.8828125,
    2.015625,
    1.796875,
    1.9296875,
    1.859375,
    2.234375,
    1.8671875,
    1.8671875,
    2.078125,
    1.90625,
    2.109375,
    1.984375,
    2.5,
    1.7578125,
    1.796875,
    0.828125,
    2.15625,
    1.515625,
    2.546875,
    2.5625,
    0.27734375,
    1.1328125,
    2.453125,
    -0.0021820068359375,
    -0.000637054443359375,
    1.953125,
    0.5234375,
    0.8984375,
    1.421875,
    1.5234375,
    2.9375,
    1.140625,
    1.5,
    2.3125,
    2.9375,
    2.296875,
    2.21875,
    2.546875,
    2.046875,
    1.9921875,
    2.4375,
    1.765625,
    1.3984375,
    2.015625,
    2.0625,
    1.875,
    1.921875,
    0.78125,
    2.3125,
    2.15625,
    2.4375,
    2.78125
   ]
  },
  "model.layers.13.self_attn.k_proj.weight": {
   "numel": 1048576,
   "sum": -33.55126664415002,
   "abs": 19098.879282578826,
   "sample": [
    0.00775146484375,
    0.0311279296875,
    -0.034423828125,
    -0.0240478515625,
    -0.00799560546875,
    0.01446533203125,
    -0.007781982421875,
    -0.00182342529296875,
    0.0322265625,
    0.00439453125,
    -0.0034332275390625,
    -0.01953125,
    -0.021240234375,
    -0.0189208984375,
    0.020751953125,
    -0.048095703125,
    -0.00537109375,
    0.04833984375,
    -0.00848388671875,
    0.037109375,
    -0.00775146484375,
    -0.0133056640625,
    0.0028076171875,
    -0.0546875,
    -0.00131988525390625,
    0.006195068359375,
    -0.0026092529296875,
    0.034423828125,
    0.0283203125,
    0.032470703125,
    0.023681640625,
    0.01129150390625,
    0.0291748046875,
    -0.0027313232421875,
    -0.0380859375,
    -0.015625,
    0.0007171630859375,
    0.039306640625,
    0.01220703125,
    -0.0157470703125,
    0.05322265625,
    -0.06640625,
    0.031005859375,
    0.0172119140625,
    -0.0419921875,
    0.050048828125,
    0.00897216796875,
    0.01611328125,
    0.00927734375,
    0.053466796875,
    0.01324462890625,
    -0.0234375,
    -0.0166015625,
    -0.0098876953125,
    -0.00433349609375,
    -0.037109375,
    -0.016845703125,
    0.01220703125,
    0.028564453125,
    -0.016357421875,
    -0.005157470703125,
    0.034423828125,
    0.0152587890625,
    -0.0023345947265625
   ]
  },
  "model.layers.13.self_attn.o_proj.weight": {
   "numel": 2097152,
   "sum": 11.388320176396519,
   "abs": 36186.025081916945,
   "sample": [
    -0.0341796875,
    0.0093994140625,
    -0.00154876708984375,
    -0.0040283203125,
    -0.01165771484375,
    0.01226806640625,
    0.0146484375,
    0.021728515625,
    -0.024169921875,
    -0.00157928466796875,
    0.0021820068359375,
    -0.0084228515625,
    -0.0031280517578125,
    -0.0021514892578125,
    0.0052490234375,
    0.004669189453125,
    -0.015380859375,
    -0.00634765625,
    -0.01092529296875,
    -0.00640869140625,
    -0.01214599609375,
    0.0019683837890625,
    -0.0113525390625,
    -0.0458984375,
    0.015869140625,
    0.032470703125,
    -0.038330078125,
    -0.03271484375,
    -0.01324462890625,
    -0.0166015625,
    -0.0196533203125,
    -0.002166748046875,
    0.005523681640625,
    0.01446533203125,
    -0.00518798828125,
    0.0087890625,
    -0.0223388671875,
    0.0272216796875,
    -0.018310546875,
    0.00193023681640625,
    -0.0167236328125,
    0.00469970703125,
    0.0169677734375,
    -0.02783203125,
    0.0279541015625,
    -0.029052734375,
    0.035400390625,
    0.031982421875,
    0.0087890625,
    0.0017852783203125,
    0.0186767578125,
    -0.0299072265625,
    -0.0185546875,
    -0.0096435546875,
    -0.03955078125,
    0.05615234375,
    -0.0283203125,
    0.0159912109375,
    0.0184326171875,
    -0.0177001953125,
    0.0130615234375,
    -0.00106048583984375,
    -0.0196533203125,
    0.00191497802734375
   ]
  },
  "model.layers.13.self_attn.q_norm.weight": {
   "numel": 128,
   "sum": 233.4674072265625,
   "abs": 234.0128173828125,
   "sample": [
    2.03125,
    2.46875,
    1.1328125,
    3.953125,
    6.53125,
    1.3828125,
    1.328125,
    4.25,
    1.953125,
    1.265625,
    1.25,
    1.5625,
    1.609375,
    1.4140625,
    1.3671875,
    1.4140625,
    1.6953125,
    1.4296875,
    1.8671875,
    1.8515625,
    1.875,
    1.9140625,
    2.34375,
    1.6875,
    1.4453125,
    1.8125,
    1.6953125,
    4.15625,
    1.640625,
    2.890625,
    1.9140625,
    1.7890625,
    2.125,
    2.296875,
    1.2421875,
    3.90625,
    4.15625,
    1.265625,
    1.421875,
    4.25,
    1.8671875,
    1.2265625,
    1.2265625,
    1.7734375,
    1.7421875,
    1.375,
    1.125,
    1.3515625,
    1.5625,
    1.46875,
    1.796875,
    1.75,
    1.765625,
    1.953125,
    2.984375,
    1.9375,
    1.828125,
    1.703125,
    1.5703125,
    4.5,
    1.5078125,
    1.9765625,
    1.859375,
    2.359375
   ]
  },
  "model.layers.13.self_attn.q_proj.weight": {
   "numel": 2097152,
   "sum": 34.88259827889851,
   "abs": 43905.33822736153,
   "sample": [
    -0.0181884765625,
    0.008544921875,
    -0.0224609375,
    0.031494140625,
    0.0267333984375,
    -0.0019683837890625,
    -0.029052734375,
    -0.025390625,
    -0.002471923828125,
    0.04248046875,
    -0.072265625,
    0.0272216796875,
    0.0028533935546875,
    0.06689453125,
    0.0203857421875,
    -0.0208740234375,
    0.00933837890625,
    -0.0145263671875,
    0.008544921875,
    1.3113021850585938e-05,
    -0.00138092041015625,
    0.034423828125,
    0.021484375,
    0.0272216796875,
    0.0242919921875,
    -0.026611328125,
    0.01397705078125,
    -0.041015625,
    -0.00726318359375,
    -0.01123046875,
    -0.0478515625,
    -0.01153564453125,
    0.03271484375,
    0.005218505859375,
    0.01904296875,
    0.035888671875,
    0.0026092529296875,
    -0.08056640625,
    0.00567626953125,
    -0.047607421875,
    -0.03369140625,
    0.0250244140625,
    -0.003662109375,
    0.0279541015625,
    -0.01116943359375,
    0.00154876708984375,
    -0.00958251953125,
    0.027099609375,
    -0.007537841796875,
    0.00927734375,
    -0.042724609375,
    -0.01348876953125,
    0.0181884765625,
    -0.00897216796875,
    0.00958251953125,
    -0.0072021484375,
    0.0022430419921875,
    -0.0059814453125,
    0.004791259765625,
    0.031982421875,
    0.06591796875,
    -0.0166015625,
    0.05419921875,
    -0.01239013671875
   ]
  },
  "model.layers.13.self_attn.v_proj.weight": {
   "numel": 1048576,
   "sum": -54.938475199720415,
   "abs": 21496.95586631794,
   "sample": [
    -0.015869140625,
    0.0380859375,
    0.03857421875,
    0.016845703125,
    -0.0012664794921875,
    -0.0087890625,
    -0.00494384765625,
    -0.029296875,
    0.02587890625,
    -0.01361083984375,
    -0.0172119140625,
    -0.00799560546875,
    -0.0213623046875,
    -0.0169677734375,
    -0.036865234375,
    -0.033203125,
    0.0196533203125,
    0.00848388671875,
    0.01470947265625,
    0.041748046875,
    0.015380859375,
    0.00823974609375,
    -0.01068115234375,
    0.0673828125,
    0.03955078125,
    -0.01080322265625,
    0.006591796875,
    -0.052001953125,
    0.0220947265625,
    0.0257568359375,
    -0.0079345703125,
    0.022705078125,
    -0.015869140625,
    -0.050048828125,
    0.033447265625,
    -0.046630859375,
    -0.00506591796875,
    0.01361083984375,
    0.00225830078125,
    0.00042724609375,
    0.0277099609375,
    0.00665283203125,
    -0.031494140625,
    0.01214599609375,
    -0.0201416015625,
    0.02197265625,
    0.0201416015625,
    0.04443359375,
    -0.038330078125,
    -0.01513671875,
    -0.00048065185546875,
    0.016357421875,
    0.01080322265625,
    -0.0098876953125,
    0.01904296875,
    0.034912109375,
    0.0029296875,
    0.016845703125,
    0.00250244140625,
    -0.03173828125,
    0.037109375,
    0.0198974609375,
    -0.029296875,
    -0.032470703125
   ]
  },
  "model.layers.14.input_layernorm.weight": {
   "numel": 1024,
   "sum": 1976.5556640625,
   "abs": 1986.9775390625,
   "sample": [
    2.15625,
    3.78125,
    1.2421875,
    1.203125,
    3.59375,
    1.21875,
    1.109375,
    2.125,
    0.330078125,
    0.279296875,
    0.203125,
    1.0546875,
    0.2177734375,
    1.28125,
    0.48046875,
    0.2265625,
    0.322265625,
    0.251953125,
    1.0390625,
    1.1640625,
    1.1875,
    1.1484375,
    1.3125,
    1.0546875,
    3.671875,
    2.71875,
    2.125,
    1.4765625,
    1.40625,
    1.5,
    1.515625,
    1.6640625,
    1.6328125,
    2.546875,
    3.953125,
    1.6328125,
    1.9921875,
    1.4140625,
    1.6015625,
    2.640625,
    1.9765625,
    2.125,
    2.125,
    2.0,
    1.9921875,
    2.109375,
    1.9375,
    2.75,
    2.65625,
    1.96875,
    2.21875,
    2.125,
    3.28125,
    2.328125,
    3.3125,
    3.171875,
    2.390625,
    2.46875,
    3.375,
    3.640625,
    2.65625,
    3.359375,
    2.484375,
    2.625
   ]
  },
  "model.layers.14.mlp.down_proj.weight": {
   "numel": 3145728,
   "sum": 0.7085918047232553,
   "abs": 56846.8036004497,
   "sample": [
    0.00183868408203125,
    0.007049560546875,
    -0.0301513671875,
    -0.00933837890625,
    -0.0123291015625,
    -0.00860595703125,
    -0.01220703125,
    0.004486083984375,
    -0.0159912109375,
    -0.00170135498046875,
    -0.0054931640625,
    -0.0224609375,
    -0.005767822265625,
    0.005401611328125,
    0.0103759765625,
    -0.00811767578125,
    -0.01226806640625,
    -0.000667572021484375,
    0.00106048583984375,
    -0.032958984375,
    -0.011474609375,
    0.040771484375,
    0.0927734375,
    -0.0218505859375,
    0.00830078125,
    0.012939453125,
    0.006683349609375,
    0.0301513671875,
    -0.0439453125,
    -0.005859375,
    0.034912109375,
    0.01385498046875,
    -0.0150146484375,
    0.034423828125,
    0.00701904296875,
    -0.0027008056640625,
    0.0289306640625,
    0.058349609375,
    0.00112152099609375,
    -0.026611328125,
    -0.0281982421875,
    0.006927490234375,
    -0.0032501220703125,
    -0.029296875,
    -0.002288818359375,
    0.0167236328125,
    -0.04931640625,
    0.0126953125,
    -0.002655029296875,
    0.01611328125,
    -0.02880859375,
    -0.024658203125,
    -0.0004673004150390625,
    -0.0023193359375,
    -0.04345703125,
    -0.006866455078125,
    0.0194091796875,
    0.01177978515625,
    -0.01300048828125,
    0.031982421875,
    0.000644683837890625,
    0.0135498046875,
    0.0238037109375,
    0.016357421875
   ]
  },
  "model.layers.14.mlp.gate_proj.weight": {
   "numel": 3145728,
   "sum": 170.88873031473486,
   "abs": 64612.6501284751,
   "sample": [
    0.004119873046875,
    0.0017547607421875,
    -0.00830078125,
    -0.000713348388671875,
    0.00482177734375,
    0.01708984375,
    0.007171630859375,
    -0.005706787109375,
    -0.0081787109375,
    0.006378173828125,
    -0.037109375,
    -0.004669189453125,
    -0.04150390625,
    0.01531982421875,
    0.062255859375,
    0.029052734375,
    -0.01129150390625,
    0.044921875,
    -0.0286865234375,
    0.00164794921875,
    -0.0191650390625,
    -0.0087890625,
    0.00799560546875,
    0.006134033203125,
    -0.004547119140625,
    0.0311279296875,
    -0.018798828125,
    -0.005584716796875,
    0.01904296875,
    0.00677490234375,
    0.0064697265625,
    -0.0025177001953125,
    0.00060272216796875,
    -0.00174713134765625,
    0.0283203125,
    -0.007568359375,
    0.033203125,
    0.048828125,
    0.04638671875,
    0.001312255859375,
    0.032470703125,
    0.003509521484375,
    -0.00020313262939453125,
    -0.03466796875,
    -0.0028533935546875,
    -0.0133056640625,
    0.0211181640625,
    0.0021209716796875,
    -0.005126953125,
    -0.01251220703125,
    0.0150146484375,
    0.004791259765625,
    -0.005340576171875,
    0.01513671875,
    0.002777099609375,
    0.003631591796875,
    0.06005859375,
    -0.0296630859375,
    0.006011962890625,
    0.03564453125,
    0.0289306640625,
    0.0208740234375,
    0.04345703125,
    0.03662109375
   ]
  },
  "model.layers.14.mlp.up_proj.weight": {
   "numel": 3145728,
   "sum": 31.73062588623725,
   "abs": 60000.321858859854,
   "sample": [
    -0.01531982421875,
    0.0025787353515625,
    -0.046142578125,
    -0.0042724609375,
    0.0133056640625,
    -0.00799560546875,
    0.0069580078125,
    0.020263671875,
    0.00113677978515625,
    0.034912109375,
    -0.046142578125,
    0.002044677734375,
    -0.000820159912109375,
    -0.01519775390625,
    0.0247802734375,
    -0.06396484375,
    0.006927490234375,
    -0.0284423828125,
    -0.00543212890625,
    -0.0283203125,
    0.0166015625,
    0.039306640625,
    -0.02490234375,
    -0.0224609375,
    -0.022705078125,
    -0.0206298828125,
    0.04248046875,
    -0.031982421875,
    -0.007720947265625,
    0.0020599365234375,
    -0.0234375,
    0.0291748046875,
    -0.0086669921875,
    -0.0235595703125,
    0.01165771484375,
    0.03173828125,
    -0.042236328125,
    0.03125,
    -0.0111083984375,
    0.005096435546875,
    0.025146484375,
    0.028076171875,
    -0.00927734375,
    -0.0111083984375,
    -0.0035552978515625,
    0.030029296875,
    -0.019287109375,
    0.00579833984375,
    0.000766754150390625,
    -0.0263671875,
    -0.00213623046875,
    0.00860595703125,
    0.01611328125,
    -0.0194091796875,
    -0.0250244140625,
    0.044921875,
    -0.033203125,
    0.0272216796875,
    -0.006103515625,
    0.0164794921875,
    -0.033203125,
    0.0289306640625,
    0.019775390625,
    -0.007110595703125
   ]
  },
