{
 "variant": "offload_adam",
 "semantic_config_hash": "673ffca2fd232763",
 "full_config_hash": "c8e6145b3ae1a15b",
 "git_rev": "89fd78a",
 "devices": [
  "NVIDIA L40S"
 ],
 "wall_seconds": 27.5,
 "train_rows": [
  {
   "step": 0,
   "epoch": 0,
   "loss": 0.2518380115008248,
   "per_layer": [
    0.002993922680616379,
    0.009694638662040234,
    0.02425631508231163,
    0.04187380522489548,
    0.05189619958400726,
    0.07902823388576508,
    0.1499060094356537,
    0.20836994051933289,
    0.21072322130203247,
    0.20005035400390625,
    0.20414647459983826,
    0.21207305788993835,
    0.22577904164791107,
    0.2409418374300003,
    0.23542803525924683,
    0.291228711605072,
    0.30881527066230774,
    0.3162105083465576,
    0.34696894884109497,
    0.3865552842617035,
    0.39260134100914,
    0.4249252676963806,
    0.4318038523197174,
    0.45192232728004456,
    0.41201162338256836,
    0.40890365839004517,
    0.3757307529449463,
    0.4066256880760193
   ],
   "accum_items": 4
  },
  {
   "step": 1,
   "epoch": 0,
   "loss": 0.2521010297516893,
   "per_layer": [
    0.0027950997464358807,
    0.008834262378513813,
    0.022793708369135857,
    0.04105599969625473,
    0.05065307766199112,
    0.07491195201873779,
    0.14258134365081787,
    0.19454172253608704,
    0.20864903926849365,
    0.20071280002593994,
    0.20623910427093506,
    0.2139173299074173,
    0.23252451419830322,
    0.24855965375900269,
    0.2406626045703888,
    0.3051808774471283,
    0.32290980219841003,
    0.3301340937614441,
    0.35648614168167114,
    0.3875279724597931,
    0.3923551142215729,
    0.41798561811447144,
    0.42174673080444336,
    0.4450497031211853,
    0.4083034098148346,
    0.4047924876213074,
    0.36774230003356934,
    0.4091823697090149
   ],
   "accum_items": 4
  }
 ],
 "eval_rows": [
  {
   "epoch": 0,
   "cer": 0.8783477991908778,
   "line_exact": 0.0,
   "gen_ce": 3.3174946904182434
  }
 ],
 "done": {
  "vram_gb": 9.23,
  "vram_reserved_gb": 9.32,
  "vram_per_device_gb": [
   9.32
  ]
 },
 "checkpoint": {
  "model.embed_tokens.weight": {
   "numel": 155582464,
   "sum": -31284.20076261176,
   "abs": 3579471.0220369543,
   "sample": [
    -0.00927734375,
    0.05712890625,
    0.03369140625,
    0.04833984375,
    0.05224609375,
    -0.01092529296875,
    -0.024169921875,
    0.0242919921875,
    0.00098419189453125,
    0.005218505859375,
    -0.0150146484375,
    -0.0439453125,
    -0.009765625,
    0.023681640625,
    0.03125,
    0.005767822265625,
    -0.0172119140625,
    0.031005859375,
    -0.00201416015625,
    -0.0693359375,
    -0.006011962890625,
    0.000782012939453125,
    -0.062255859375,
    -0.0225830078125,
    0.08447265625,
    0.06005859375,
    -0.052978515625,
    -0.03857421875,
    0.022216796875,
    -0.0238037109375,
    0.0439453125,
    0.027099609375,
    0.00164031982421875,
    -0.041015625,
    -0.05224609375,
    0.040283203125,
    0.000751495361328125,
    -0.01080322265625,
    -0.0286865234375,
    0.020263671875,
    -0.01458740234375,
    -0.0277099609375,
    0.03955078125,
    0.006378173828125,
    -0.0576171875,
    0.02587890625,
    -0.025146484375,
    0.011962890625,
    0.005340576171875,
    0.0294189453125,
    -0.0247802734375,
    -0.00592041015625,
    0.0380859375,
    -0.0244140625,
    -0.000324249267578125,
    0.00787353515625,
    0.056640625,
    -0.0206298828125,
    0.03759765625,
    -0.000934600830078125,
    0.004852294921875,
    -0.004638671875,
    -0.024169921875,
    0.00567626953125
   ]
  },
  "model.layers.0.input_layernorm.weight": {
   "numel": 1024,
   "sum": 178.95654296875,
   "abs": 178.95654296875,
   "sample": [
    0.1357421875,
    0.515625,
    0.41796875,
    0.2177734375,
    0.146484375,
    0.2158203125,
    0.2236328125,
    0.34375,
    0.1435546875,
    0.1455078125,
    0.1455078125,
    0.166015625,
    0.1611328125,
    0.1611328125,
    0.1455078125,
    0.1396484375,
    0.134765625,
    0.1455078125,
    0.1640625,
    0.1708984375,
    0.1552734375,
    0.193359375,
    0.1572265625,
    0.197265625,
    0.134765625,
    0.28125,
    0.1435546875,
    0.1513671875,
    0.1806640625,
    0.169921875,
    0.1552734375,
    0.16796875,
    0.1796875,
    0.15625,
    0.177734375,
    0.166015625,
    0.1533203125,
    0.1728515625,
    0.166015625,
    0.14453125,
    0.1591796875,
    0.1513671875,
    0.162109375,
    0.1669921875,
    0.15625,
    0.1611328125,
    0.1669921875,
    0.16796875,
    0.154296875,
    0.1591796875,
    0.1728515625,
    0.1630859375,
    0.1572265625,
    0.1474609375,
    0.1455078125,
    0.15625,
    0.1435546875,
    0.154296875,
    0.140625,
    0.138671875,
    0.1591796875,
    0.15625,
    0.1494140625,
    0.1552734375
   ]
  },
  "model.layers.0.mlp.down_proj.weight": {
   "numel": 3145728,
   "sum": 14.678867939859629,
   "abs": 64958.94899042137,
   "sample": [
    0.02099609375,
    -0.023681640625,
    0.05419921875,
    -0.00095367431640625,
    -0.003021240234375,
    0.020751953125,
    -0.0274658203125,
    -0.01251220703125,
    0.0167236328125,
    -0.0155029296875,
    0.04150390625,
    0.028564453125,
    -0.0262451171875,
    -0.043212890625,
    -0.041748046875,
    -0.031005859375,
    0.018310546875,
    -0.0272216796875,
    0.00994873046875,
    0.01416015625,
    -0.000324249267578125,
    0.023193359375,
    -0.0732421875,
    0.044921875,
    -0.006927490234375,
    0.00144195556640625,
    -0.01318359375,
    0.0164794921875,
    0.034423828125,
    -0.03076171875,
    0.000820159912109375,
    0.035400390625,
    0.0233154296875,
    -0.00830078125,
    -0.017822265625,
    0.00469970703125,
    -0.017822265625,
    0.0006103515625,
    -0.080078125,
    -0.0267333984375,
    -0.0234375,
    -0.00518798828125,
    -0.02001953125,
    -0.00141143798828125,
    0.00958251953125,
    0.010498046875,
    0.0625,
    0.004180908203125,
    0.01123046875,
    -0.002655029296875,
    0.01446533203125,
    0.001251220703125,
    -0.0234375,
    0.0279541015625,
    0.0262451171875,
    -0.005950927734375,
    -0.049560546875,
    -0.007659912109375,
    0.000827789306640625,
    0.0023956298828125,
    -0.0247802734375,
    -0.0106201171875,
    0.0125732421875,
    0.006805419921875
   ]
  },
  "model.layers.0.mlp.gate_proj.weight": {
   "numel": 3145728,
   "sum": 118.95409098197706,
   "abs": 88959.10914468463,
   "sample": [
    -0.0186767578125,
    0.03271484375,
    0.0223388671875,
    -0.04345703125,
    0.0478515625,
    -0.0084228515625,
    0.02294921875,
    0.0089111328125,
    0.0244140625,
    0.006927490234375,
    -0.0089111328125,
    -0.0390625,
    -0.0164794921875,
    0.013916015625,
    -0.01031494140625,
    -0.007049560546875,
    -0.0556640625,
    0.02978515625,
    -0.01324462890625,
    0.0081787109375,
    -0.010986328125,
    0.0126953125,
    -0.064453125,
    0.03076171875,
    -0.0250244140625,
    -0.007537841796875,
    0.0024871826171875,
    -0.059814453125,
    0.00174713134765625,
    0.0035552978515625,
    0.01324462890625,
    -0.0361328125,
    -0.0654296875,
    0.01611328125,
    -0.02001953125,
    0.004547119140625,
    0.0103759765625,
    0.043212890625,
    0.0157470703125,
    -0.058349609375,
    0.052490234375,
    0.017822265625,
    0.00836181640625,
    0.034912109375,
    -0.00323486328125,
    0.021728515625,
    -0.00152587890625,
    -0.001617431640625,
    0.01519775390625,
    0.0203857421875,
    -0.0067138671875,
    -0.0218505859375,
    -0.053955078125,
    0.033935546875,
    0.056884765625,
    -0.031494140625,
    -0.0037384033203125,
    -0.0059814453125,
    0.00830078125,
    -0.04248046875,
    0.00482177734375,
    -0.029052734375,
    -0.0047607421875,
    0.01348876953125
   ]
  },
  "model.layers.0.mlp.up_proj.weight": {
   "numel": 3145728,
   "sum": -48.26541140482368,
   "abs": 64017.1465943909,
   "sample": [
    -0.04248046875,
    -0.0037841796875,
    -0.04296875,
    0.0238037109375,
    0.018310546875,
    -0.015625,
    0.0185546875,
    0.00604248046875,
    0.015380859375,
    0.006134033203125,
    -0.0238037109375,
    -0.044677734375,
    -0.01953125,
    -0.03759765625,
    -0.037841796875,
    -0.00457763671875,
    -0.030029296875,
    -0.007659912109375,
    0.00994873046875,
    0.0206298828125,
    -0.009765625,
    -0.055419921875,
    -0.001617431640625,
    0.048828125,
    0.000858306884765625,
    0.02783203125,
    -0.0257568359375,
    -0.04296875,
    0.01544189453125,
    0.0306396484375,
    0.00171661376953125,
    0.02001953125,
    -0.03125,
    0.04345703125,
    0.027587890625,
    0.004791259765625,
    0.00250244140625,
    0.004791259765625,
    -0.0244140625,
    -0.004669189453125,
    0.03564453125,
    -0.01007080078125,
    0.0302734375,
    -0.015869140625,
    -0.021728515625,
    0.01092529296875,
    -0.040283203125,
    0.026611328125,
    0.0079345703125,
    -0.01019287109375,
    0.00069427490234375,
    0.005828857421875,
    0.03125,
    -0.0001583099365234375,
    0.01025390625,
    -0.0140380859375,
    -0.0194091796875,
    0.01611328125,
    -0.007049560546875,
    0.01092529296875,
    0.01300048828125,
    -0.0021209716796875,
    -0.0228271484375,
    0.0162353515625
   ]
  },
  "model.layers.0.post_attention_layernorm.weight": {
   "numel": 1024,
   "sum": 413.89637756347656,
   "abs": 510.90841484069824,
   "sample": [
    0.474609375,
    0.482421875,
    0.67578125,
    0.609375,
    -0.6640625,
    0.671875,
    0.5234375,
    -0.5078125,
    0.298828125,
    0.294921875,
    0.2578125,
    0.4453125,
    0.263671875,
    0.44921875,
    0.337890625,
    0.2216796875,
    0.3046875,
    0.232421875,
    0.408203125,
    0.47265625,
    0.4375,
    -0.43359375,
    0.4375,
    0.44921875,
    0.6171875,
    0.578125,
    0.43359375,
    0.427734375,
    0.46484375,
    0.453125,
    0.4453125,
    0.43359375,
    0.43359375,
    0.55078125,
    -0.63671875,
    0.455078125,
    0.46484375,
    0.41796875,
    0.44140625,
    0.55078125,
    0.466796875,
    0.515625,
    0.515625,
    0.486328125,
    0.5234375,
    0.54296875,
    0.462890625,
    0.56640625,
    0.546875,
    0.5546875,
    0.5234375,
    0.478515625,
    -0.58203125,
    0.57421875,
    0.546875,
    0.58984375,
    0.50390625,
    0.5546875,
    -0.5859375,
    -0.640625,
    0.51171875,
    -0.5546875,
    0.56640625,
    0.5703125
   ]
  },
  "model.layers.0.self_attn.k_norm.weight": {
   "numel": 128,
   "sum": 456.79541015625,
   "abs": 456.79541015625,
   "sample": [
    1.296875,
    4.40625,
    1.7578125,
    4.28125,
    1.609375,
    2.265625,
    5.34375,
    2.390625,
    2.296875,
    2.0625,
    1.90625,
    2.546875,
    1.2734375,
    2.078125,
    2.15625,
    2.40625,
    0.1591796875,
    2.59375,
    3.53125,
    3.375,
    2.5,
    3.890625,
    2.171875,
    2.9375,
    1.5234375,
    96.5,
    4.0625,
    1.0078125,
    1.890625,
    2.390625,
    2.609375,
    1.8671875,
    0.98046875,
    3.71875,
    1.8046875,
    3.734375,
    1.7734375,
    2.5625,
    1.1796875,
    2.265625,
    2.125,
    2.140625,
    1.828125,
    2.546875,
    26.25,
    2.296875,
    2.265625,
    2.484375,
    2.875,
    3.5625,
    2.84375,
    2.046875,
    2.875,
    2.21875,
    2.203125,
    1.8046875,
    4.21875,
    1.2109375,
    1.5234375,
    2.796875,
    3.109375,
    2.140625,
    2.0,
    2.015625
   ]
  },
  "model.layers.0.self_attn.k_proj.weight": {
   "numel": 1048576,
   "sum": -32.62443579128012,
   "abs": 24449.48386325268,
   "sample": [
    -0.0166015625,
    -0.00823974609375,
    0.11669921875,
    0.0042724609375,
    -0.0174560546875,
    0.0185546875,
    0.023681640625,
    0.004241943359375,
    0.10107421875,
    -0.0172119140625,
    -0.023193359375,
    0.01214599609375,
    -0.01263427734375,
    0.01177978515625,
    0.00811767578125,
    0.0439453125,
    0.03564453125,
    -0.00018596649169921875,
    -0.0025634765625,
    0.08349609375,
    -0.004638671875,
    -0.017333984375,
    -0.035400390625,
    0.03369140625,
    0.0291748046875,
    -0.006134033203125,
    0.0038299560546875,
    -0.00177001953125,
    0.018798828125,
    -0.02978515625,
    -0.0498046875,
    -0.0260009765625,
    0.01519775390625,
    0.107421875,
    0.016845703125,
    0.0478515625,
    0.0517578125,
    0.000942230224609375,
    0.004791259765625,
    0.0140380859375,
    0.01068115234375,
    0.002685546875,
    -0.0145263671875,
    0.0390625,
    -0.0064697265625,
    -0.0079345703125,
    -0.03173828125,
    0.035400390625,
    -0.01422119140625,
    0.0159912109375,
    0.05126953125,
    0.01287841796875,
    0.1591796875,
    0.0263671875,
    -0.03271484375,
    0.0225830078125,
    0.042236328125,
    -0.015869140625,
    0.026611328125,
    -0.003387451171875,
    0.01611328125,
    -0.004180908203125,
    0.0255126953125,
    -0.006072998046875
   ]
  },
  "model.layers.0.self_attn.o_proj.weight": {
   "numel": 2097152,
   "sum": 26.048539137409534,
   "abs": 40596.218141638616,
   "sample": [
    0.01446533203125,
    -0.00157928466796875,
    0.032470703125,
    0.00201416015625,
    0.011474609375,
    -0.045166015625,
    -0.012939453125,
    -0.011474609375,
    -0.01318359375,
    -0.0003490447998046875,
    0.00335693359375,
    -0.00537109375,
    0.004119873046875,
    0.01129150390625,
    -0.01129150390625,
    -0.0947265625,
    -0.047119140625,
    -0.011474609375,
    -0.0002384185791015625,
    -0.006378173828125,
    -0.01953125,
    -0.000514984130859375,
    0.01055908203125,
    0.01519775390625,
    -0.052734375,
    0.02685546875,
    0.025390625,
    -0.0006866455078125,
    0.059814453125,
    -0.0810546875,
    -0.003387451171875,
    -0.01531982421875,
    -0.00750732421875,
    -0.028564453125,
    -0.024658203125,
    0.01611328125,
    -0.00555419921875,
    -0.00146484375,
    -0.04052734375,
    -0.043701171875,
    0.0038299560546875,
    -0.0279541015625,
    0.01556396484375,
    0.009521484375,
    0.0130615234375,
    0.03369140625,
    0.005523681640625,
    -0.03759765625,
    0.005279541015625,
    -0.004913330078125,
    0.017822265625,
    -0.0361328125,
    0.004241943359375,
    -0.01129150390625,
    0.027099609375,
    0.0234375,
    -0.025146484375,
    0.0233154296875,
    -0.01507568359375,
    0.0159912109375,
    -0.025390625,
    -0.009521484375,
    -0.0208740234375,
    -0.0228271484375
   ]
  },
  "model.layers.0.self_attn.q_norm.weight": {
   "numel": 128,
   "sum": 251.31471252441406,
   "abs": 252.85475158691406,
   "sample": [
    4.53125,
    -0.734375,
    2.59375,
    1.09375,
    2.765625,
    1.84375,
    0.734375,
    1.8984375,
    1.9375,
    2.1875,
    2.421875,
    1.7734375,
    1.046875,
    2.25,
    2.109375,
    1.8828125,
    11.8125,
    1.6640625,
    1.3203125,
    1.3828125,
    1.8828125,
    1.1875,
    2.109375,
    1.59375,
    3.140625,
    0.0023345947265625,
    1.2109375,
    4.84375,
    2.5,
    1.9296875,
    1.8671875,
    2.625,
    1.625,
    0.96875,
    2.109375,
    1.203125,
    2.515625,
    1.71875,
    2.0,
    1.9921875,
    2.09375,
    2.15625,
    2.484375,
    1.8046875,
    0.0218505859375,
    1.9453125,
    2.0,
    1.84375,
    0.15234375,
    1.3046875,
    1.6015625,
    2.140625,
    1.59375,
    2.03125,
    2.125,
    2.640625,
    1.140625,
    1.3046875,
    3.125,
    1.671875,
    1.484375,
    2.1875,
    2.34375,
    2.390625
   ]
  },
  "model.layers.0.self_attn.q_proj.weight": {
   "numel": 2097152,
   "sum": -57.64426597976126,
   "abs": 49550.15378105338,
   "sample": [
    0.003387451171875,
    0.01007080078125,
    -0.025146484375,
    -0.0107421875,
    -0.0096435546875,
    0.053955078125,
    0.0400390625,
    -0.0179443359375,
    0.037109375,
    0.01031494140625,
    -0.00457763671875,
    -0.0013885498046875,
    -0.0291748046875,
    0.024169921875,
    -0.0238037109375,
    -0.046630859375,
    -0.0225830078125,
    -0.01409912109375,
    0.10498046875,
    0.021484375,
    -0.00592041015625,
    -0.0164794921875,
    0.055908203125,
    0.06005859375,
    0.0281982421875,
    0.034912109375,
    0.0361328125,
    0.0010528564453125,
    0.0830078125,
    -0.027099609375,
    0.041748046875,
    0.04638671875,
    0.0004253387451171875,
    0.0272216796875,
    0.03759765625,
    0.06640625,
    -0.027587890625,
    -0.0771484375,
    0.037841796875,
    -0.003753662109375,
    -0.01312255859375,
    0.04345703125,
    0.046875,
    0.017822265625,
    0.026123046875,
    -0.0211181640625,
    0.0234375,
    0.0400390625,
    0.001708984375,
    0.05712890625,
    -0.009521484375,
    -0.029296875,
    -0.0257568359375,
    -0.02783203125,
    0.07958984375,
    -0.025146484375,
    0.005096435546875,
    -0.00909423828125,
    -0.0030517578125,
    -0.004791259765625,
    -0.0281982421875,
    0.041259765625,
    -0.020751953125,
    0.07763671875
   ]
  },
  "model.layers.0.self_attn.v_proj.weight": {
   "numel": 1048576,
   "sum": 74.20896019350039,
   "abs": 21888.700502223044,
   "sample": [
    0.01214599609375,
    -0.0213623046875,
    -0.0208740234375,
    -0.01263427734375,
    0.00836181640625,
    0.00994873046875,
    -0.017578125,
    -0.020263671875,
    -0.01202392578125,
    0.0162353515625,
    0.01190185546875,
    0.021240234375,
    -0.0037384033203125,
    0.008544921875,
    0.03759765625,
    -0.005523681640625,
    0.0118408203125,
    0.00177764892578125,
    0.04638671875,
    0.00732421875,
    -0.0146484375,
    -0.03125,
    -0.032958984375,
    -0.0283203125,
    -0.00732421875,
    -0.025146484375,
    -0.03662109375,
    -0.007080078125,
    0.0220947265625,
    -0.02587890625,
    0.0067138671875,
    -0.01507568359375,
    -0.02685546875,
    0.0238037109375,
    0.02783203125,
    -0.0458984375,
    0.0023345947265625,
    0.0245361328125,
    0.033447265625,
    0.05419921875,
    -0.018798828125,
    0.004547119140625,
    0.0274658203125,
    0.029541015625,
    0.03857421875,
    0.00665283203125,
    0.0181884765625,
    0.0198974609375,
    -0.029052734375,
    0.01324462890625,
    -0.0107421875,
    -0.0003814697265625,
    -0.004486083984375,
    0.007354736328125,
    0.0291748046875,
    0.006561279296875,
    -0.00016117095947265625,
    -0.040283203125,
    -0.01708984375,
    -0.0458984375,
    -0.033935546875,
    0.0145263671875,
    0.02392578125,
    -0.0283203125
   ]
  },
  "model.layers.1.input_layernorm.weight": {
   "numel": 1024,
   "sum": 55.137542724609375,
   "abs": 141.35372924804688,
   "sample": [
    0.2255859375,
    -0.1767578125,
    0.18359375,
    0.1455078125,
    0.25,
    -0.158203125,
    -0.1357421875,
    0.12451171875,
    0.08642578125,
    -0.0888671875,
    0.06689453125,
    0.1328125,
    0.0712890625,
    0.12109375,
    0.10205078125,
    0.057861328125,
    0.0810546875,
    0.06591796875,
    0.10986328125,
    0.1279296875,
    0.10986328125,
    0.11083984375,
    -0.1181640625,
    0.10888671875,
    0.251953125,
    0.1455078125,
    -0.10400390625,
    0.11083984375,
    0.11328125,
    0.11865234375,
    0.11865234375,
    0.10009765625,
    0.10986328125,
    0.1591796875,
    -0.185546875,
    -0.11669921875,
    0.1103515625,
    0.10498046875,
    0.0986328125,
    0.1396484375,
    -0.12060546875,
    -0.1298828125,
    -0.1318359375,
    0.111328125,
    -0.123046875,
    0.142578125,
    -0.115234375,
    0.1474609375,
    -0.138671875,
    -0.142578125,
    -0.1298828125,
    0.1123046875,
    -0.1533203125,
    0.1552734375,
    0.1533203125,
    -0.158203125,
    0.11962890625,
    0.138671875,
    0.1591796875,
    -0.1865234375,
    0.1318359375,
    0.1484375,
    0.14453125,
    0.1513671875
   ]
  },
  "model.layers.1.mlp.down_proj.weight": {
   "numel": 3145728,
   "sum": -15.947887718619313,
   "abs": 55704.92737683939,
   "sample": [
    -0.00640869140625,
    -0.0084228515625,
    -0.0030975341796875,
    -0.01214599609375,
    0.0235595703125,
    -0.0184326171875,
    0.00927734375,
    0.0556640625,
    0.0213623046875,
    -0.007781982421875,
    0.043701171875,
    -0.029541015625,
    0.00726318359375,
    0.05224609375,
    0.01092529296875,
    0.018798828125,
    -0.036376953125,
    -0.0074462890625,
    -0.005950927734375,
    0.003997802734375,
    -0.00830078125,
    -0.01904296875,
    -0.0157470703125,
    -0.01171875,
    0.006256103515625,
    -0.00109100341796875,
    -0.0277099609375,
    0.03271484375,
    0.00823974609375,
    0.01397705078125,
    0.0224609375,
    0.007110595703125,
    0.0189208984375,
    -0.004638671875,
    -0.01708984375,
    -0.00091552734375,
    -0.0206298828125,
    -0.0224609375,
    -0.00848388671875,
    0.0002498626708984375,
    -0.0238037109375,
    -0.004119873046875,
    0.0250244140625,
    -0.02490234375,
    0.01544189453125,
    -0.020751953125,
    -0.0247802734375,
    0.005828857421875,
    0.020751953125,
    -0.01507568359375,
    -0.0054931640625,
    0.0123291015625,
    0.007049560546875,
    -0.0250244140625,
    0.0576171875,
    -0.0021514892578125,
    -0.01373291015625,
    -0.0244140625,
    0.0150146484375,
    0.0260009765625,
    0.02490234375,
    -0.00787353515625,
    0.013916015625,
    0.00701904296875
   ]
  },
  "model.layers.1.mlp.gate_proj.weight": {
   "numel": 3145728,
   "sum": 302.21418159178575,
   "abs": 107216.52099800532,
   "sample": [
    0.051025390625,
    -0.00145721435546875,
    -0.0196533203125,
    0.037841796875,
    -0.0015716552734375,
    -0.07080078125,
    0.01446533203125,
    -0.00177764892578125,
    0.031005859375,
    -0.0198974609375,
    0.01531982421875,
    0.01611328125,
    0.007171630859375,
    -0.018798828125,
    -0.0556640625,
    -0.05126953125,
    -0.0302734375,
    -0.00162506103515625,
    0.008056640625,
    -0.039306640625,
    -0.004241943359375,
    0.00927734375,
    0.050537109375,
    -0.038818359375,
    0.04296875,
    0.03662109375,
    -0.0205078125,
    0.028076171875,
    -0.045166015625,
    -0.0250244140625,
    -0.07666015625,
    0.08544921875,
    0.10791015625,
    0.005523681640625,
    -0.0498046875,
    0.0947265625,
    -0.01092529296875,
    0.0732421875,
    -0.03515625,
    0.03564453125,
    -0.08349609375,
    -0.0250244140625,
    0.003326416015625,
    -0.005096435546875,
    0.0203857421875,
    0.00787353515625,
    -0.060791015625,
    0.03857421875,
    0.000957489013671875,
    -0.043701171875,
    -0.00274658203125,
    0.059326171875,
    -0.0230712890625,
    -0.078125,
    -0.02734375,
    -0.0128173828125,
    -0.041748046875,
    0.020263671875,
    0.0537109375,
    0.01422119140625,
    0.07763671875,
    -0.047607421875,
    0.0260009765625,
    0.0185546875
   ]
  },
  "model.layers.1.mlp.up_proj.weight": {
   "numel": 3145728,
   "sum": 31.86766730340969,
   "abs": 57300.39719960846,
   "sample": [
    -0.01458740234375,
    0.0263671875,
    0.0029144287109375,
    0.0029449462890625,
    -0.0208740234375,
    -0.0419921875,
    -0.006622314453125,
    0.0035858154296875,
    -0.0006866455078125,
    -0.0128173828125,
    -0.0164794921875,
    0.003997802734375,
    -0.0036163330078125,
    0.039306640625,
    0.00262451171875,
    -0.00347900390625,
    -0.01361083984375,
    0.060302734375,
    -0.01275634765625,
    0.0277099609375,
    0.0052490234375,
    0.006256103515625,
    0.0118408203125,
    -0.00555419921875,
    0.004547119140625,
    0.046142578125,
    0.008544921875,
    -0.01385498046875,
    0.015869140625,
    0.0211181640625,
    0.03564453125,
    -0.00244140625,
    0.00909423828125,
    0.0205078125,
    -0.00191497802734375,
    0.03955078125,
    0.0106201171875,
    0.014404296875,
    0.0250244140625,
    0.0240478515625,
    0.014404296875,
    -0.01361083984375,
    -0.01495361328125,
    -0.004302978515625,
    -0.0174560546875,
    -0.001983642578125,
    0.0103759765625,
    -0.007232666015625,
    0.002471923828125,
    0.0361328125,
    -0.00148773193359375,
    0.0238037109375,
    0.01611328125,
    -0.013427734375,
    0.031494140625,
    -0.0299072265625,
    0.0026702880859375,
    -0.008544921875,
    -0.05517578125,
    -0.011962890625,
    0.03515625,
    -0.0257568359375,
    0.0040283203125,
    -0.00946044921875
   ]
  },
  "model.layers.1.post_attention_layernorm.weight": {
   "numel": 1024,
   "sum": 887.1795030534267,
   "abs": 901.5548719465733,
   "sample": [
    1.6484375,
    2.28125,
    1.09375,
    1.03125,
    1.09375,
    1.0625,
    0.92578125,
    0.87890625,
    0.609375,
    0.57421875,
    0.5234375,
    0.76953125,
    0.546875,
    0.796875,
    0.63671875,
    0.43359375,
    0.5859375,
    0.470703125,
    0.7421875,
    0.828125,
    0.78125,
    0.78515625,
    0.76171875,
    0.8046875,
    1.0625,
    0.9609375,
    0.78515625,
    0.76171875,
    0.8125,
    0.78515625,
    0.78125,
    0.78125,
    0.75,
    0.96484375,
    1.0703125,
    0.84375,
    0.8203125,
    0.75390625,
    0.79296875,
    0.90234375,
    0.84375,
    0.88671875,
    0.90625,
    0.8359375,
    0.8984375,
    0.93359375,
    0.83984375,
    0.9609375,
    0.9296875,
    0.9609375,
    0.90234375,
    0.8046875,
    0.99609375,
    0.95703125,
    0.96484375,
    0.99609375,
    0.87890625,
    0.93359375,
    1.0234375,
    1.0546875,
    0.87109375,
    1.015625,
    0.953125,
    0.9453125
   ]
  },
  "model.layers.1.self_attn.k_norm.weight": {
   "numel": 128,
   "sum": 300.0321044921875,
   "abs": 312.2955322265625,
   "sample": [
    5.78125,
    4.4375,
    2.484375,
    0.83203125,
    -0.25,
    0.609375,
    1.078125,
    1.6484375,
    1.8671875,
    1.1015625,
    2.953125,
    1.1796875,
    2.90625,
    2.03125,
    3.25,
    3.328125,
    1.875,
    3.828125,
    2.34375,
    3.140625,
    2.234375,
    2.0625,
    -1.75,
    1.6171875,
    1.6484375,
    0.6484375,
    44.5,
    1.078125,
    2.0,
    2.859375,
    2.421875,
    1.796875,
    5.28125,
    2.40625,
    1.5859375,
    0.75,
    0.83984375,
    1.28125,
    0.78125,
    1.8125,
    1.25,
    2.359375,
    1.921875,
    3.78125,
    2.6875,
    2.859375,
    3.359375,
    2.859375,
    1.78125,
    2.59375,
    2.296875,
    1.8046875,
    1.1171875,
    1.8828125,
    6.84375,
    1.6171875,
    1.65625,
    2.25,
    -3.859375,
    1.234375,
    1.984375,
    2.0625,
    1.6875,
    2.171875
   ]
  },
  "model.layers.1.self_attn.k_proj.weight": {
   "numel": 1048576,
   "sum": -4.319086538627744,
   "abs": 23005.692245403305,
   "sample": [
    -0.01190185546875,
    -0.035400390625,
    0.05908203125,
    0.029296875,
    -0.0054931640625,
    -0.010986328125,
    -0.04052734375,
    -0.031494140625,
    0.00970458984375,
    0.019775390625,
    -0.00543212890625,
    0.01141357421875,
    0.001983642578125,
    -0.0179443359375,
    -0.00909423828125,
    -0.0201416015625,
    -0.0308837890625,
    -0.017333984375,
    -0.01275634765625,
    -0.0123291015625,
    -0.00396728515625,
    0.00555419921875,
    -0.03955078125,
    0.04296875,
    -0.004180908203125,
    0.0281982421875,
    -0.0184326171875,
    0.06494140625,
    0.0311279296875,
    -0.02880859375,
    0.0103759765625,
    0.053955078125,
    -0.0263671875,
    0.015625,
    -0.06591796875,
    -0.05859375,
    0.009521484375,
    -0.032470703125,
    -0.022216796875,
    0.0123291015625,
    0.00147247314453125,
    0.0166015625,
    0.0150146484375,
    0.026611328125,
    0.0174560546875,
    -0.028076171875,
    -0.0341796875,
    0.00848388671875,
    0.0233154296875,
    -0.000789642333984375,
    0.05078125,
    0.058349609375,
    0.0281982421875,
    -0.020751953125,
    -0.0107421875,
    0.00193023681640625,
    0.000530242919921875,
    -0.01348876953125,
    -0.0033721923828125,
    0.03564453125,
    -0.0125732421875,
    0.0123291015625,
    -0.09375,
    -0.047119140625
   ]
  },
  "model.layers.1.self_attn.o_proj.weight": {
   "numel": 2097152,
   "sum": 17.63612527654368,
   "abs": 43638.31570922976,
   "sample": [
    -0.0264892578125,
    -0.02099609375,
    -0.0169677734375,
    -0.07275390625,
    0.0037384033203125,
    -0.040771484375,
    0.0103759765625,
    0.058349609375,
    -0.00148773193359375,
    0.003326416015625,
    -0.01422119140625,
    -0.005035400390625,
    -0.01556396484375,
    0.0126953125,
    -0.0179443359375,
    0.0272216796875,
    -0.0284423828125,
    0.0186767578125,
    -0.00848388671875,
    -0.0133056640625,
    -0.00970458984375,
    0.048095703125,
    -0.0322265625,
    0.00189208984375,
    -0.01422119140625,
    -0.0225830078125,
    0.004180908203125,
    -0.0181884765625,
    0.03662109375,
    -0.00506591796875,
    -0.004547119140625,
    -0.0203857421875,
    0.0194091796875,
    -0.0299072265625,
    -0.03369140625,
    0.0208740234375,
    -0.01214599609375,
    0.0107421875,
    0.0029754638671875,
    -0.00567626953125,
    0.01513671875,
    0.0306396484375,
    0.02685546875,
    0.03466796875,
    -0.015380859375,
    -0.0125732421875,
    0.0283203125,
    -0.0299072265625,
    0.027099609375,
    0.01251220703125,
    -0.014404296875,
    -0.006561279296875,
    -0.047607421875,
    0.03564453125,
    0.0194091796875,
    -0.00885009765625,
    0.03564453125,
    -0.052978515625,
    -0.018798828125,
    -0.0172119140625,
    0.0296630859375,
    -0.0228271484375,
    0.040771484375,
    -0.004974365234375
   ]
  },
  "model.layers.1.self_attn.q_norm.weight": {
   "numel": 128,
   "sum": 191.98779296875,
   "abs": 199.68310546875,
   "sample": [
    0.400390625,
    0.79296875,
    1.2421875,
    3.21875,
    3.453125,
    2.4375,
    3.375,
    1.84375,
    1.734375,
    1.5234375,
    1.046875,
    1.3984375,
    1.140625,
    1.4453125,
    0.90625,
    0.8046875,
    1.6953125,
    0.83203125,
    1.3515625,
    0.859375,
    1.15625,
    1.3828125,
    1.5,
    1.5859375,
    1.578125,
    5.375,
    0.2109375,
    2.625,
    1.3828125,
    0.96875,
    1.8203125,
    1.71875,
    0.83984375,
    0.83984375,
    -1.1015625,
    2.40625,
    3.8125,
    2.140625,
    3.15625,
    1.4609375,
    1.859375,
    1.46875,
    1.359375,
    0.80078125,
    1.0625,
    1.0703125,
    0.92578125,
    0.80078125,
    1.6796875,
    0.9765625,
    1.34375,
    1.4296875,
    2.09375,
    1.5234375,
    0.5703125,
    1.6171875,
    1.5234375,
    -0.17578125,
    0.70703125,
    2.203125,
    1.4296875,
    2.15625,
    2.109375,
    1.34375
   ]
  },
  "model.layers.1.self_attn.q_proj.weight": {
   "numel": 2097152,
   "sum": 36.882854997878894,
   "abs": 47905.01339153503,
   "sample": [
    0.005401611328125,
    -0.034912109375,
    -0.00811767578125,
    0.044189453125,
    0.018798828125,
    -0.004974365234375,
    -0.026611328125,
    -0.01904296875,
    -0.00141143798828125,
    0.0098876953125,
    0.01446533203125,
    0.005279541015625,
    -0.0025634765625,
    -0.01123046875,
    0.0108642578125,
    -0.0306396484375,
    0.005859375,
    0.028076171875,
    0.0028076171875,
    -0.02587890625,
    0.003143310546875,
    -0.01312255859375,
    -0.03564453125,
    0.0203857421875,
    0.0133056640625,
    0.01336669921875,
    0.01385498046875,
    0.027587890625,
    -0.0155029296875,
    -0.0030975341796875,
    0.020263671875,
    -0.0162353515625,
    -0.01092529296875,
    -0.015625,
    -0.039306640625,
    0.0223388671875,
    0.061767578125,
    0.00982666015625,
    -0.007720947265625,
    -0.0068359375,
    -0.004547119140625,
    -0.01007080078125,
    -0.034912109375,
    0.05712890625,
    0.00193023681640625,
    0.00872802734375,
    -0.00946044921875,
    0.0162353515625,
    0.0024566650390625,
    0.033935546875,
    -0.010498046875,
    0.04345703125,
    0.0216064453125,
    -0.03369140625,
    0.03173828125,
    -0.03564453125,
    0.10498046875,
    -0.011474609375,
    0.080078125,
    -0.0034942626953125,
    -0.02978515625,
    0.0269775390625,
    0.006439208984375,
    -0.0306396484375
   ]
  },
  "model.layers.1.self_attn.v_proj.weight": {
   "numel": 1048576,
   "sum": 18.73499376513064,
   "abs": 23434.221751923673,
   "sample": [
    -0.00836181640625,
    0.039794921875,
    -0.0135498046875,
    -0.0341796875,
    0.00677490234375,
    -0.013427734375,
    -0.01007080078125,
    -0.00537109375,
    0.0072021484375,
    -0.007476806640625,
    0.0004024505615234375,
    0.013916015625,
    0.017333984375,
    0.01531982421875,
    0.0091552734375,
    0.041015625,
    0.038330078125,
    -0.045654296875,
    -0.07666015625,
    -0.0263671875,
    -0.0147705078125,
    0.0213623046875,
    -0.0194091796875,
    0.0135498046875,
    0.01446533203125,
    -0.0179443359375,
    -0.005584716796875,
    0.054931640625,
    0.01904296875,
    0.004486083984375,
    -0.01043701171875,
    0.00970458984375,
    -0.032958984375,
    0.023193359375,
    0.031982421875,
    -0.00167083740234375,
    0.049560546875,
    -0.0179443359375,
    0.06103515625,
    0.0166015625,
    -0.031005859375,
    -0.002410888671875,
    -0.05126953125,
    -0.00133514404296875,
    0.000865936279296875,
    0.06298828125,
    0.010986328125,
    0.008056640625,
    -0.0096435546875,
    0.01300048828125,
    -0.03662109375,
    -0.041259765625,
    -0.044677734375,
    0.0062255859375,
    -0.0262451171875,
    -0.004150390625,
    -0.0308837890625,
    -0.0045166015625,
    -0.0206298828125,
    0.006591796875,
    -0.037353515625,
    -0.0223388671875,
    -0.050537109375,
    0.00775146484375
   ]
  },
  "model.layers.10.input_layernorm.weight": {
   "numel": 1024,
   "sum": 1128.1591796875,
   "abs": 1129.2373046875,
   "sample": [
    1.703125,
    2.328125,
    0.9140625,
    0.9140625,
    1.84375,
    0.953125,
    0.83984375,
    1.1953125,
    0.302734375,
    0.29296875,
    0.232421875,
    0.76953125,
    0.2431640625,
    0.8828125,
    0.388671875,
    0.15625,
    0.306640625,
    0.1669921875,
    0.80078125,
    0.90234375,
    0.87109375,
    0.88671875,
    0.94921875,
    0.89453125,
    1.5390625,
    1.2890625,
    1.2265625,
    1.015625,
    1.078125,
    1.078125,
    1.03125,
    1.078125,
    1.09375,
    1.265625,
    1.6015625,
    1.0703125,
    1.15625,
    1.0625,
    1.0859375,
    1.453125,
    1.2109375,
    1.1875,
    1.1484375,
    1.109375,
    1.2109375,
    1.2109375,
    1.15625,
    1.28125,
    1.25,
    1.1484375,
    1.203125,
    1.1796875,
    1.3046875,
    1.21875,
    1.3046875,
    1.3046875,
    1.203125,
    1.2421875,
    1.359375,
    1.546875,
    1.265625,
    1.390625,
    1.2890625,
    1.2421875
   ]
  },
  "model.layers.10.mlp.down_proj.weight": {
   "numel": 3145728,
   "sum": 132.41618761233985,
   "abs": 56744.814306101995,
   "sample": [
    0.00537109375,
    0.02001953125,
    0.025390625,
    -0.0225830078125,
    0.0086669921875,
    0.018310546875,
    -0.01031494140625,
    0.034912109375,
    0.0174560546875,
    -0.01434326171875,
    0.005767822265625,
    -0.00103759765625,
    0.00946044921875,
    -0.00970458984375,
    -0.0032806396484375,
    -0.006195068359375,
    0.00714111328125,
    0.005950927734375,
    0.0111083984375,
    0.057861328125,
    -0.00634765625,
    0.0029296875,
    -0.004425048828125,
    0.02587890625,
    -0.0040283203125,
    0.0167236328125,
    0.04638671875,
    0.0303955078125,
    -0.005615234375,
    0.018798828125,
    -0.009521484375,
    0.01043701171875,
    -0.0027313232421875,
    0.01202392578125,
    0.006134033203125,
    -0.03466796875,
    -0.0147705078125,
    -0.02880859375,
    -0.0361328125,
    0.0262451171875,
    0.00439453125,
    -0.01483154296875,
    0.026123046875,
    -0.032958984375,
    -0.005828857421875,
    -0.0245361328125,
    -0.0322265625,
    -0.034912109375,
    -0.003173828125,
    0.017333984375,
    -0.0302734375,
    -0.050048828125,
    0.017578125,
    0.041748046875,
    0.0233154296875,
    -0.004791259765625,
    0.0159912109375,
    -0.0341796875,
    0.03125,
    0.0252685546875,
    0.0218505859375,
    0.00170135498046875,
    0.036865234375,
    0.021484375
   ]
  },
  "model.layers.10.mlp.gate_proj.weight": {
   "numel": 3145728,
   "sum": 63.5913844541501,
   "abs": 79080.07377768728,
   "sample": [
    -0.027099609375,
    -0.02392578125,
    0.00335693359375,
    -0.0213623046875,
    -0.0023040771484375,
    -0.02392578125,
    0.00994873046875,
    -0.0262451171875,
    0.000530242919921875,
    -0.034912109375,
    -0.038330078125,
    0.054931640625,
    0.023681640625,
    0.0294189453125,
    0.005523681640625,
    0.009765625,
    -0.027587890625,
    0.00054168701171875,
    -0.005279541015625,
    0.042724609375,
    -0.01007080078125,
    -0.0208740234375,
    0.03125,
    0.01031494140625,
    0.041259765625,
    -0.054443359375,
    0.0108642578125,
    -0.0230712890625,
    -0.017333984375,
    0.01043701171875,
    -0.0023040771484375,
    0.019775390625,
    -0.0284423828125,
    0.0091552734375,
    -0.002197265625,
    0.0140380859375,
    -0.015869140625,
    0.001068115234375,
    -0.07080078125,
    -0.01611328125,
    -0.0478515625,
    0.005889892578125,
    0.10107421875,
    0.0654296875,
    0.019287109375,
    -0.009521484375,
    0.0142822265625,
    -0.080078125,
    -0.033935546875,
    0.00836181640625,
    0.01544189453125,
    0.0169677734375,
    0.0108642578125,
    0.033935546875,
    -0.037353515625,
    -0.0255126953125,
    0.0279541015625,
    -0.03271484375,
    -0.01202392578125,
    0.029296875,
    0.02001953125,
    0.054931640625,
    -0.0029754638671875,
    0.04248046875
   ]
  },
  "model.layers.10.mlp.up_proj.weight": {
   "numel": 3145728,
   "sum": 72.15666200284613,
   "abs": 63790.203114785196,
   "sample": [
    0.00104522705078125,
    0.0167236328125,
    -0.0146484375,
    -0.01348876953125,
    0.037109375,
    0.0244140625,
    0.02587890625,
    0.010009765625,
    0.0157470703125,
    0.00124359130859375,
    -0.0235595703125,
    -0.00762939453125,
    0.0033721923828125,
    0.0081787109375,
    0.02880859375,
    0.00726318359375,
    -0.0027618408203125,
    -0.00689697265625,
    0.034912109375,
    -0.0289306640625,
    -0.056396484375,
    0.00885009765625,
    -0.01904296875,
    -0.008544921875,
    0.022705078125,
    -0.01904296875,
    0.003387451171875,
    0.0255126953125,
    0.052734375,
    0.018798828125,
    -0.0026702880859375,
    0.0040283203125,
    -0.038818359375,
    -0.030029296875,
    0.000232696533203125,
    0.02685546875,
    0.0250244140625,
    0.0186767578125,
    -0.013671875,
    0.01336669921875,
    -0.000911712646484375,
    -0.0115966796875,
    0.035400390625,
    -0.038818359375,
    -0.0184326171875,
    4.6253204345703125e-05,
    0.031494140625,
    -0.038818359375,
    0.022705078125,
    0.0264892578125,
    -0.021240234375,
    -0.0230712890625,
    0.038330078125,
    -0.000896453857421875,
    0.0169677734375,
    -0.037109375,
    0.0147705078125,
    0.0673828125,
    -0.0155029296875,
    -0.023681640625,
    0.037109375,
    0.028564453125,
    -0.0034332275390625,
    0.0147705078125
   ]
  },
  "model.layers.10.post_attention_layernorm.weight": {
   "numel": 1024,
   "sum": 1179.9297308921814,
   "abs": 1179.9299387931824,
   "sample": [
    1.3359375,
    1.890625,
    1.359375,
    1.171875,
    0.98828125,
    1.1796875,
    1.1640625,
    1.3046875,
    0.466796875,
    0.447265625,
    0.369140625,
    0.8125,
    0.384765625,
    0.9453125,
    0.51953125,
    0.2197265625,
    0.4921875,
    0.2265625,
    0.9296875,
    0.984375,
    0.95703125,
    1.0,
    1.015625,
    1.109375,
    1.3515625,
    1.3828125,
    1.2890625,
    1.0703125,
    1.2265625,
    1.1484375,
    1.1328125,
    1.2890625,
    1.171875,
    1.328125,
    1.46875,
    1.21875,
    1.265625,
    1.15625,
    1.2265625,
    1.40625,
    1.2265625,
    1.265625,
    1.265625,
    1.265625,
    1.359375,
    1.296875,
    1.2421875,
    1.28125,
    1.328125,
    1.3046875,
    1.2734375,
    1.2578125,
    1.4453125,
    1.2734375,
    1.3359375,
    1.390625,
    1.296875,
    1.34375,
    1.34375,
    1.4296875,
    1.3125,
    1.3828125,
    1.421875,
    1.3046875
   ]
  },
  "model.layers.10.self_attn.k_norm.weight": {
   "numel": 128,
   "sum": 248.27989673614502,
   "abs": 248.28098964691162,
   "sample": [
    0.890625,
    -0.00018596649169921875,
    1.328125,
    1.9375,
    1.8203125,
    6.29425048828125e-05,
    2.421875,
    1.53125,
    2.953125,
    3.71875,
    1.0703125,
    1.796875,
    5.71875,
    2.609375,
    3.25,
    1.6640625,
    1.453125,
    1.765625,
    6.34375,
    1.75,
    1.015625,
    1.484375,
    0.267578125,
    1.0390625,
    1.703125,
    2.71875,
    0.1875,
    1.8515625,
    1.203125,
    1.375,
    2.984375,
    3.359375,
    1.265625,
    1.0859375,
    1.78125,
    0.65234375,
    0.0019073486328125,
    0.48046875,
    1.7421875,
    1.3671875,
    1.4140625,
    2.203125,
    1.9375,
    2.421875,
    0.48046875,
    1.3125,
    1.03125,
    1.6484375,
    1.7890625,
    1.3046875,
    1.8046875,
    1.546875,
    2.28125,
    1.59375,
    0.64453125,
    1.125,
    1.609375,
    1.390625,
    10.125,
    1.1796875,
    1.484375,
    2.234375,
    1.8671875,
    2.609375
   ]
  },
  "model.layers.10.self_attn.k_proj.weight": {
   "numel": 1048576,
   "sum": -12.448100420762785,
   "abs": 21634.496612901683,
   "sample": [
    -0.004058837890625,
    -0.05419921875,
    -0.0162353515625,
    -0.00238037109375,
    0.03759765625,
    0.016357421875,
    -0.018798828125,
    -0.0181884765625,
    0.031494140625,
    -0.000843048095703125,
    0.009033203125,
    0.0234375,
    0.015869140625,
    0.0390625,
    -0.0067138671875,
    -0.002105712890625,
    0.00506591796875,
    -0.0093994140625,
    0.021728515625,
    0.0257568359375,
    0.06787109375,
    -0.038330078125,
    -0.006256103515625,
    0.0274658203125,
    0.048583984375,
    -0.038818359375,
    -0.0042724609375,
    0.042236328125,
    -0.0255126953125,
    -0.018798828125,
    0.022705078125,
    0.029541015625,
    0.0032501220703125,
    0.0142822265625,
    -0.0023956298828125,
    -0.0299072265625,
    -0.006866455078125,
    -0.0174560546875,
    -0.026611328125,
    -0.025146484375,
    0.01141357421875,
    0.0038299560546875,
    0.030517578125,
    0.01092529296875,
    0.00128936767578125,
    0.0133056640625,
    -0.0087890625,
    -0.0147705078125,
    -0.0311279296875,
    0.01080322265625,
    0.00156402587890625,
    0.0245361328125,
    -0.01153564453125,
    -0.0274658203125,
    -0.033935546875,
    -0.01324462890625,
    0.0032196044921875,
    -0.0155029296875,
    -0.0213623046875,
    0.0019683837890625,
    -0.034423828125,
    0.046875,
    -0.01507568359375,
    0.034423828125
   ]
  },
  "model.layers.10.self_attn.o_proj.weight": {
   "numel": 2097152,
   "sum": 5.2908940084744245,
   "abs": 39606.984401348745,
   "sample": [
    -0.004302978515625,
    -0.0027313232421875,
    0.00139617919921875,
    -0.0196533203125,
    -0.01416015625,
    -0.044921875,
    -0.0244140625,
    0.001739501953125,
    0.024658203125,
    0.00193023681640625,
    0.004486083984375,
    0.02490234375,
    -0.005950927734375,
    -0.0301513671875,
    -0.00482177734375,
    -0.0150146484375,
    0.00091552734375,
    0.0281982421875,
    -0.04541015625,
    -0.015625,
    -0.0194091796875,
    -0.07861328125,
    -0.0220947265625,
    0.03857421875,
    -0.03271484375,
    -0.029296875,
    -0.0306396484375,
    -0.0242919921875,
    -0.01416015625,
    0.055419921875,
    -0.03173828125,
    0.002288818359375,
    0.0272216796875,
    0.0228271484375,
    -0.00457763671875,
    0.0537109375,
    -0.00299072265625,
    0.003753662109375,
    -0.01611328125,
    0.0185546875,
    0.0260009765625,
    -0.0242919921875,
    -0.0179443359375,
    0.005096435546875,
    -0.016845703125,
    -0.033935546875,
    0.010986328125,
    -0.0252685546875,
    -0.0198974609375,
    0.04052734375,
    0.0234375,
    -0.04638671875,
    0.010986328125,
    -0.0174560546875,
    0.0244140625,
    -0.0439453125,
    0.004302978515625,
    -0.01019287109375,
    -0.03564453125,
    0.031494140625,
    -0.0031280517578125,
    0.009521484375,
    -0.0179443359375,
    0.038330078125
   ]
  },
  "model.layers.10.self_attn.q_norm.weight": {
   "numel": 128,
   "sum": 223.5582733154297,
   "abs": 223.5582733154297,
   "sample": [
    2.125,
    2.109375,
    1.28125,
    1.1484375,
    1.4921875,
    8.1875,
    1.0,
    1.3359375,
    0.9296875,
    0.765625,
    1.9609375,
    1.1953125,
    0.6015625,
    0.8828125,
    0.8359375,
    1.296875,
    1.5234375,
    1.2734375,
    0.46484375,
    1.34375,
    2.328125,
    1.546875,
    8.75,
    2.46875,
    1.3359375,
    0.8828125,
    3.953125,
    1.5703125,
    1.9296875,
    2.09375,
    1.0234375,
    0.80859375,
    2.109375,
    1.6875,
    1.2421875,
    1.296875,
    1.515625,
    6.6875,
    1.0703125,
    1.484375,
    1.421875,
    1.0,
    1.2734375,
    0.88671875,
    1.6640625,
    1.609375,
    1.8359375,
    1.421875,
    1.2734375,
    1.6015625,
    1.3515625,
    1.484375,
    1.0234375,
    1.390625,
    3.90625,
    2.5,
    1.4140625,
    1.609375,
    0.373046875,
    2.046875,
    1.78125,
    1.3125,
    1.734375,
    1.359375
   ]
  },
  "model.layers.10.self_attn.q_proj.weight": {
   "numel": 2097152,
   "sum": 15.04056344460696,
   "abs": 45961.42898917943,
   "sample": [
    -0.015625,
    -0.004791259765625,
    -0.007781982421875,
    0.042724609375,
    0.014892578125,
    0.0302734375,
    0.010986328125,
    0.019287109375,
    0.000156402587890625,
    -0.020263671875,
    0.036376953125,
    0.0615234375,
    -0.025634765625,
    -0.00153350830078125,
    -0.019775390625,
    -0.0220947265625,
    0.01092529296875,
    -0.00665283203125,
    0.013427734375,
    0.006988525390625,
    -0.00347900390625,
    -0.0184326171875,
    -0.0302734375,
    0.000736236572265625,
    -0.027587890625,
    0.0206298828125,
    0.005950927734375,
    0.01953125,
    -0.0179443359375,
    -0.0017852783203125,
    -0.049072265625,
    0.0220947265625,
    -0.001312255859375,
    0.00555419921875,
    0.01251220703125,
    -0.01007080078125,
    -0.0303955078125,
    0.01092529296875,
    0.003204345703125,
    -0.0029296875,
    0.033447265625,
    0.06689453125,
    -0.03369140625,
    0.0264892578125,
    0.00080108642578125,
    -0.0089111328125,
    0.00162506103515625,
    0.0269775390625,
    0.06982421875,
    -0.0615234375,
    0.003143310546875,
    -0.0025177001953125,
    -0.00433349609375,
    0.01190185546875,
    -0.04443359375,
    0.0024871826171875,
    -0.00823974609375,
    -0.01275634765625,
    0.006622314453125,
    0.006195068359375,
    0.00119781494140625,
    -0.00897216796875,
    0.0240478515625,
    -0.017822265625
   ]
  },
  "model.layers.10.self_attn.v_proj.weight": {
   "numel": 1048576,
   "sum": -15.692652063036803,
   "abs": 22104.226091740245,
   "sample": [
    -0.003875732421875,
    -0.05712890625,
    0.01214599609375,
    -0.028076171875,
    -0.00122833251953125,
    0.01202392578125,
    -0.0012054443359375,
    0.023681640625,
    -0.0089111328125,
    -0.0030364990234375,
    -0.00860595703125,
    0.07958984375,
    -0.033935546875,
    -0.00102996826171875,
    -0.00811767578125,
    0.05126953125,
    -0.001251220703125,
    -0.0257568359375,
    0.0152587890625,
    -0.034423828125,
    -0.01318359375,
    -0.0206298828125,
    -0.04833984375,
    -0.025390625,
    -0.0096435546875,
    0.010498046875,
    0.04052734375,
    -0.0089111328125,
    0.012451171875,
    -0.036865234375,
    -0.021484375,
    -0.03173828125,
    -0.030517578125,
    -0.00994873046875,
    -0.04833984375,
    0.0260009765625,
    -0.0306396484375,
    0.0106201171875,
    -0.046630859375,
    0.03271484375,
    -0.010009765625,
    0.01385498046875,
    0.024658203125,
    -0.000476837158203125,
    0.0211181640625,
    5.0067901611328125e-05,
    -0.007598876953125,
    -0.01177978515625,
    -0.029541015625,
    0.0211181640625,
    -0.017822265625,
    0.049072265625,
    0.0191650390625,
    -0.00787353515625,
    -0.0181884765625,
    0.024169921875,
    0.006256103515625,
    0.0301513671875,
    0.02099609375,
    -0.016845703125,
    -0.02783203125,
    0.00604248046875,
    0.03564453125,
    0.07568359375
   ]
  },
  "model.layers.11.input_layernorm.weight": {
   "numel": 1024,
   "sum": 1440.9638671875,
   "abs": 1440.9638671875,
   "sample": [
    2.421875,
    3.140625,
    1.09375,
    0.96484375,
    2.890625,
    1.0546875,
    0.90625,
    1.3359375,
    1.765625,
    1.4453125,
    1.4375,
    0.91796875,
    1.40625,
    1.03125,
    1.09375,
    0.2373046875,
    0.65625,
    0.263671875,
    0.87890625,
    0.9453125,
    0.984375,
    1.0234375,
    1.0703125,
    0.96875,
    2.046875,
    1.640625,
    1.3984375,
    1.1484375,
    1.140625,
    1.28125,
    1.1796875,
    1.1953125,
    1.265625,
    1.625,
    1.921875,
    1.2421875,
    1.375,
    1.125,
    1.203125,
    1.8203125,
    1.3203125,
    1.421875,
    1.359375,
    1.375,
    1.4375,
    1.46875,
    1.328125,
    1.578125,
    1.4921875,
    1.328125,
    1.4296875,
    1.4140625,
    1.9453125,
    1.53125,
    1.671875,
    1.7265625,
    1.515625,
    1.453125,
    1.796875,
    2.03125,
    1.5625,
    1.796875,
    1.5859375,
    1.5
   ]
  },
  "model.layers.11.mlp.down_proj.weight": {
   "numel": 3145728,
   "sum": -14.050277792557608,
   "abs": 60566.281122342974,
   "sample": [
    0.017578125,
    -0.036376953125,
    0.0118408203125,
    -0.002655029296875,
    0.0145263671875,
    0.0126953125,
    -0.0223388671875,
    -0.01251220703125,
    0.00933837890625,
    -0.0107421875,
    -0.00193023681640625,
    0.00787353515625,
    0.004730224609375,
    -0.01513671875,
    -0.02734375,
    0.017578125,
    0.0037078857421875,
    0.00531005859375,
    0.0234375,
    -0.038818359375,
    0.006103515625,
    0.011474609375,
    -0.02001953125,
    0.043212890625,
    -0.0096435546875,
    0.014892578125,
    -0.0201416015625,
    0.0145263671875,
    0.0093994140625,
    0.0257568359375,
    0.0107421875,
    -0.0615234375,
    -0.027099609375,
    0.0118408203125,
    -0.00537109375,
    0.006591796875,
    -0.0186767578125,
    -0.01611328125,
    -0.0172119140625,
    0.00543212890625,
    0.01116943359375,
    -0.0126953125,
    0.006439208984375,
    0.007415771484375,
    -0.0228271484375,
    0.0264892578125,
    -0.000308990478515625,
    -0.025390625,
    -0.01556396484375,
    0.032958984375,
    0.04638671875,
    0.000812530517578125,
    0.00445556640625,
    0.00823974609375,
    0.0150146484375,
    -0.029541015625,
    -0.006683349609375,
    -0.00994873046875,
    -0.01458740234375,
    -0.04150390625,
    0.0174560546875,
    -0.003997802734375,
    -0.0068359375,
    -0.0013580322265625
   ]
  },
  "model.layers.11.mlp.gate_proj.weight": {
   "numel": 3145728,
   "sum": 70.37848320749981,
   "abs": 74360.3735033768,
   "sample": [
    -0.040283203125,
    0.0177001953125,
    0.024169921875,
    -0.002197265625,
    0.0201416015625,
    0.00848388671875,
    -0.007171630859375,
    -0.00982666015625,
    0.0257568359375,
    -0.007110595703125,
    -0.039794921875,
    -0.04833984375,
    -0.01171875,
    -0.0157470703125,
    0.04150390625,
    -0.0205078125,
    0.01190185546875,
    0.00982666015625,
    -0.0103759765625,
    -0.039306640625,
    0.035888671875,
    -0.010986328125,
    -0.0223388671875,
    0.0166015625,
    0.0306396484375,
    -0.015869140625,
    0.00250244140625,
    -0.023193359375,
    -0.050537109375,
    0.0206298828125,
    0.0031890869140625,
    -0.00390625,
    -0.056884765625,
    -0.004730224609375,
    -0.0034637451171875,
    -0.0703125,
    -0.003662109375,
    -0.001861572265625,
    0.0361328125,
    -0.11181640625,
    -0.006103515625,
    0.0419921875,
    -0.0003376007080078125,
    -0.00921630859375,
    -0.053955078125,
    -0.0283203125,
    0.001708984375,
    -0.0277099609375,
    0.0245361328125,
    0.03662109375,
    -0.0101318359375,
    -0.02392578125,
    0.000385284423828125,
    0.0030059814453125,
    0.009521484375,
    -0.044677734375,
    0.00677490234375,
    0.017822265625,
    0.07177734375,
    -0.0103759765625,
    -0.08154296875,
    0.0035552978515625,
    0.0262451171875,
    0.00823974609375
   ]
  },
  "model.layers.11.mlp.up_proj.weight": {
   "numel": 3145728,
   "sum": 5.239998108940199,
   "abs": 66027.37779225549,
   "sample": [
    -0.00183868408203125,
    0.00677490234375,
    0.022216796875,
    -0.0179443359375,
    0.00909423828125,
    0.041015625,
    -0.017578125,
    0.01531982421875,
    -0.0203857421875,
    -0.00933837890625,
    0.0693359375,
    0.00628662109375,
    0.00872802734375,
    0.0166015625,
    0.031982421875,
    0.01153564453125,
    -0.0038909912109375,
    -0.042724609375,
    -0.0208740234375,
    -0.0019073486328125,
    -0.0157470703125,
    0.01055908203125,
    -0.01300048828125,
    0.04150390625,
    0.003936767578125,
    -0.004364013671875,
    0.0281982421875,
    0.01092529296875,
    0.00872802734375,
    0.0240478515625,
    -0.0028533935546875,
    -0.00074005126953125,
    0.0016937255859375,
    -0.02734375,
    0.017333984375,
    -0.03564453125,
    -0.041748046875,
    -0.00262451171875,
    -0.0169677734375,
    0.0400390625,
    0.035888671875,
    0.0089111328125,
    0.002593994140625,
    0.02001953125,
    0.01043701171875,
    0.049560546875,
    0.00738525390625,
    -0.0042724609375,
    -0.0108642578125,
    -0.0751953125,
    0.0194091796875,
    -0.02880859375,
    -0.059814453125,
    -0.0233154296875,
    0.037841796875,
    -0.01708984375,
    0.002105712890625,
    0.00244140625,
    -0.01031494140625,
    -0.0028533935546875,
    0.0184326171875,
    -0.0128173828125,
    -0.044189453125,
    0.0380859375
   ]
  },
  "model.layers.11.post_attention_layernorm.weight": {
   "numel": 1024,
   "sum": 1226.2590727806091,
   "abs": 1228.4934477806091,
   "sample": [
    1.0703125,
    1.6171875,
    1.25,
    1.0546875,
    1.046875,
    1.1015625,
    1.109375,
    1.40625,
    0.25,
    0.267578125,
    0.19921875,
    0.78125,
    0.2216796875,
    0.96875,
    0.40625,
    0.216796875,
    0.294921875,
    0.23828125,
    0.87109375,
    0.9921875,
    0.9921875,
    0.984375,
    1.015625,
    1.0546875,
    1.5703125,
    1.546875,
    1.3515625,
    1.109375,
    1.2421875,
    1.1796875,
    1.1875,
    1.2734375,
    1.234375,
    1.4765625,
    1.7109375,
    1.265625,
    1.3125,
    1.15625,
    1.2734375,
    1.4921875,
    1.3125,
    1.390625,
    1.3515625,
    1.390625,
    1.375,
    1.4609375,
    1.3046875,
    1.484375,
    1.453125,
    1.390625,
    1.34375,
    1.359375,
    1.71875,
    1.4609375,
    1.5234375,
    1.6015625,
    1.4296875,
    1.5078125,
    1.6171875,
    1.8046875,
    1.4921875,
    1.5859375,
    1.4453125,
    1.46875
   ]
  },
  "model.layers.11.self_attn.k_norm.weight": {
   "numel": 128,
   "sum": 266.1651248931885,
   "abs": 266.2609157562256,
   "sample": [
    0.423828125,
    0.59375,
    0.203125,
    -0.0023651123046875,
    3.421875,
    -0.002105712890625,
    0.006195068359375,
    0.796875,
    0.00174713134765625,
    3.515625,
    3.5625,
    0.490234375,
    3.078125,
    2.140625,
    2.390625,
    1.90625,
    2.1875,
    2.015625,
    2.171875,
    2.140625,
    2.046875,
    2.09375,
    1.625,
    3.625,
    2.78125,
    2.515625,
    2.21875,
    2.4375,
    2.25,
    2.703125,
    3.828125,
    3.609375,
    2.296875,
    1.1328125,
    1.53125,
    1.9453125,
    5.1875,
    1.09375,
    2.078125,
    2.703125,
    1.984375,
    2.203125,
    2.3125,
    1.5078125,
    1.6640625,
    0.7734375,
    1.828125,
    1.9921875,
    1.546875,
    1.515625,
    1.9296875,
    3.046875,
    2.609375,
    2.171875,
    3.453125,
    1.921875,
    2.28125,
    2.703125,
    2.234375,
    2.421875,
    2.21875,
    2.71875,
    3.765625,
    4.15625
   ]
  },
  "model.layers.11.self_attn.k_proj.weight": {
   "numel": 1048576,
   "sum": -51.102536720223725,
   "abs": 20364.511326661333,
   "sample": [
    -0.028076171875,
    0.01275634765625,
    -6.246566772460938e-05,
    -0.07568359375,
    0.05126953125,
    -0.044189453125,
    -0.0223388671875,
    0.01708984375,
    0.003326416015625,
    0.0072021484375,
    0.005035400390625,
    -0.035888671875,
    0.0299072265625,
    0.0299072265625,
    -0.00531005859375,
    -0.049560546875,
    -0.0211181640625,
    -0.01104736328125,
    -0.0093994140625,
    0.0089111328125,
    -0.0174560546875,
    0.0162353515625,
    -0.016845703125,
    -0.03466796875,
    0.059814453125,
    -0.07177734375,
    -0.039794921875,
    0.0228271484375,
    -0.0458984375,
    -0.06640625,
    0.0223388671875,
    -0.02734375,
    0.0004825592041015625,
    0.011474609375,
    0.01171875,
    -0.00457763671875,
    -0.01226806640625,
    0.006561279296875,
    0.000690460205078125,
    0.026611328125,
    0.004852294921875,
    -0.005767822265625,
    -0.0169677734375,
    0.032958984375,
    -0.017822265625,
    -0.000728607177734375,
    0.0179443359375,
    -0.0274658203125,
    -0.0087890625,
    -0.030517578125,
    7.534027099609375e-05,
    0.01239013671875,
    0.0224609375,
    -0.00933837890625,
    -0.00360107421875,
    0.0152587890625,
    -0.083984375,
    0.00897216796875,
    0.043701171875,
    -0.031982421875,
    -0.03662109375,
    0.007781982421875,
    -0.0012664794921875,
    0.0004444122314453125
   ]
  },
  "model.layers.11.self_attn.o_proj.weight": {
   "numel": 2097152,
   "sum": 21.949681828704342,
   "abs": 35970.35809969573,
   "sample": [
    0.0086669921875,
    -0.003631591796875,
    0.0255126953125,
    0.0017852783203125,
    -0.0250244140625,
    -0.0034942626953125,
    0.0242919921875,
    0.02685546875,
    -0.0030670166015625,
    -0.004058837890625,
    -0.00164031982421875,
    -0.01348876953125,
    -0.0011444091796875,
    -0.005035400390625,
    0.1376953125,
    0.00982666015625,
    0.02783203125,
    0.00579833984375,
    0.023193359375,
    -0.010498046875,
    0.00171661376953125,
    -0.0029144287109375,
    0.0137939453125,
    -0.01080322265625,
    0.025390625,
    -0.00244140625,
    -0.00152587890625,
    0.032958984375,
    -0.0042724609375,
    -0.0289306640625,
    -0.0045166015625,
    0.00860595703125,
    -0.0002536773681640625,
    -0.007659912109375,
    0.00970458984375,
    -0.037109375,
    -0.0118408203125,
    0.0257568359375,
    -0.0015106201171875,
    -0.01361083984375,
    -0.00823974609375,
    0.01007080078125,
    0.00885009765625,
    -0.0196533203125,
    -0.004974365234375,
    0.01275634765625,
    0.02978515625,
    0.01324462890625,
    -0.012939453125,
    0.02587890625,
    0.035400390625,
    -0.0004520416259765625,
    0.027099609375,
    -0.008056640625,
    -0.0169677734375,
    0.01287841796875,
    0.023193359375,
    0.00726318359375,
    0.0037994384765625,
    0.04541015625,
    -0.042236328125,
    0.00360107421875,
    -0.0162353515625,
    -0.00115966796875
   ]
  },
  "model.layers.11.self_attn.q_norm.weight": {
   "numel": 128,
   "sum": 225.36007690429688,
   "abs": 225.36007690429688,
   "sample": [
    1.578125,
    0.004852294921875,
    0.04248046875,
    1.34375,
    0.6875,
    2.90625,
    1.4765625,
    1.265625,
    2.0,
    1.03125,
    1.1484375,
    2.53125,
    1.375,
    1.6875,
    1.8046875,
    1.7421875,
    1.984375,
    2.265625,
    1.90625,
    2.03125,
    2.25,
    2.0,
    3.078125,
    1.8046875,
    1.5390625,
    1.8203125,
    1.953125,
    1.78125,
    2.140625,
    2.03125,
    1.5078125,
    1.8515625,
    1.3984375,
    2.4375,
    2.34375,
    1.6015625,
    0.78125,
    2.953125,
    1.640625,
    1.1640625,
    1.9609375,
    1.0546875,
    1.125,
    2.40625,
    1.4375,
    1.9765625,
    1.859375,
    1.8203125,
    2.296875,
    2.671875,
    2.109375,
    1.6484375,
    1.984375,
    1.9296875,
    1.75,
    2.34375,
    2.109375,
    1.609375,
    1.8828125,
    1.8359375,
    2.171875,
    2.515625,
    1.6328125,
    1.4609375
   ]
  },
  "model.layers.11.self_attn.q_proj.weight": {
   "numel": 2097152,
   "sum": -26.780714328808244,
   "abs": 45724.518082181865,
   "sample": [
    0.0169677734375,
    -0.012939453125,
    -0.07470703125,
    -0.0011444091796875,
    0.037353515625,
    0.0125732421875,
    0.007049560546875,
    0.00148773193359375,
    0.0279541015625,
    -0.000804901123046875,
    0.0037078857421875,
    -0.007781982421875,
    -0.00482177734375,
    -0.00109100341796875,
    0.03564453125,
    0.015625,
    -0.0002918243408203125,
    0.049560546875,
    0.01190185546875,
    -0.0064697265625,
    -0.00933837890625,
    0.0032501220703125,
    0.00482177734375,
    -0.03515625,
    0.0216064453125,
    -0.0164794921875,
    0.040283203125,
    0.0084228515625,
    -0.0062255859375,
    -0.01483154296875,
    -0.002227783203125,
    -0.0274658203125,
    -0.0001506805419921875,
    -0.0211181640625,
    -0.0194091796875,
    -0.0028839111328125,
    0.00799560546875,
    0.0361328125,
    0.1015625,
    0.025146484375,
    -0.0257568359375,
    -0.008056640625,
    -0.002593994140625,
    0.041748046875,
    0.0106201171875,
    -0.0281982421875,
    -0.0107421875,
    0.00537109375,
    -0.02880859375,
    -0.01025390625,
    0.00457763671875,
    0.01611328125,
    0.00154876708984375,
    0.0098876953125,
    0.02734375,
    0.020263671875,
    -0.013916015625,
    0.002288818359375,
    -0.0390625,
    -0.0400390625,
    0.0291748046875,
    -0.0191650390625,
    0.0615234375,
    -0.01470947265625
   ]
  },
  "model.layers.11.self_attn.v_proj.weight": {
   "numel": 1048576,
   "sum": 7.088819908094592,
   "abs": 20423.6411436965,
   "sample": [
    -0.0289306640625,
    -0.007415771484375,
    -0.01513671875,
    0.006561279296875,
    -0.005401611328125,
    0.0250244140625,
    0.0003814697265625,
    0.00909423828125,
    0.0091552734375,
    -0.00494384765625,
    -0.05810546875,
    0.0159912109375,
    -0.0185546875,
    -0.043701171875,
    -0.0089111328125,
    3.0994415283203125e-05,
    -0.0024261474609375,
    0.015380859375,
    0.004364013671875,
    0.0032501220703125,
    0.0115966796875,
    -0.01007080078125,
    0.0162353515625,
    -0.0615234375,
    0.01373291015625,
    -0.0185546875,
    0.031982421875,
    0.0224609375,
    -0.041748046875,
    0.0113525390625,
    0.00168609619140625,
    -0.0013275146484375,
    -0.01141357421875,
    0.032958984375,
    0.023681640625,
    -0.008056640625,
    -0.010498046875,
    -0.002593994140625,
    0.035888671875,
    -0.01806640625,
    -0.001953125,
    -0.025146484375,
    0.0137939453125,
    0.01361083984375,
    -0.036865234375,
    0.0115966796875,
    -0.00738525390625,
    0.000888824462890625,
    0.01324462890625,
    -0.0439453125,
    0.014404296875,
    -0.0208740234375,
    0.0341796875,
    0.01611328125,
    -0.03662109375,
    0.022705078125,
    -0.0419921875,
    -0.043212890625,
    0.02392578125,
    -0.0211181640625,
    -0.036376953125,
    -0.02685546875,
    0.01129150390625,
    -0.0272216796875
   ]
  },
  "model.layers.12.input_layernorm.weight": {
   "numel": 1024,
   "sum": 1654.45654296875,
   "abs": 1661.83154296875,
   "sample": [
    1.75,
    3.0,
    1.140625,
    1.0859375,
    3.640625,
    1.0625,
    0.99609375,
    1.8046875,
    0.240234375,
    0.220703125,
    0.1611328125,
    0.9296875,
    0.1923828125,
    1.1015625,
    0.39453125,
    0.17578125,
    0.2734375,
    0.212890625,
    0.96875,
    1.09375,
    1.1171875,
    1.125,
    1.2109375,
    1.0859375,
    2.796875,
    2.09375,
    1.71875,
    1.3125,
    1.3125,
    1.3828125,
    1.3984375,
    1.375,
    1.4765625,
    1.9765625,
    2.796875,
    1.5,
    1.7421875,
    1.328125,
    1.546875,
    2.296875,
    1.765625,
    1.7265625,
    1.625,
    1.7578125,
    1.7421875,
    1.9375,
    1.6640625,
    2.109375,
    2.09375,
    1.671875,
    1.796875,
    1.796875,
    2.546875,
    1.9921875,
    2.359375,
    2.421875,
    1.890625,
    2.0,
    2.625,
    2.875,
    2.25,
    2.484375,
    2.046875,
    2.046875
   ]
  },
  "model.layers.12.mlp.down_proj.weight": {
   "numel": 3145728,
   "sum": -27.15010398524464,
   "abs": 60324.510657940904,
   "sample": [
    0.006500244140625,
    -0.00506591796875,
    -0.038330078125,
    0.03564453125,
    0.000457763671875,
    -0.004486083984375,
    -0.024169921875,
    -0.01611328125,
    -0.017333984375,
    0.00897216796875,
    0.0247802734375,
    0.022705078125,
    0.0015106201171875,
    -0.0341796875,
    -0.0091552734375,
    0.0247802734375,
    0.0289306640625,
    0.00933837890625,
    0.044677734375,
    -0.0225830078125,
    -0.0123291015625,
    -0.055908203125,
    -0.0152587890625,
    -0.0238037109375,
    -0.0037841796875,
    -0.01226806640625,
    -0.03125,
    -0.004638671875,
    0.048095703125,
    -0.0186767578125,
    0.006744384765625,
    -0.017333984375,
    -0.0291748046875,
    0.01251220703125,
    -0.025634765625,
    -0.01007080078125,
    -0.01495361328125,
    -0.020263671875,
    0.033447265625,
    -0.0029754638671875,
    0.01202392578125,
    0.062255859375,
    -0.0034332275390625,
    -0.0245361328125,
    0.0040283203125,
    0.0189208984375,
    0.0211181640625,
    0.00738525390625,
    0.0096435546875,
    0.0185546875,
    -0.004425048828125,
    0.0281982421875,
    0.0031280517578125,
    0.0027008056640625,
    -0.0079345703125,
    0.020263671875,
    0.000759124755859375,
    0.00811767578125,
    0.039794921875,
    -0.0198974609375,
    0.033203125,
    -0.00921630859375,
    0.00506591796875,
    -0.0101318359375
   ]
  },
  "model.layers.12.mlp.gate_proj.weight": {
   "numel": 3145728,
   "sum": 40.54744426198886,
   "abs": 71323.71183987454,
   "sample": [
    -0.01068115234375,
    0.01214599609375,
    -0.030029296875,
    0.01611328125,
    0.0263671875,
    0.01129150390625,
    -0.003265380859375,
    -0.03369140625,
    -0.0272216796875,
    0.015625,
    -0.0191650390625,
    -0.0091552734375,
    -0.0068359375,
    0.0130615234375,
    -0.0062255859375,
    -0.03955078125,
    -0.016845703125,
    -0.0213623046875,
    0.01434326171875,
    0.0089111328125,
    -0.0228271484375,
    0.01336669921875,
    0.00616455078125,
    -0.004150390625,
    0.059326171875,
    -0.01153564453125,
    -0.044677734375,
    -0.025634765625,
    0.0003108978271484375,
    -0.0279541015625,
    0.04736328125,
    0.0303955078125,
    -0.04345703125,
    -0.021728515625,
    0.0419921875,
    0.00555419921875,
    0.037109375,
    0.0126953125,
    0.0166015625,
    0.032958984375,
    -0.03076171875,
    -0.00286865234375,
    -0.029052734375,
    0.0206298828125,
    0.04345703125,
    0.0205078125,
    -0.01336669921875,
    0.038330078125,
    -0.0015106201171875,
    -0.0084228515625,
    -0.010498046875,
    -0.11376953125,
    0.046630859375,
    -0.033935546875,
    0.005615234375,
    0.0267333984375,
    -0.005126953125,
    -0.0230712890625,
    -0.020751953125,
    -0.01422119140625,
    -0.08935546875,
    0.0081787109375,
    -0.08642578125,
    0.0279541015625
   ]
  },
  "model.layers.12.mlp.up_proj.weight": {
   "numel": 3145728,
   "sum": 40.811648510280065,
   "abs": 65088.23208108556,
   "sample": [
    -0.000957489013671875,
    -0.07177734375,
    -0.0009307861328125,
    0.00982666015625,
    -0.034423828125,
    -0.03271484375,
    0.0096435546875,
    -0.01806640625,
    0.00506591796875,
    -0.04052734375,
    -0.0101318359375,
    0.0164794921875,
    0.0140380859375,
    0.0257568359375,
    -0.0145263671875,
    0.00262451171875,
    0.0186767578125,
    0.029296875,
    -0.00933837890625,
    0.03466796875,
    0.050537109375,
    0.0019683837890625,
    0.01312255859375,
    -0.01409912109375,
    0.0103759765625,
    -0.021240234375,
    -0.0205078125,
    -0.006591796875,
    0.0517578125,
    -0.012451171875,
    0.036376953125,
    -0.00909423828125,
    -0.05126953125,
    0.019775390625,
    -0.0439453125,
    -0.0224609375,
    0.033203125,
    -0.0140380859375,
    -0.007232666015625,
    0.07958984375,
    0.0234375,
    0.00136566162109375,
    -0.0174560546875,
    0.004058837890625,
    -0.008056640625,
    0.02587890625,
    -0.0269775390625,
    -0.05859375,
    -0.00885009765625,
    0.0140380859375,
    -0.0054931640625,
    -0.014892578125,
    -0.0189208984375,
    0.00323486328125,
    0.003021240234375,
    -0.0150146484375,
    0.0048828125,
    -0.0164794921875,
    -0.045166015625,
    -0.018798828125,
    0.0439453125,
    -0.06298828125,
    0.061279296875,
    -0.012939453125
   ]
  },
  "model.layers.12.post_attention_layernorm.weight": {
   "numel": 1024,
   "sum": 1215.8576206564903,
   "abs": 1218.0451355576515,
   "sample": [
    1.078125,
    1.5,
    1.203125,
    1.015625,
    0.9140625,
    1.015625,
    1.0390625,
    1.421875,
    0.244140625,
    0.2431640625,
    0.1884765625,
    0.76171875,
    0.2236328125,
    0.9609375,
    0.392578125,
    0.2177734375,
    0.302734375,
    0.236328125,
    0.8515625,
    0.94921875,
    0.94140625,
    0.90625,
    0.984375,
    0.98046875,
    1.484375,
    1.5625,
    1.3515625,
    1.0546875,
    1.203125,
    1.15625,
    1.1796875,
    1.21875,
    1.2109375,
    1.5390625,
    1.65625,
    1.25,
    1.2890625,
    1.125,
    1.2578125,
    1.4765625,
    1.3125,
    1.375,
    1.3671875,
    1.375,
    1.390625,
    1.40625,
    1.328125,
    1.5,
    1.46875,
    1.40625,
    1.3125,
    1.34375,
    1.734375,
    1.5,
    1.59375,
    1.6484375,
    1.453125,
    1.515625,
    1.640625,
    1.84375,
    1.4921875,
    1.6015625,
    1.46875,
    1.484375
   ]
  },
  "model.layers.12.self_attn.k_norm.weight": {
   "numel": 128,
   "sum": 225.18471908569336,
   "abs": 225.2031364440918,
   "sample": [
    0.6015625,
    0.640625,
    0.11767578125,
    0.00041961669921875,
    1.3359375,
    -0.0038299560546875,
    1.21875,
    1.3046875,
    1.6796875,
    0.82421875,
    0.80078125,
    1.296875,
    1.53125,
    1.203125,
    2.21875,
    1.7265625,
    2.453125,
    2.28125,
    2.0,
    0.49609375,
    1.8984375,
    2.578125,
    3.0625,
    1.84375,
    1.3828125,
    1.625,
    1.1953125,
    1.734375,
    1.8203125,
    3.84375,
    2.265625,
    2.3125,
    0.65625,
    0.01123046875,
    1.171875,
    0.80859375,
    0.045654296875,
    0.76953125,
    0.007080078125,
    0.003204345703125,
    1.2890625,
    1.8515625,
    1.265625,
    1.890625,
    2.296875,
    0.8515625,
    1.9921875,
    0.380859375,
    1.9296875,
    1.859375,
    1.7265625,
    2.9375,
    1.7109375,
    2.140625,
    1.8125,
    2.921875,
    1.9375,
    1.4921875,
    1.25,
    1.734375,
    1.75,
    2.421875,
    2.125,
    2.34375
   ]
  },
  "model.layers.12.self_attn.k_proj.weight": {
   "numel": 1048576,
   "sum": -5.748276870930567,
   "abs": 20217.954027226428,
   "sample": [
    0.01068115234375,
    0.0108642578125,
    -0.02294921875,
    -0.06005859375,
    -0.00762939453125,
    0.0185546875,
    -0.04443359375,
    -0.001373291015625,
    0.056396484375,
    0.0179443359375,
    -0.01165771484375,
    -0.045166015625,
    -0.0087890625,
    -0.0023040771484375,
    0.042724609375,
    0.0301513671875,
    -0.0576171875,
    0.01409912109375,
    0.00787353515625,
    0.0299072265625,
    0.007080078125,
    0.020263671875,
    0.00017642974853515625,
    0.0286865234375,
    -0.01373291015625,
    -0.00567626953125,
    -0.04150390625,
    0.00927734375,
    -0.011962890625,
    0.00165557861328125,
    -0.0140380859375,
    0.01092529296875,
    -0.00035858154296875,
    -0.0036163330078125,
    -0.0235595703125,
    -0.0133056640625,
    -0.0322265625,
    -0.0189208984375,
    -0.0135498046875,
    0.0098876953125,
    -4.38690185546875e-05,
    -0.0125732421875,
    0.047607421875,
    -0.0240478515625,
    -0.00732421875,
    -0.0172119140625,
    0.0020294189453125,
    -0.011962890625,
    0.05224609375,
    0.00238037109375,
    0.0267333984375,
    0.01806640625,
    -0.0262451171875,
    -0.017822265625,
    -0.029052734375,
    0.010009765625,
    0.0172119140625,
    -0.046142578125,
    0.0040283203125,
    -0.01019287109375,
    -0.01177978515625,
    0.02099609375,
    0.007232666015625,
    0.006622314453125
   ]
  },
  "model.layers.12.self_attn.o_proj.weight": {
   "numel": 2097152,
   "sum": -25.122236671624705,
   "abs": 37569.34223248833,
   "sample": [
    0.002471923828125,
    -0.003021240234375,
    -0.0111083984375,
    0.020263671875,
    -0.025146484375,
    0.00051116943359375,
    0.0166015625,
    0.006195068359375,
    -0.00090789794921875,
    -0.00384521484375,
    0.003631591796875,
    -0.0135498046875,
    -0.0017547607421875,
    0.0211181640625,
    -0.01483154296875,
    -0.021240234375,
    0.046142578125,
    -0.0115966796875,
    -0.0255126953125,
    0.00579833984375,
    0.0172119140625,
    -0.034912109375,
    0.01513671875,
    -0.059814453125,
    0.0201416015625,
    -0.033447265625,
    0.00185394287109375,
    4.982948303222656e-05,
    0.0263671875,
    -0.025390625,
    -0.0299072265625,
    0.02978515625,
    0.0191650390625,
    0.00994873046875,
    -0.006500244140625,
    0.004852294921875,
    -0.049072265625,
    -0.0341796875,
    0.00189208984375,
    0.021240234375,
    0.0159912109375,
    -0.037841796875,
    -0.0211181640625,
    0.00537109375,
    -0.01263427734375,
    0.017822265625,
    -0.00885009765625,
    0.004638671875,
    -0.0084228515625,
    -0.00128936767578125,
    -0.0081787109375,
    -0.0038604736328125,
    0.007537841796875,
    -0.0203857421875,
    0.03662109375,
    0.0135498046875,
    0.004852294921875,
    -0.0009307861328125,
    -0.021240234375,
    0.0201416015625,
    -0.0252685546875,
    0.0135498046875,
    0.017333984375,
    0.00152587890625
   ]
  },
  "model.layers.12.self_attn.q_norm.weight": {
   "numel": 128,
   "sum": 221.20364379882812,
   "abs": 221.23971557617188,
   "sample": [
    2.671875,
    2.78125,
    -0.002410888671875,
    0.43359375,
    2.078125,
    0.16015625,
    2.03125,
    2.484375,
    1.9765625,
    1.6640625,
    2.359375,
    1.8984375,
    1.796875,
    2.734375,
    1.53125,
    2.21875,
    1.3515625,
    1.5625,
    1.7578125,
    3.390625,
    1.6171875,
    1.1796875,
    1.578125,
    1.8828125,
    1.8515625,
    1.7265625,
    2.578125,
    1.5,
    1.7734375,
    1.0625,
    1.5,
    2.5625,
    0.0732421875,
    0.0712890625,
    1.328125,
    3.125,
    0.04736328125,
    3.8125,
    0.1181640625,
    2.3125,
    1.9765625,
    1.6171875,
    2.296875,
    1.6796875,
    1.515625,
    3.46875,
    1.5703125,
    3.515625,
    1.65625,
    1.78125,
    1.90625,
    1.6640625,
    1.75,
    1.390625,
    2.0,
    1.28125,
    1.515625,
    1.7734375,
    2.234375,
    1.484375,
    1.796875,
    1.75,
    1.640625,
    1.6015625
   ]
  },
  "model.layers.12.self_attn.q_proj.weight": {
   "numel": 2097152,
   "sum": 4.813094107143115,
   "abs": 46088.95766137139,
   "sample": [
    -0.01190185546875,
    0.021728515625,
    0.0016937255859375,
    -0.01953125,
    0.017333984375,
    -0.0250244140625,
    0.01434326171875,
    -0.0069580078125,
    -0.035888671875,
    0.0703125,
    -0.0223388671875,
    -0.02734375,
    0.107421875,
    0.0062255859375,
    -0.00238037109375,
    0.0257568359375,
    -0.042724609375,
    -0.0269775390625,
    -0.004180908203125,
    -0.006561279296875,
    0.02294921875,
    -0.004486083984375,
    0.0096435546875,
    -0.00063323974609375,
    0.017822265625,
    -0.01611328125,
    0.0169677734375,
    0.0205078125,
    0.031494140625,
    0.0021820068359375,
    0.006011962890625,
    -0.033935546875,
    -0.000553131103515625,
    -0.00848388671875,
    0.01202392578125,
    0.0267333984375,
    0.01220703125,
    -0.01080322265625,
    -0.005462646484375,
    -0.01531982421875,
    -0.0162353515625,
    0.01116943359375,
    0.0546875,
    0.01116943359375,
    -0.0147705078125,
    0.015625,
    0.00189208984375,
    -0.0693359375,
    0.020751953125,
    -0.0703125,
    0.0225830078125,
    -0.032958984375,
    -0.0010986328125,
    -0.03466796875,
    0.0166015625,
    -0.0230712890625,
    -0.028076171875,
    -0.0322265625,
    -0.027099609375,
    0.01287841796875,
    0.037109375,
    0.0198974609375,
    0.040771484375,
    -0.01519775390625
   ]
  },
  "model.layers.12.self_attn.v_proj.weight": {
   "numel": 1048576,
   "sum": -19.840823211008683,
   "abs": 21548.26219967776,
   "sample": [
    -0.00543212890625,
    0.01092529296875,
    0.012451171875,
    -0.028564453125,
    0.000576019287109375,
    -0.06396484375,
    -0.024169921875,
    -0.032470703125,
    -0.05224609375,
    0.0022125244140625,
    0.0272216796875,
    0.0164794921875,
    -0.0003528594970703125,
    0.02197265625,
    -0.0126953125,
    0.00927734375,
    -0.0128173828125,
    -0.010009765625,
    0.0108642578125,
    -0.042236328125,
    0.03955078125,
    -0.0224609375,
    -0.00897216796875,
    -0.004791259765625,
    0.0036468505859375,
    0.01324462890625,
    -0.01434326171875,
    0.0263671875,
    -0.01220703125,
    0.01458740234375,
    -0.035888671875,
    0.008544921875,
    -0.010498046875,
    0.01153564453125,
    -0.0595703125,
    -0.0277099609375,
    -0.0125732421875,
    -0.031494140625,
    -0.01409912109375,
    -0.01422119140625,
    0.000171661376953125,
    -0.00372314453125,
    0.0026397705078125,
    0.0072021484375,
    -0.04150390625,
    0.0302734375,
    0.035400390625,
    -0.018798828125,
    0.0267333984375,
    0.0133056640625,
    0.01458740234375,
    0.02490234375,
    -0.005401611328125,
    0.0250244140625,
    -0.04052734375,
    0.00531005859375,
    0.0260009765625,
    0.01214599609375,
    -0.037841796875,
    0.0252685546875,
    -0.00872802734375,
    -0.006988525390625,
    0.044677734375,
    0.0223388671875
   ]
  },
  "model.layers.13.input_layernorm.weight": {
   "numel": 1024,
   "sum": 1728.3271484375,
   "abs": 1737.0693359375,
   "sample": [
    2.171875,
    3.359375,
    1.2109375,
    1.2109375,
    3.359375,
    1.15625,
    1.078125,
    1.765625,
    0.26171875,
    0.244140625,
    0.177734375,
    0.95703125,
    0.1884765625,
    1.1796875,
    0.43359375,
    0.201171875,
    0.275390625,
    0.2119140625,
    0.98046875,
    1.125,
    1.15625,
    1.09375,
    1.25,
    1.046875,
    2.96875,
    2.078125,
    1.7109375,
    1.3671875,
    1.3046875,
    1.4296875,
    1.515625,
    1.5234375,
    1.5234375,
    2.140625,
    2.84375,
    1.4296875,
    1.765625,
    1.34375,
    1.5078125,
    2.34375,
    1.7578125,
    1.9140625,
    1.8984375,
    1.828125,
    1.765625,
    1.8046875,
    1.7265625,
    2.3125,
    2.1875,
    1.78125,
    1.875,
    1.9375,
    2.546875,
    2.140625,
    2.53125,
    2.578125,
    1.9765625,
    2.1875,
    2.71875,
    3.015625,
    2.25,
    2.71875,
    2.25,
    2.25
   ]
  },
  "model.layers.13.mlp.down_proj.weight": {
   "numel": 3145728,
   "sum": 11.702848714863649,
   "abs": 57845.445264209906,
   "sample": [
    0.0247802734375,
    -0.0286865234375,
    0.0308837890625,
    -0.0004825592041015625,
    0.01300048828125,
    -0.004730224609375,
    0.01275634765625,
    0.0029144287109375,
    0.001495361328125,
    -9.1552734375e-05,
    0.005462646484375,
    0.003997802734375,
    0.0126953125,
    -0.002685546875,
    0.01806640625,
    -0.0019989013671875,
    0.00421142578125,
    -0.005615234375,
    0.027099609375,
    0.05517578125,
    -0.004638671875,
    0.00148773193359375,
    0.0264892578125,
    0.0159912109375,
    0.0020599365234375,
    0.0111083984375,
    -0.034912109375,
    0.0250244140625,
    -0.03955078125,
    0.01953125,
    -0.034423828125,
    0.052978515625,
    0.06884765625,
    0.01202392578125,
    0.00083160400390625,
    0.0177001953125,
    -0.01025390625,
    0.0089111328125,
    0.0390625,
    0.00176239013671875,
    -0.007781982421875,
    0.006744384765625,
    -0.0126953125,
    -0.01025390625,
    -0.0245361328125,
    -0.003692626953125,
    -0.0035858154296875,
    -0.0108642578125,
    -0.0098876953125,
    0.03369140625,
    0.0517578125,
    -0.0223388671875,
    0.041259765625,
    0.0301513671875,
    0.0157470703125,
    -0.02392578125,
    -0.007537841796875,
    -0.007415771484375,
    0.01165771484375,
    -0.00159454345703125,
    0.019287109375,
    -0.0390625,
    0.01007080078125,
    0.000324249267578125
   ]
  },
  "model.layers.13.mlp.gate_proj.weight": {
   "numel": 3145728,
   "sum": -24.84936741895217,
   "abs": 67937.76538561161,
   "sample": [
    -0.03857421875,
    -0.0067138671875,
    -0.01361083984375,
    -0.00811767578125,
    0.026611328125,
    0.012939453125,
    0.010009765625,
    0.016845703125,
    0.0291748046875,
    -0.0263671875,
    -0.0003910064697265625,
    0.0245361328125,
    -0.0074462890625,
    0.0191650390625,
    -0.0067138671875,
    0.02783203125,
    0.0673828125,
    0.034423828125,
    -0.0225830078125,
    -0.0264892578125,
    -0.03173828125,
    -0.0022735595703125,
    0.016845703125,
    0.0498046875,
    -0.017578125,
    -0.035888671875,
    0.00787353515625,
    0.041748046875,
    0.0181884765625,
    -0.018310546875,
    -0.031005859375,
    0.0546875,
    -0.07275390625,
    0.0201416015625,
    0.00421142578125,
    -0.0230712890625,
    -0.037353515625,
    0.0234375,
    0.0146484375,
    -0.00799560546875,
    -0.034423828125,
    0.07177734375,
    0.02880859375,
    0.01239013671875,
    -0.00799560546875,
    0.031982421875,
    -0.029052734375,
    -0.0024871826171875,
    -0.001434326171875,
    -0.00104522705078125,
    0.0269775390625,
    -0.02294921875,
    -0.01275634765625,
    0.005279541015625,
    -0.0120849609375,
    0.017578125,
    0.01068115234375,
    4.9114227294921875e-05,
    0.037109375,
    0.0439453125,
    0.0439453125,
    -0.0269775390625,
    0.00799560546875,
    0.00244140625
   ]
  },
  "model.layers.13.mlp.up_proj.weight": {
   "numel": 3145728,
   "sum": 13.076133514521644,
   "abs": 62319.54982878198,
   "sample": [
    0.022216796875,
    0.005859375,
    0.002166748046875,
    -0.000457763671875,
    0.0169677734375,
    -0.0252685546875,
    0.037109375,
    -0.00933837890625,
    -0.00640869140625,
    -0.007415771484375,
    -0.00994873046875,
    -0.0283203125,
    0.024169921875,
    0.01416015625,
    -0.037109375,
    -0.08203125,
    0.0238037109375,
    -0.0220947265625,
    -0.025146484375,
    0.0020599365234375,
    0.0277099609375,
    0.004302978515625,
    -0.01019287109375,
    -0.000698089599609375,
    -0.043212890625,
    0.00848388671875,
    -0.0135498046875,
    -0.034912109375,
    -0.0245361328125,
    0.04345703125,
    -0.017333984375,
    0.00057220458984375,
    0.0277099609375,
    0.0029296875,
    -0.03369140625,
    0.0125732421875,
    0.004669189453125,
    0.0145263671875,
    0.0194091796875,
    0.05029296875,
    -0.0225830078125,
    0.036865234375,
    0.031494140625,
    -0.032958984375,
    0.00506591796875,
    0.0037841796875,
    0.006317138671875,
    0.024169921875,
    -0.043212890625,
    0.0206298828125,
    0.00830078125,
    0.007537841796875,
    0.0206298828125,
    0.01416015625,
    -0.0257568359375,
    -0.0294189453125,
    -0.02099609375,
    -0.0034027099609375,
    -0.08349609375,
    -0.0021514892578125,
    0.03759765625,
    0.0223388671875,
    -0.01031494140625,
    0.046630859375
   ]
  },
  "model.layers.13.post_attention_layernorm.weight": {
   "numel": 1024,
   "sum": 1322.4695160388947,
   "abs": 1322.4700090885162,
   "sample": [
    1.2421875,
    1.6875,
    1.2578125,
    1.0703125,
    0.9296875,
    1.0703125,
    1.125,
    1.5625,
    0.263671875,
    0.271484375,
    0.2080078125,
    0.84375,
    0.2236328125,
    1.0078125,
    0.427734375,
    0.24609375,
    0.330078125,
    0.263671875,
    0.890625,
    0.96484375,
    1.0078125,
    0.93359375,
    1.03125,
    0.98828125,
    1.5625,
    1.84375,
    1.484375,
    1.1328125,
    1.2109375,
    1.1953125,
    1.2109375,
    1.3359375,
    1.2734375,
    1.6484375,
    1.9453125,
    1.328125,
    1.4140625,
    1.15625,
    1.2890625,
    1.59375,
    1.3984375,
    1.5234375,
    1.453125,
    1.5078125,
    1.4921875,
    1.5625,
    1.40625,
    1.6875,
    1.609375,
    1.4921875,
    1.4921875,
    1.40625,
    1.9453125,
    1.65625,
    1.8203125,
    1.84375,
    1.578125,
    1.6640625,
    1.828125,
    2.09375,
    1.6875,
    1.828125,
    1.65625,
    1.625
   ]
  },
  "model.layers.13.self_attn.k_norm.weight": {
   "numel": 128,
   "sum": 227.45906591415405,
   "abs": 227.5045371055603,
   "sample": [
    1.2890625,
    -0.000347137451171875,
    1.0625,
    0.703125,
    0.515625,
    2.078125,
    1.96875,
    6.628036499023438e-05,
    1.28125,
    2.484375,
    1.578125,
    1.9765625,
    1.8828125,
    2.015625,
    1.796875,
    1.9296875,
    1.859375,
    2.234375,
    1.8671875,
    1.8671875,
    2.078125,
    1.90625,
    2.109375,
    1.984375,
    2.5,
    1.7578125,
    1.796875,
    0.828125,
    2.15625,
    1.515625,
    2.546875,
    2.5625,
    0.27734375,
    1.1328125,
    2.453125,
    -0.0022125244140625,
    -0.0006103515625,
    1.953125,
    0.5234375,
    0.8984375,
    1.421875,
    1.5234375,
    2.9375,
    1.140625,
    1.5,
    2.3125,
    2.9375,
    2.296875,
    2.21875,
    2.546875,
    2.046875,
    1.9921875,
    2.4375,
    1.765625,
    1.3984375,
    2.015625,
    2.0625,
    1.875,
    1.921875,
    0.78125,
    2.3125,
    2.15625,
    2.4375,
    2.78125
   ]
  },
  "model.layers.13.self_attn.k_proj.weight": {
   "numel": 1048576,
   "sum": -33.549686141719576,
   "abs": 19098.989861626585,
   "sample": [
    0.00775146484375,
    0.0311279296875,
    -0.034423828125,
    -0.0240478515625,
    -0.0079345703125,
    0.01446533203125,
    -0.007781982421875,
    -0.0018463134765625,
    0.0322265625,
    0.004364013671875,
    -0.0034637451171875,
    -0.01953125,
    -0.021240234375,
    -0.0189208984375,
    0.020751953125,
    -0.048095703125,
    -0.005401611328125,
    0.04833984375,
    -0.00848388671875,
    0.037109375,
    -0.007720947265625,
    -0.01324462890625,
    0.0027923583984375,
    -0.0546875,
    -0.00127410888671875,
    0.006195068359375,
    -0.002593994140625,
    0.034423828125,
    0.0283203125,
    0.032470703125,
    0.023681640625,
    0.01123046875,
    0.0291748046875,
    -0.0027313232421875,
    -0.0380859375,
    -0.01556396484375,
    0.000766754150390625,
    0.039306640625,
    0.01220703125,
    -0.0157470703125,
    0.05322265625,
    -0.06640625,
    0.031005859375,
    0.0172119140625,
    -0.0419921875,
    0.050048828125,
    0.0089111328125,
    0.01611328125,
    0.00927734375,
    0.053466796875,
    0.01324462890625,
    -0.0234375,
    -0.0166015625,
    -0.00994873046875,
    -0.00433349609375,
    -0.037109375,
    -0.016845703125,
    0.01220703125,
    0.028564453125,
    -0.016357421875,
    -0.005157470703125,
    0.034423828125,
    0.0152587890625,
    -0.0023193359375
   ]
  },
  "model.layers.13.self_attn.o_proj.weight": {
   "numel": 2097152,
   "sum": 11.451212659594603,
   "abs": 36186.13463100081,
   "sample": [
    -0.0341796875,
    0.00933837890625,
    -0.00153350830078125,
    -0.00408935546875,
    -0.01165771484375,
    0.01226806640625,
    0.0146484375,
    0.021728515625,
    -0.024169921875,
    -0.0015869140625,
    0.002166748046875,
    -0.00848388671875,
    -0.003143310546875,
    -0.002166748046875,
    0.0052490234375,
    0.004638671875,
    -0.01531982421875,
    -0.00634765625,
    -0.010986328125,
    -0.006439208984375,
    -0.0120849609375,
    0.001953125,
    -0.01129150390625,
    -0.0458984375,
    0.015869140625,
    0.032470703125,
    -0.038330078125,
    -0.03271484375,
    -0.01324462890625,
    -0.0166015625,
    -0.0196533203125,
    -0.00213623046875,
    0.005523681640625,
    0.01446533203125,
    -0.00518798828125,
    0.00872802734375,
    -0.0223388671875,
    0.0272216796875,
    -0.018310546875,
    0.00194549560546875,
    -0.0167236328125,
    0.00469970703125,
    0.0169677734375,
    -0.02783203125,
    0.0279541015625,
    -0.029052734375,
    0.035400390625,
    0.031982421875,
    0.00872802734375,
    0.00180816650390625,
    0.0186767578125,
    -0.0299072265625,
    -0.0185546875,
    -0.00970458984375,
    -0.03955078125,
    0.05615234375,
    -0.0283203125,
    0.0159912109375,
    0.0184326171875,
    -0.0177001953125,
    0.0130615234375,
    -0.00107574462890625,
    -0.0196533203125,
    0.00193023681640625
   ]
  },
  "model.layers.13.self_attn.q_norm.weight": {
   "numel": 128,
   "sum": 233.4674072265625,
   "abs": 234.0128173828125,
   "sample": [
    2.03125,
    2.46875,
    1.1328125,
    3.953125,
    6.53125,
    1.3828125,
    1.328125,
    4.25,
    1.953125,
    1.265625,
    1.25,
    1.5625,
    1.609375,
    1.4140625,
    1.3671875,
    1.4140625,
    1.6953125,
    1.4296875,
    1.8671875,
    1.8515625,
    1.875,
    1.9140625,
    2.34375,
    1.6875,
    1.4453125,
    1.8125,
    1.6953125,
    4.15625,
    1.640625,
    2.890625,
    1.9140625,
    1.7890625,
    2.125,
    2.296875,
    1.2421875,
    3.90625,
    4.15625,
    1.265625,
    1.421875,
    4.25,
    1.8671875,
    1.2265625,
    1.2265625,
    1.7734375,
    1.7421875,
    1.375,
    1.125,
    1.3515625,
    1.5625,
    1.46875,
    1.796875,
    1.75,
    1.765625,
    1.953125,
    2.984375,
    1.9375,
    1.828125,
    1.703125,
    1.5703125,
    4.5,
    1.5078125,
    1.9765625,
    1.859375,
    2.359375
   ]
  },
  "model.layers.13.self_attn.q_proj.weight": {
   "numel": 2097152,
   "sum": 34.864139598339534,
   "abs": 43905.378583740894,
   "sample": [
    -0.0181884765625,
    0.00848388671875,
    -0.0224609375,
    0.031494140625,
    0.0267333984375,
    -0.001983642578125,
    -0.029052734375,
    -0.025390625,
    -0.0024261474609375,
    0.04248046875,
    -0.072265625,
    0.0272216796875,
    0.00286865234375,
    0.06689453125,
    0.0203857421875,
    -0.0208740234375,
    0.0093994140625,
    -0.01446533203125,
    0.00848388671875,
    3.0994415283203125e-05,
    -0.0013885498046875,
    0.034423828125,
    0.021484375,
    0.0272216796875,
    0.0242919921875,
    -0.026611328125,
    0.013916015625,
    -0.041015625,
    -0.00726318359375,
    -0.01129150390625,
    -0.0478515625,
    -0.0115966796875,
    0.03271484375,
    0.005218505859375,
    0.01904296875,
    0.035888671875,
    0.0025787353515625,
    -0.08056640625,
    0.0057373046875,
    -0.047607421875,
    -0.03369140625,
    0.0250244140625,
    -0.0036468505859375,
    0.0279541015625,
    -0.01116943359375,
    0.00150299072265625,
    -0.009521484375,
    0.027099609375,
    -0.007568359375,
    0.00921630859375,
    -0.042724609375,
    -0.01348876953125,
    0.0181884765625,
    -0.0089111328125,
    0.00958251953125,
    -0.007232666015625,
    0.00225830078125,
    -0.006011962890625,
    0.004730224609375,
    0.031982421875,
    0.06591796875,
    -0.0166015625,
    0.05419921875,
    -0.01239013671875
   ]
  },
  "model.layers.13.self_attn.v_proj.weight": {
   "numel": 1048576,
   "sum": -54.93032446387224,
   "abs": 21497.04110282869,
   "sample": [
    -0.015869140625,
    0.0380859375,
    0.03857421875,
    0.016845703125,
    -0.0013275146484375,
    -0.0087890625,
    -0.00494384765625,
    -0.029296875,
    0.02587890625,
    -0.0135498046875,
    -0.0172119140625,
    -0.008056640625,
    -0.0213623046875,
    -0.0169677734375,
    -0.036865234375,
    -0.033203125,
    0.0196533203125,
    0.008544921875,
    0.0146484375,
    0.041748046875,
    0.015380859375,
    0.00830078125,
    -0.0106201171875,
    0.0673828125,
    0.03955078125,
    -0.0107421875,
    0.006622314453125,
    -0.052001953125,
    0.0220947265625,
    0.0257568359375,
    -0.00787353515625,
    0.022705078125,
    -0.015869140625,
    -0.050048828125,
    0.033447265625,
    -0.046630859375,
    -0.00506591796875,
    0.01361083984375,
    0.0022125244140625,
    0.00045013427734375,
    0.0277099609375,
    0.00665283203125,
    -0.031494140625,
    0.0120849609375,
    -0.0201416015625,
    0.02197265625,
    0.0201416015625,
    0.04443359375,
    -0.038330078125,
    -0.01507568359375,
    -0.0004215240478515625,
    0.016357421875,
    0.0108642578125,
    -0.00982666015625,
    0.01904296875,
    0.034912109375,
    0.002899169921875,
    0.016845703125,
    0.0025177001953125,
    -0.03173828125,
    0.037109375,
    0.0198974609375,
    -0.029296875,
    -0.032470703125
   ]
  },
  "model.layers.14.input_layernorm.weight": {
   "numel": 1024,
   "sum": 1976.5556640625,
   "abs": 1986.9775390625,
   "sample": [
    2.15625,
    3.78125,
    1.2421875,
    1.203125,
    3.59375,
    1.21875,
    1.109375,
    2.125,
    0.330078125,
    0.279296875,
    0.203125,
    1.0546875,
    0.2177734375,
    1.28125,
    0.48046875,
    0.2265625,
    0.322265625,
    0.251953125,
    1.0390625,
    1.1640625,
    1.1875,
    1.1484375,
    1.3125,
    1.0546875,
    3.671875,
    2.71875,
    2.125,
    1.4765625,
    1.40625,
    1.5,
    1.515625,
    1.6640625,
    1.6328125,
    2.546875,
    3.953125,
    1.6328125,
    1.9921875,
    1.4140625,
    1.6015625,
    2.640625,
    1.9765625,
    2.125,
    2.125,
    2.0,
    1.9921875,
    2.109375,
    1.9375,
    2.75,
    2.65625,
    1.96875,
    2.21875,
    2.125,
    3.28125,
    2.328125,
    3.3125,
    3.171875,
    2.390625,
    2.46875,
    3.375,
    3.640625,
    2.65625,
    3.359375,
    2.484375,
    2.625
   ]
  },
  "model.layers.14.mlp.down_proj.weight": {
   "numel": 3145728,
   "sum": 0.7371299004735192,
   "abs": 56847.144589771386,
   "sample": [
    0.00185394287109375,
    0.007049560546875,
    -0.0301513671875,
    -0.0093994140625,
    -0.01239013671875,
    -0.0086669921875,
    -0.01226806640625,
    0.0045166015625,
    -0.0159912109375,
    -0.00165557861328125,
    -0.0054931640625,
    -0.0224609375,
    -0.005706787109375,
    0.005401611328125,
    0.01043701171875,
    -0.008056640625,
    -0.01226806640625,
    -0.00064849853515625,
    0.00104522705078125,
    -0.032958984375,
    -0.011474609375,
    0.040771484375,
    0.0927734375,
    -0.0218505859375,
    0.00823974609375,
    0.012939453125,
    0.006683349609375,
    0.0301513671875,
    -0.0439453125,
    -0.005859375,
    0.034912109375,
    0.013916015625,
    -0.01507568359375,
    0.034423828125,
    0.006988525390625,
    -0.002685546875,
    0.0289306640625,
    0.058349609375,
    0.00113677978515625,
    -0.026611328125,
    -0.0281982421875,
    0.006866455078125,
    -0.003204345703125,
    -0.029296875,
    -0.0022735595703125,
    0.0167236328125,
    -0.04931640625,
    0.01263427734375,
    -0.0026397705078125,
    0.01611328125,
    -0.02880859375,
    -0.024658203125,
    -0.00051116943359375,
    -0.002349853515625,
    -0.04345703125,
    -0.00689697265625,
    0.0194091796875,
    0.0118408203125,
    -0.012939453125,
    0.031982421875,
    0.000682830810546875,
    0.01348876953125,
    0.0238037109375,
    0.016357421875
   ]
  },
  "model.layers.14.mlp.gate_proj.weight": {
   "numel": 3145728,
   "sum": 170.91357970394893,
   "abs": 64612.89782586385,
   "sample": [
    0.004119873046875,
    0.001739501953125,
    -0.00830078125,
    -0.00069427490234375,
    0.004791259765625,
    0.01708984375,
    0.007171630859375,
    -0.005645751953125,
    -0.00811767578125,
    0.00634765625,
    -0.037109375,
    -0.004608154296875,
    -0.04150390625,
    0.0152587890625,
    0.062255859375,
    0.029052734375,
    -0.01129150390625,
    0.044921875,
    -0.0286865234375,
    0.00162506103515625,
    -0.0191650390625,
    -0.0087890625,
    0.00799560546875,
    0.006134033203125,
    -0.00457763671875,
    0.0311279296875,
    -0.018798828125,
    -0.00555419921875,
    0.01904296875,
    0.00677490234375,
    0.0064697265625,
    -0.00250244140625,
    0.00061798095703125,
    -0.00177001953125,
    0.0283203125,
    -0.007568359375,
    0.033203125,
    0.048828125,
    0.04638671875,
    0.00125885009765625,
    0.032470703125,
    0.003570556640625,
    -0.00022029876708984375,
    -0.03466796875,
    -0.0028228759765625,
    -0.01324462890625,
    0.0211181640625,
    0.002105712890625,
    -0.005096435546875,
    -0.01251220703125,
    0.01507568359375,
    0.004791259765625,
    -0.005340576171875,
    0.01507568359375,
    0.002777099609375,
    0.00360107421875,
    0.06005859375,
    -0.0296630859375,
    0.0059814453125,
    0.03564453125,
    0.0289306640625,
    0.0208740234375,
    0.04345703125,
    0.03662109375
   ]
  },
  "model.layers.14.mlp.up_proj.weight": {
   "numel": 3145728,
   "sum": 31.718453665540437,
   "abs": 60000.56633396547,
   "sample": [
    -0.015380859375,
    0.0025634765625,
    -0.046142578125,
    -0.0042724609375,
    0.01324462890625,
    -0.0079345703125,
    0.00701904296875,
    0.020263671875,
    0.0011749267578125,
    0.034912109375,
    -0.046142578125,
    0.0020751953125,
    -0.00077056884765625,
    -0.01513671875,
    0.0247802734375,
    -0.06396484375,
    0.006988525390625,
    -0.0284423828125,
    -0.00543212890625,
    -0.0283203125,
    0.0166015625,
    0.039306640625,
    -0.02490234375,
    -0.0224609375,
    -0.022705078125,
    -0.0206298828125,
    0.04248046875,
    -0.031982421875,
    -0.007720947265625,
    0.002044677734375,
    -0.0234375,
    0.0291748046875,
    -0.00860595703125,
    -0.0235595703125,
    0.01165771484375,
    0.03173828125,
    -0.042236328125,
    0.03125,
    -0.01116943359375,
    0.005126953125,
    0.025146484375,
    0.028076171875,
    -0.00921630859375,
    -0.01116943359375,
    -0.0035400390625,
    0.030029296875,
    -0.019287109375,
    0.005828857421875,
    0.0007476806640625,
    -0.0263671875,
    -0.002105712890625,
    0.008544921875,
    0.01611328125,
    -0.0194091796875,
    -0.0250244140625,
    0.044921875,
    -0.033203125,
    0.0272216796875,
    -0.006134033203125,
    0.0164794921875,
    -0.033203125,
    0.0289306640625,
    0.019775390625,
    -0.007049560546875
   ]
  },
  "model.layers.14.post_attention_layernorm.weight": {
   "numel": 1024,
   "sum": 1405.1727039813995,
   "abs": 1405.1730210781097,
   "sample": [
    1.4453125,
    1.7421875,
    1.296875,
    1.1171875,
    0.87890625,
    1.140625,
    1.171875,
    1.640625,
    0.3515625,
    0.34765625,
    0.25390625,
    0.94921875,
    0.267578125,
    1.015625,
    0.5234375,
    0.298828125,
    0.3984375,
    0.3046875,
    0.9375,
    1.015625,
    1.0546875,
    0.95703125,
    1.0859375,
    1.0234375,
    1.78125,
    2.0,
    1.546875,
    1.140625,
    1.1875,
    1.1796875,
    1.2578125,
    1.359375,
    1.2890625,
    1.75,
    2.421875,
    1.3203125,
    1.4453125,
    1.15625,
    1.2734375,
    1.640625,
    1.3984375,
    1.5859375,
    1.515625,
    1.5234375,
    1.546875,
    1.578125,
    1.484375,
    1.796875,
    1.7890625,
    1.5390625,
    1.5234375,
    1.484375,
    2.234375,
    1.734375,
    2.078125,
    2.140625,
    1.6875,
    1.796875,
    2.046875,
    2.359375,
    1.78125,
    2.171875,
    1.7421875,
    1.703125
   ]
  },
  "model.layers.14.self_attn.k_norm.weight": {
   "numel": 128,
   "sum": 239.65518760681152,
   "abs": 239.69600105285645,
   "sample": [
    0.62109375,
    0.38671875,
    0.00060272216796875,
    -0.0189208984375,
    -0.0004558563232421875,
    2.109375,
    3.375,
    1.0390625,
    2.25,
    0.62109375,
    1.7890625,
    2.46875,
    1.421875,
    1.71875,
    1.703125,
    2.171875,
    1.078125,
    1.8671875,
    2.328125,
    1.9765625,
    1.9921875,
    2.21875,
    2.0625,
    13.0,
    0.921875,
    2.875,
