{
 "variant": "lora_online",
 "semantic_config_hash": "da0e84d4e97d68cb",
 "full_config_hash": "58a564a74203376d",
 "git_rev": "96b5bfa",
 "devices": [
  "NVIDIA L40S",
  "NVIDIA L40S"
 ],
 "wall_seconds": 46.7,
 "train_rows": [
  {
   "step": 0,
   "epoch": 0,
   "loss": 0.25187353927010137,
   "per_layer": [
    0.0030297108460217714,
    0.009758425876498222,
    0.024382546544075012,
    0.042067840695381165,
    0.05221761390566826,
    0.079515241086483,
    0.14988335967063904,
    0.20819267630577087,
    0.21080225706100464,
    0.2000405341386795,
    0.20400787889957428,
    0.2120816558599472,
    0.22588732838630676,
    0.24097920954227448,
    0.23545558750629425,
    0.291358083486557,
    0.30876874923706055,
    0.3162943720817566,
    0.34658282995224,
    0.38647010922431946,
    0.39254137873649597,
    0.42566996812820435,
    0.4321427345275879,
    0.45184236764907837,
    0.411632239818573,
    0.4088083803653717,
    0.3756542503833771,
    0.40639176964759827
   ],
   "accum_items": 4
  },
  {
   "step": 1,
   "epoch": 0,
   "loss": 0.2579513764191818,
   "per_layer": [
    0.002982156118378043,
    0.009255535900592804,
    0.023687032982707024,
    0.04301271215081215,
    0.053112756460905075,
    0.0784136950969696,
    0.1460573673248291,
    0.20005007088184357,
    0.21344122290611267,
    0.20562060177326202,
    0.21246102452278137,
    0.21974149346351624,
    0.23902584612369537,
    0.2553898096084595,
    0.24642902612686157,
    0.3127848505973816,
    0.32971906661987305,
    0.3366449475288391,
    0.3635846972465515,
    0.39501333236694336,
    0.399772584438324,
    0.42479705810546875,
    0.42941680550575256,
    0.45452848076820374,
    0.4177889823913574,
    0.4162912368774414,
    0.3793642520904541,
    0.4142518937587738
   ],
   "accum_items": 4
  },
  {
   "step": 2,
   "epoch": 0,
   "loss": 0.2583665099227801,
   "per_layer": [
    0.0020944285206496716,
    0.009861191734671593,
    0.025437895208597183,
    0.044796206057071686,
    0.05511414259672165,
    0.08361634612083435,
    0.16275668144226074,
    0.21046164631843567,
    0.22097089886665344,
    0.21010547876358032,
    0.21596285700798035,
    0.22139084339141846,
    0.23906327784061432,
    0.25352632999420166,
    0.2473834753036499,
    0.30828261375427246,
    0.32479286193847656,
    0.3269270658493042,
    0.3553815484046936,
    0.3918774127960205,
    0.3976113498210907,
    0.42685461044311523,
    0.4333924353122711,
    0.45425647497177124,
    0.4133313298225403,
    0.4104175567626953,
    0.37619274854660034,
    0.41240257024765015
   ],
   "accum_items": 4
  }
 ],
 "eval_rows": [
  {
   "epoch": 0,
   "cer": 0.8773383337658388,
   "line_exact": 0.0,
   "gen_ce": 3.2758819460868835
  }
 ],
 "done": {
  "vram_gb": 2.69,
  "vram_reserved_gb": 7.02,
  "vram_per_device_gb": [
   3.81,
   3.22
  ]
 },
 "checkpoint": {
  "base_model.model.model.layers.0.mlp.down_proj.lora_A.weight": {
   "numel": 24576,
   "sum": -0.5487753333816272,
   "abs": 221.41308634192455,
   "sample": [
    -0.0003550792462192476,
    0.006832242012023926,
    0.013172505423426628,
    -0.005869746673852205,
    0.01460208185017109,
    0.005447737406939268,
    -0.010567517019808292,
    0.005722403526306152,
    0.010513057000935078,
    0.009963375516235828,
    -0.0065028611570596695,
    -0.015304041095077991,
    0.01722284033894539,
    -0.01600712724030018,
    -0.015152155421674252,
    0.012375655584037304,
    -0.00036444043507799506,
    0.007797266822308302,
    -0.018081728368997574,
    -0.0001375459978589788,
    -0.012801812030375004,
    0.009933056309819221,
    -0.008962919004261494,
    0.014267931692302227,
    0.010940817184746265,
    -0.00317289587110281,
    0.011520462110638618,
    -0.012384127825498581,
    -0.0002120681165251881,
    0.013504238799214363,
    -0.010483108460903168,
    0.010513306595385075,
    0.012770167551934719,
    0.013745932839810848,
    0.004683556966483593,
    0.012314184568822384,
    0.0023361097555607557,
    -0.01549412403255701,
    0.006765805184841156,
    -0.008803953416645527,
    -0.0025020723696798086,
    -0.010696180164813995,
    0.007095094304531813,
    0.0015155558940023184,
    0.006027516908943653,
    0.0028530461713671684,
    -0.011855271644890308,
    -0.009383994154632092,
    0.00407444266602397,
    0.004532065242528915,
    -0.006393473595380783,
    -0.001213673036545515,
    0.007613510824739933,
    -0.011521215550601482,
    0.016495339572429657,
    0.006966866087168455,
    0.01078737061470747,
    -0.002178672468289733,
    -0.016098637133836746,
    0.002929544076323509,
    0.010023601353168488,
    -0.017593614757061005,
    -0.017930828034877777,
    0.004898237995803356
   ]
  },
  "base_model.model.model.layers.0.mlp.down_proj.lora_B.weight": {
   "numel": 8192,
   "sum": 0.004229061420684133,
   "abs": 0.20888963214389733,
   "sample": [
    2.6468453143024817e-05,
    2.9103350243531168e-05,
    -1.4321984963316936e-05,
    2.66595325228991e-05,
    2.5921055566868745e-05,
    5.014771431888221e-06,
    2.2118569177109748e-05,
    -2.8834188924520276e-05,
    -2.8466789444792084e-05,
    2.8826469133491628e-05,
    -2.6121029804926366e-05,
    -2.9666980481124483e-05,
    -2.7885022063856013e-05,
    2.94732326437952e-05,
    -2.9377830287558027e-05,
    -2.4386225049966015e-05,
    2.0912219042656943e-05,
    2.5889359676511958e-05,
    1.9807843273156323e-05,
    2.801276059472002e-05,
    2.8023703634971753e-05,
    -2.1744850528193638e-05,
    -2.750107887550257e-05,
    -2.204771044489462e-05,
    2.903519998653792e-05,
    -1.750264891597908e-05,
    -2.783722447929904e-05,
    -1.4799919881625101e-05,
    2.7501533622853458e-05,
    -2.9664000976481475e-05,
    2.9287726647453383e-05,
    2.9568584068329073e-05,
    2.774620588752441e-05,
    2.7298967324895784e-05,
    2.9383571018115617e-05,
    2.944915286207106e-05,
    -2.1666006432496943e-05,
    -2.929356742242817e-05,
    -2.7890382625628263e-05,
    2.97447586490307e-05,
    2.9256752895889804e-05,
    2.5581819500075653e-05,
    2.908538226620294e-05,
    7.123305749701103e-06,
    2.9099239327479154e-05,
    -2.867536932171788e-05,
    -2.9683924367418513e-05,
    2.9442337108775973e-05,
    -2.7096210033050738e-05,
    1.5035093383630738e-05,
    -1.3704258890356869e-05,
    -2.0131570636294782e-05,
    -2.7309428332955576e-05,
    -2.602330823719967e-05,
    -2.8367803679429926e-05,
    2.936251439678017e-05,
    -2.8494028811110184e-05,
    2.720565680647269e-05,
    2.923273859778419e-05,
    -2.986793697346002e-05,
    2.7556503482628614e-05,
    3.0013829018571414e-05,
    2.9577751774922945e-05,
    -3.001791992573999e-05
   ]
  },
  "base_model.model.model.layers.0.mlp.gate_proj.lora_A.weight": {
   "numel": 8192,
   "sum": -0.9629811312065613,
   "abs": 128.00301520113453,
   "sample": [
    0.00023387542751152068,
    0.024887271225452423,
    0.012924153357744217,
    -0.007339318748563528,
    -0.007552679628133774,
    0.026107409968972206,
    -0.026377426460385323,
    -0.017348801717162132,
    0.01710459776222706,
    0.0007667792378924787,
    0.020398501306772232,
    -0.02195776253938675,
    0.007095574401319027,
    -0.0013200327521190047,
    -0.02403211034834385,
    -0.013107593171298504,
    0.011122717522084713,
    0.007095648441463709,
    0.02000410668551922,
    0.03101959638297558,
    -6.763993587810546e-05,
    -0.023791084066033363,
    0.011828523129224777,
    0.010696006938815117,
    0.022720543667674065,
    -0.029434556141495705,
    0.017685720697045326,
    0.02943458966910839,
    0.026016447693109512,
    -0.02589469961822033,
    -0.018417129293084145,
    0.013443351723253727,
    0.01820414699614048,
    -0.027328109368681908,
    0.006821244023740292,
    -0.018934493884444237,
    -0.011903851293027401,
    0.004750994499772787,
    -0.031112460419535637,
    -0.006912554148584604,
    0.00541445380076766,
    0.003479490289464593,
    0.020879393443465233,
    0.011977802030742168,
    -0.0025475078728049994,
    0.019909223541617393,
    -0.01939469948410988,
    0.007920196279883385,
    0.0051877498626708984,
    -0.026500394567847252,
    0.010422391816973686,
    -0.0028536426834762096,
    0.0054428307339549065,
    0.024155016988515854,
    0.02428439073264599,
    -0.00484100729227066,
    0.014297504909336567,
    0.008255146443843842,
    0.025985723361372948,
    -0.02366648055613041,
    -0.018448293209075928,
    0.027329567819833755,
    -0.01988174207508564,
    0.008041406981647015
   ]
  },
  "base_model.model.model.layers.0.mlp.gate_proj.lora_B.weight": {
   "numel": 24576,
   "sum": 0.0026534898062632317,
   "abs": 0.573810799154398,
   "sample": [
    -2.8899616154376417e-05,
    2.1408208340290003e-05,
    2.7968194444838446e-06,
    -2.5234065105905756e-05,
    -2.9809547413606197e-05,
    2.8808406568714418e-05,
    2.7197958843316883e-05,
    2.9817201721016318e-05,
    -2.696321826078929e-05,
    2.397328535153065e-05,
    8.74185332122579e-07,
    2.9073549740132876e-05,
    2.7500307623995468e-05,
    7.716918844380416e-06,
    2.9873224775656126e-05,
    2.9750553949270397e-05,
    2.9897109925514087e-05,
    -5.438879270514008e-06,
    -2.5702192942844704e-05,
    -1.1182678463228513e-06,
    1.314105247729458e-06,
    -2.927943023678381e-05,
    -1.0609599485178478e-05,
    2.4287715859827586e-05,
    2.4479482817696407e-05,
    -1.2338961141722393e-07,
    2.9816266760462895e-05,
    2.0928635422023945e-05,
    2.6938465452985838e-05,
    2.486367702658754e-05,
    -2.9447654014802538e-05,
    -2.4207593014580198e-05,
    -2.1542557078646496e-05,
    -1.2072777280991431e-05,
    1.237817014043685e-05,
    -2.872323057090398e-05,
    2.9915347113274038e-05,
    2.8306250897003338e-05,
    -2.9381488275248557e-05,
    -2.9003896997892298e-05,
    -2.9923707188572735e-05,
    2.910676812462043e-05,
    2.2808651920058765e-05,
    -1.8917144188890234e-05,
    2.9108181479386985e-05,
    -1.7900711100082844e-05,
    -1.6974621757981367e-05,
    -2.1959174773655832e-05,
    -1.8649414414539933e-05,
    2.8540034691104665e-05,
    2.9515455025830306e-05,
    -2.18047989619663e-06,
    1.0587877113721333e-05,
    2.5617015126044862e-05,
    -2.835987470461987e-05,
    -2.6390713173896074e-05,
    -3.0013040941412328e-06,
    2.7270983991911635e-05,
    2.943772960861679e-05,
    -2.815072912198957e-05,
    1.2094490102754207e-06,
    2.8219241357874125e-05,
    -2.8378964998410083e-05,
    2.6121681003132835e-05
   ]
  },
  "base_model.model.model.layers.0.mlp.up_proj.lora_A.weight": {
   "numel": 8192,
   "sum": -1.0281165608139418,
   "abs": 128.91734777298916,
   "sample": [
    0.02464219182729721,
    -0.007523064501583576,
    -0.01057466957718134,
    0.0035856643225997686,
    0.01878351904451847,
    0.006575954146683216,
    -0.02345162443816662,
    -0.01808193139731884,
    -0.014541526325047016,
    0.02587096020579338,
    -0.02699313871562481,
    -0.02491704188287258,
    0.015487652271986008,
    0.00801124982535839,
    0.012923616915941238,
    0.022445356473326683,
    -0.028549181297421455,
    -0.020615262910723686,
    0.006880647968500853,
    0.025284413248300552,
    -0.007155804894864559,
    -0.019149402156472206,
    -0.001342916046269238,
    -0.02732793614268303,
    0.009566876105964184,
    -0.019149333238601685,
    -0.004439622163772583,
    -0.011368361301720142,
    -0.027237510308623314,
    0.0004298004787415266,
    -0.026016803458333015,
    0.023909950628876686,
    0.02894659712910652,
    0.0023505419958382845,
    0.014083192683756351,
    0.004592627286911011,
    -0.025406111031770706,
    0.011428876779973507,
    0.0062413811683654785,
    0.005570084787905216,
    0.01808203011751175,
    0.003600610885769129,
    0.019669055938720703,
    -0.01521348487585783,
    0.02064569480717182,
    0.0036622348707169294,
    0.01371723972260952,
    -0.02052364870905876,
    -0.014830615371465683,
    -5.3147909056860954e-05,
    -0.012618939392268658,
    0.0032504245173186064,
    0.023575415834784508,
    -0.0024419683031737804,
    -0.02195681259036064,
    -0.026129068806767464,
    -0.004898668732494116,
    0.014510628767311573,
    -0.02256716974079609,
    -0.010574154555797577,
    -0.01670769788324833,
    -0.03025759942829609,
    0.028426460921764374,
    -0.019272558391094208
   ]
  },
  "base_model.model.model.layers.0.mlp.up_proj.lora_B.weight": {
   "numel": 24576,
   "sum": -0.0002814933543604514,
   "abs": 0.6158637421638413,
   "sample": [
    -2.900079925893806e-05,
    3.0219696327549173e-06,
    2.9413584343274124e-05,
    2.7870983103639446e-05,
    -2.976303039758932e-05,
    2.319603481737431e-05,
    2.867357943614479e-05,
    2.9929478841950186e-05,
    -2.834115548466798e-05,
    -2.8821676096413285e-05,
    3.0028048058738932e-05,
    2.925810076703783e-05,
    -2.8329395718174055e-05,
    5.015400006413984e-07,
    -2.9716788048972376e-05,
    2.9844153687008657e-05,
    -2.9701301173190586e-05,
    -2.9178107070038095e-05,
    -2.6561379854683764e-05,
    -2.9359947802731767e-05,
    2.9940360036562197e-05,
    -1.970008815987967e-05,
    -2.9303206247277558e-05,
    2.6172963771387003e-05,
    -2.9839417038601823e-05,
    -2.6325718863517977e-05,
    2.8018364901072346e-05,
    2.8138123525422998e-05,
    -2.9785169317619875e-05,
    -2.9655289836227894e-05,
    -1.9406072169658728e-05,
    2.9834873203071766e-05,
    -3.0030651032575406e-05,
    -2.2712383724865504e-05,
    3.272853973612655e-06,
    2.981672150781378e-05,
    2.938645047834143e-05,
    1.0451566595293116e-05,
    2.9119502869434655e-05,
    2.9156606615288183e-05,
    -1.984593654924538e-05,
    -2.4714641767786816e-05,
    2.905041037593037e-05,
    -2.975303868879564e-05,
    -2.9124716093065217e-05,
    -2.8990743885515258e-05,
    -2.6222673113807105e-05,
    -2.9938579245936126e-05,
    -2.9203674785094336e-05,
    2.6239560611429624e-05,
    2.9546879886765964e-05,
    -1.5207817341433838e-05,
    2.871920332836453e-05,
    -2.1311258024070412e-05,
    -2.348828047615825e-06,
    -2.7631302145891823e-05,
    2.8010994356009178e-05,
    2.6694153348216787e-05,
    2.9135817385395057e-05,
    -2.932783536380157e-05,
    -1.7180848317366326e-06,
    -2.8526681489893235e-05,
    -2.989787026308477e-05,
    -2.7717434932128526e-05
   ]
  },
  "base_model.model.model.layers.0.self_attn.k_proj.lora_A.weight": {
   "numel": 8192,
   "sum": 1.0856209473158742,
   "abs": 130.55295862165121,
   "sample": [
    0.025528069585561752,
    -0.01954716071486473,
    -0.0155480420216918,
    0.00935408379882574,
    0.0017550881020724773,
    -0.028426513075828552,
    0.019759923219680786,
    -0.014420033432543278,
    -0.0018846001476049423,
    0.012558476999402046,
    -0.022325975820422173,
    -0.020759182050824165,
    -0.027115296572446823,
    -0.02696716971695423,
    -0.026596808806061745,
    -0.028569409623742104,
    -0.01660005748271942,
    0.00494746956974268,
    0.02257426455616951,
    -0.030655154958367348,
    -0.014147656969726086,
    -0.027831370010972023,
    0.01298473123461008,
    0.01588485762476921,
    0.001602361211553216,
    -0.009201288223266602,
    0.01182493008673191,
    0.014298043213784695,
    0.018814675509929657,
    0.017223944887518883,
    -0.013472849503159523,
    0.0029760217294096947,
    -0.023421743884682655,
    -0.02440188266336918,
    -0.00935409963130951,
    -0.0025483008939772844,
    0.0036032807547599077,
    -0.02708398550748825,
    -0.0009906503837555647,
    0.0006107619847171009,
    0.006851338781416416,
    0.002517915330827236,
    -0.022811442613601685,
    -0.028334524482488632,
    0.0026249755173921585,
    0.018692078068852425,
    -0.018173063173890114,
    -0.02308669313788414,
    0.012191221117973328,
    -0.021712619811296463,
    -0.0017166022444143891,
    0.0197595302015543,
    -0.022200990468263626,
    0.02525276131927967,
    -0.001747799920849502,
    0.00972044374793768,
    0.016250038519501686,
    0.0033234695438295603,
    0.01609805040061474,
    0.02565021626651287,
    -0.002730808686465025,
    0.002676770556718111,
    0.003982000518590212,
    -0.02659561112523079
   ]
  },
  "base_model.model.model.layers.0.self_attn.k_proj.lora_B.weight": {
   "numel": 8192,
   "sum": -0.0006308875940570502,
   "abs": 0.20558947069426647,
   "sample": [
    -2.7415748263592832e-05,
    -2.7942622182308696e-05,
    -2.9572924177045934e-05,
    -2.8071930501027964e-05,
    2.2166685084812343e-05,
    -2.9163620638428256e-06,
    1.5296762285288423e-05,
    2.972992842842359e-05,
    -2.9641318178619258e-05,
    -2.719300209719222e-05,
    -2.941735874628648e-05,
    2.522811701055616e-05,
    2.7919910280616023e-05,
    2.9495069611584768e-05,
    -2.849684278771747e-05,
    -2.7769503503805026e-05,
    2.660115933394991e-05,
    -3.022721102752257e-06,
    -2.297018545505125e-05,
    1.1268020898569375e-05,
    2.7217429305892438e-05,
    2.7895381208509207e-05,
    2.886865877371747e-05,
    -2.4494933313690126e-05,
    -2.572150515334215e-05,
    -2.976333416881971e-05,
    -2.9440087018883787e-05,
    -3.0031795176910236e-05,
    -2.9978024031152017e-05,
    2.9813977562298533e-06,
    2.2374513719114475e-05,
    -2.681371734070126e-05,
    -2.6186660761595704e-05,
    -2.9467406420735642e-05,
    -7.962768904690165e-06,
    -1.1841589184768964e-05,
    -2.9504579288186505e-05,
    2.381613739999011e-06,
    2.812374623317737e-05,
    2.9805663871229626e-05,
    3.0030836569494568e-05,
    1.5412113498314284e-05,
    1.6869673345354386e-05,
    -2.9496626666514203e-05,
    2.840515662683174e-05,
    2.8710121114272624e-05,
    2.507527096895501e-05,
    -2.9934592021163553e-05,
    -2.994731221406255e-05,
    2.572338235040661e-05,
    -2.8152009690529667e-05,
    2.3460382081452735e-08,
    2.9896535124862567e-05,
    2.6710620659287088e-05,
    2.5025236027431674e-05,
    -1.534785951662343e-05,
    3.003038182214368e-05,
    2.926780143752694e-05,
    3.0007606255821884e-05,
    -1.4145356544759125e-05,
    2.8535618184832856e-05,
    1.716889710223768e-05,
    -2.933835821750108e-05,
    -6.500524250441231e-06
   ]
  },
  "base_model.model.model.layers.0.self_attn.o_proj.lora_A.weight": {
   "numel": 16384,
   "sum": -0.3973051550254425,
   "abs": 180.54919518281366,
   "sample": [
    -0.011642150580883026,
    -0.015639489516615868,
    0.005356010515242815,
    0.015977324917912483,
    0.012376425787806511,
    -0.0199134424328804,
    0.007218174636363983,
    -9.432076330995187e-05,
    0.002440870739519596,
    0.019546862691640854,
    -0.008713055402040482,
    -0.010787560604512691,
    -0.015487169846892357,
    -0.013906341977417469,
    0.001502325409092009,
    0.010054919868707657,
    0.017227690666913986,
    0.014480913989245892,
    -0.020523427054286003,
    -0.00384576921351254,
    -0.007431590463966131,
    -0.01588507555425167,
    0.016251301392912865,
    -0.01914927177131176,
    0.003631406696513295,
    0.00947519950568676,
    0.009841658174991608,
    -0.0142689049243927,
    -0.004260512068867683,
    -0.019761158153414726,
    0.007522790692746639,
    -0.016607727855443954,
    0.009017350152134895,
    0.008438656106591225,
    -0.013321577571332455,
    0.00474576698616147,
    -0.005934891290962696,
    -0.02003542147576809,
    -0.014903862029314041,
    0.01152033545076847,
    -0.02000489830970764,
    0.006697792559862137,
    0.010941018350422382,
    -0.00819359626621008,
    0.00043142997310496867,
    0.0044710515066981316,
    0.013656754978001118,
    0.0030518982093781233,
    -0.018320292234420776,
    -0.011337041854858398,
    0.019760044291615486,
    0.006887745577841997,
    -0.0207365732640028,
    -0.009813291020691395,
    -0.002352104289457202,
    0.00868137925863266,
    0.011734488420188427,
    -0.014175796881318092,
    -0.012375098653137684,
    -0.003692498430609703,
    0.010482769459486008,
    -0.0031125701498240232,
    0.020618978887796402,
    0.0093838507309556
   ]
  },
  "base_model.model.model.layers.0.self_attn.o_proj.lora_B.weight": {
   "numel": 8192,
   "sum": -0.0014967587275798167,
   "abs": 0.20952429108336545,
   "sample": [
    7.203665518318303e-06,
    2.9864257157896645e-05,
    2.01968832698185e-05,
    -2.999497883138247e-05,
    2.976536597998347e-05,
    4.770599844050594e-07,
    2.9349588658078574e-05,
    1.2032613085466437e-05,
    -2.792484337987844e-05,
    -2.8967251637368463e-05,
    3.3138426260848064e-06,
    -2.8941285563632846e-05,
    -2.6011064619524404e-05,
    2.9994782380526885e-05,
    -8.197052920877468e-06,
    2.885208414227236e-05,
    -3.6982328310841694e-06,
    2.9526079742936417e-05,
    2.961295649583917e-05,
    -2.9310473109944724e-05,
    -2.772079642454628e-05,
    2.87462225969648e-05,
    2.9511813409044407e-05,
    2.9962278858874924e-05,
    2.0398392734932713e-05,
    2.9607253964059055e-05,
    -2.823335125867743e-05,
    -2.792746454360895e-05,
    2.466694604663644e-05,
    1.0894809747696854e-05,
    2.964111445180606e-05,
    1.4859903785691131e-05,
    -2.826694617397152e-05,
    2.968479566334281e-05,
    2.9542674383264966e-05,
    -1.988401527341921e-05,
    -2.829693039529957e-05,
    -2.8689339160337113e-05,
    -2.893858982133679e-05,
    2.9533061024267226e-05,
    -2.722080125749926e-06,
    2.9661128792213276e-05,
    -2.944169864349533e-05,
    2.651574686751701e-05,
    2.9646476832567714e-05,
    -2.2845972125651315e-05,
    -2.99939692922635e-05,
    2.8321141144260764e-05,
    -2.9357213861658238e-05,
    2.3470527594326995e-05,
    -4.7867697503534146e-06,
    2.7574818886932917e-05,
    -2.185468838433735e-05,
    -2.9973953132866882e-05,
    2.3920712919789366e-05,
    2.860041604435537e-05,
    -2.906841655203607e-05,
    -2.8257951271370985e-05,
    -2.8910617402289063e-05,
    -1.7861848391476087e-05,
    2.798631612677127e-06,
    2.9818056646035984e-05,
    -2.9222388548078015e-05,
    2.9336699299165048e-05
   ]
  },
  "base_model.model.model.layers.0.self_attn.q_proj.lora_A.weight": {
   "numel": 8192,
   "sum": 2.620405600174877,
   "abs": 127.00858070076526,
   "sample": [
    -0.00944586843252182,
    -0.004226962570101023,
    0.01600685901939869,
    0.01136759202927351,
    0.013071892783045769,
    -0.02183503285050392,
    -0.005109551828354597,
    -0.006729417480528355,
    0.008681376464664936,
    -0.014725010842084885,
    -0.028060516342520714,
    0.028305212035775185,
    -0.011304582469165325,
    0.030044978484511375,
    -0.008224466815590858,
    -0.013564626686275005,
    -0.016373401507735252,
    -0.016467072069644928,
    0.021592246368527412,
    0.010544588789343834,
    0.021734341979026794,
    0.017440691590309143,
    -0.016356900334358215,
    0.008653167635202408,
    0.00392156234011054,
    -0.008375734090805054,
    0.024276670068502426,
    0.012161062099039555,
    0.022842442616820335,
    0.01152039971202612,
    -0.012161433696746826,
    0.01563987508416176,
    0.0027467096224427223,
    -0.015517685562372208,
    0.021988047286868095,
    0.00828569196164608,
    0.030288662761449814,
    -0.02565007284283638,
    -0.01991252414882183,
    0.01432795263826847,
    0.00999429076910019,
    0.010299372486770153,
    0.008102232590317726,
    -0.015210879035294056,
    0.011398076079785824,
    -0.006332633085548878,
    0.005386159755289555,
    -0.0018918095156550407,
    0.01103227585554123,
    -0.01438906043767929,
    -0.014816188253462315,
    0.01188663300126791,
    -0.01795986294746399,
    0.009689254686236382,
    -0.0067597138695418835,
    -0.02207998000085354,
    -0.0015487519558519125,
    0.008864541538059711,
    0.006454266607761383,
    0.01808192953467369,
    0.026138488203287125,
    0.009048550389707088,
    -0.007514795754104853,
    -0.008773710578680038
   ]
  },
  "base_model.model.model.layers.0.self_attn.q_proj.lora_B.weight": {
   "numel": 16384,
   "sum": 0.00162897533308759,
   "abs": 0.39077638188619424,
   "sample": [
    2.9047141651972197e-05,
    2.7145695639774203e-05,
    -2.8342405130388215e-05,
    1.747125861584209e-05,
    -2.8408268917701207e-05,
    -2.956503703899216e-05,
    -1.2717199524558964e-06,
    -2.9936321880086325e-05,
    2.769645470834803e-05,
    5.981051344861044e-06,
    -2.6195431928499602e-05,
    2.928643698396627e-05,
    -2.9853001251467504e-05,
    -1.697759398666676e-05,
    2.9772996640531346e-05,
    -2.8752880098181777e-05,
    -2.682119156816043e-05,
    -2.99893526971573e-05,
    -9.431653779756743e-06,
    4.1578387026675045e-06,
    -2.5762456061784178e-05,
    -1.6032718122005463e-05,
    -3.870420187013224e-06,
    2.8613352696993388e-05,
    -2.8019067030982114e-05,
    -1.0317859960196074e-05,
    4.129490662307944e-06,
    2.867355760827195e-05,
    -2.908653550548479e-05,
    6.2865292420610785e-06,
    -2.1356827346608043e-05,
    -6.9211400841595605e-06,
    2.9802004064549692e-05,
    1.3152300198271405e-05,
    -2.9936829378129914e-05,
    2.985483115480747e-05,
    1.4115090380073525e-05,
    -2.767821388260927e-05,
    2.9047525458736345e-05,
    -2.405693885521032e-05,
    -2.5159752112813294e-05,
    -2.976985888381023e-05,
    -2.7317424610373564e-05,
    2.936695091193542e-05,
    -2.9045237170066684e-05,
    -5.502746716956608e-06,
    -2.8520889827632345e-06,
    -2.5576209736755118e-05,
    1.9849345335387625e-05,
    -2.7348382900527213e-06,
    2.1859328626305796e-05,
    1.0172570000577252e-05,
    -2.6105424694833346e-05,
    -2.9450751753756776e-05,
    2.80916992778657e-05,
    2.334857163077686e-05,
    -2.9549892133218236e-05,
    2.19622870645253e-05,
    3.993904556409689e-06,
    1.3029462934355251e-05,
    6.718097665725509e-06,
    2.5290924895671196e-05,
    2.415718699921854e-05,
    -2.391843736404553e-05
   ]
  },
  "base_model.model.model.layers.0.self_attn.v_proj.lora_A.weight": {
   "numel": 8192,
   "sum": 2.981622917326604,
   "abs": 127.76397186588929,
   "sample": [
    0.017564157024025917,
    -0.007705041207373142,
    -0.0015950738452374935,
    0.020004328340291977,
    0.013839175924658775,
    0.024764396250247955,
    0.01671113260090351,
    -0.0004552343743853271,
    0.008895980194211006,
    -0.0017389925196766853,
    0.026749003678560257,
    -0.009109750390052795,
    -0.0011984658194705844,
    -0.0014491607435047626,
    0.005661404225975275,
    0.02598562464118004,
    -0.009261327795684338,
    0.015152417123317719,
    -0.027966927736997604,
    0.022933466359972954,
    -0.021134134382009506,
    0.020889917388558388,
    -0.004715416580438614,
    -0.00390649912878871,
    0.0066370186395943165,
    0.0277240090072155,
    0.011124205775558949,
    0.008712893351912498,
    0.006576159968972206,
    -0.006577309686690569,
    0.008194107562303543,
    0.01731816865503788,
    -0.010941053740680218,
    0.00547752995043993,
    0.02955644018948078,
    0.027816345915198326,
    0.026138659566640854,
    0.0261074248701334,
    -0.016983026638627052,
    0.02708428166806698,
    -0.00965941697359085,
    0.024764426052570343,
    0.02442960999906063,
    0.018172776326537132,
    -0.007696176879107952,
    -0.01783805899322033,
    0.015548123978078365,
    0.019913330674171448,
    0.02955671213567257,
    0.0003485649067442864,
    0.010238392278552055,
    0.02381930686533451,
    0.001716311788186431,
    -0.009627952240407467,
    -0.03025777079164982,
    0.017440328374505043,
    -0.004561671055853367,
    -0.027938254177570343,
    0.025497622787952423,
    -0.02076008915901184,
    0.016097860410809517,
    -0.021866369992494583,
    0.01707414910197258,
    -0.012558327056467533
   ]
  },
  "base_model.model.model.layers.0.self_attn.v_proj.lora_B.weight": {
   "numel": 8192,
   "sum": 0.0015775394113966001,
   "abs": 0.2135724261298897,
   "sample": [
    -2.8391474188538268e-05,
    -2.949987720057834e-05,
    -2.0956906155333854e-05,
    -2.8122918592998758e-05,
    2.9773771530017257e-05,
    -2.8975964596611448e-05,
    -2.8391974410624243e-05,
    -2.154243156837765e-05,
    -2.973446316900663e-05,
    2.8424236006685533e-05,
    -8.233456355810631e-06,
    2.9844741220586002e-05,
    -2.9795557566103525e-05,
    2.8886031941510737e-05,
    2.8948639737791382e-05,
    -2.997481351485476e-05,
    2.408252294117119e-05,
    -2.9700213417527266e-05,
    2.9993330826982856e-05,
    -2.9131548217264935e-05,
    -5.3157441470830236e-06,
    -6.108397883508587e-06,
    8.716024240129627e-06,
    2.95171957986895e-05,
    2.999504067702219e-05,
    2.9125665605533868e-05,
    -2.996946932398714e-05,
    2.712402056204155e-05,
    2.6502115360926837e-05,
    2.951253736682702e-05,
    -2.9874598112655804e-05,
    -2.0272951587685384e-05,
    -2.9882354283472523e-05,
    -2.8938018658664078e-05,
    -2.9976874429848976e-05,
    -2.998318632307928e-05,
    2.9625825845869258e-05,
    -1.65519340953324e-05,
    -2.9986247682245448e-05,
    -2.9284512493177317e-05,
    -1.4509848369925749e-05,
    1.058809084497625e-05,
    2.9806769816786982e-05,
    7.971986519805796e-07,
    2.7872383725480177e-05,
    -2.7085878173238598e-05,
    -2.2000896933604963e-05,
    2.9973200071253814e-05,
    -2.911812589445617e-05,
    1.5983487173798494e-05,
    2.6258101570419967e-05,
    -2.995845534314867e-05,
    -2.9224840545793995e-05,
    2.996661169163417e-05,
    2.9872922823415138e-05,
    -2.9882159651606344e-05,
    2.9894694307586178e-05,
    2.8242706321179867e-05,
    2.9564271244453266e-05,
    2.5556915716151707e-05,
    -2.9451683076331392e-05,
    -2.659829806361813e-05,
    -2.8103042495786212e-05,
    2.770220635284204e-05
   ]
  },
  "base_model.model.model.layers.1.mlp.down_proj.lora_A.weight": {
   "numel": 24576,
   "sum": -1.440660473751933,
   "abs": 222.7046481540158,
   "sample": [
    -0.01600688509643078,
    0.003768164897337556,
    0.014937869273126125,
    0.009708595462143421,
    0.013870351016521454,
    -0.01719769835472107,
    0.0037235834170132875,
    -0.006150162313133478,
    0.017959993332624435,
    0.0163415614515543,
    0.00550799211487174,
    0.00425703777000308,
    -0.017936022952198982,
    0.00535589037463069,
    0.005839941557496786,
    0.01008645910769701,
    -0.009230588562786579,
    0.007013936992734671,
    -0.001645627897232771,
    -0.008613977581262589,
    0.01490675751119852,
    0.013962882570922375,
    -0.007248911075294018,
    -0.006447474006563425,
    0.006027679890394211,
    -0.007417574059218168,
    -0.010482927784323692,
    -0.016464311629533768,
    -0.0018305180128663778,
    -0.005969964899122715,
    -0.006545949727296829,
    -0.004823000635951757,
    -0.005202738102525473,
    -0.012618408538401127,
    0.009017782285809517,
    0.008133359253406525,
    0.01451120711863041,
    0.010421515442430973,
    -0.01203873474150896,
    -0.0010070691350847483,
    0.01722758077085018,
    -0.010512995533645153,
    -0.004836720880120993,
    0.009109744802117348,
    -0.004333587363362312,
    -0.016953904181718826,
    0.00218108668923378,
    0.00404378492385149,
    0.004044164437800646,
    0.005569804459810257,
    -0.001022694050334394,
    0.007369695231318474,
    -0.011768318712711334,
    -0.0067602042108774185,
    0.0001277931296499446,
    -0.01609945297241211,
    0.013168124482035637,
    0.01319959294050932,
    -0.015621654689311981,
    0.005049902945756912,
    -0.009170793928205967,
    0.004623457323759794,
    0.00017914094496518373,
    -0.011764227412641048
   ]
  },
  "base_model.model.model.layers.1.mlp.down_proj.lora_B.weight": {
   "numel": 8192,
   "sum": -0.0012984543746252797,
   "abs": 0.21825641040078914,
   "sample": [
    -2.6792924472829327e-05,
    -2.981673605972901e-05,
    -2.981510442623403e-05,
    2.9487706342479214e-05,
    7.846680091461167e-06,
    -2.64919399342034e-05,
    2.861608845705632e-05,
    -2.898512866522651e-05,
    2.930586015281733e-05,
    2.9589351470349357e-05,
    2.983968261105474e-05,
    2.9953705961816013e-05,
    -9.487737770541571e-06,
    -2.9070119126117788e-05,
    2.9963275665068068e-05,
    2.458553899487015e-05,
    -2.9450062356772833e-05,
    2.992537702084519e-05,
    1.4440496670431457e-05,
    -2.9491773602785543e-05,
    -2.1112035028636456e-05,
    2.975561801576987e-05,
    -2.7845147997140884e-05,
    -2.98020077025285e-05,
    -2.889702773245517e-05,
    2.387139602433308e-06,
    2.996422517753672e-05,
    -2.5446801373618655e-05,
    -2.2934591470402665e-06,
    2.8094076697016135e-05,
    2.7550870072445832e-05,
    2.9044938855804503e-05,
    1.0781299351947382e-05,
    2.9156617529224604e-05,
    -3.004459540534299e-05,
    2.9600927518913522e-05,
    2.9827962862327695e-05,
    -2.9977418307680637e-05,
    3.0024870284250937e-05,
    2.928763751697261e-05,
    1.6224727005464956e-05,
    -4.241599981469335e-06,
    -2.9940323656774126e-05,
    2.9265715056681074e-05,
    -2.8381191441440023e-05,
    2.9768691547360504e-06,
    1.896223329822533e-05,
    3.002431185450405e-05,
    -1.7168777048937045e-05,
    2.315455276402645e-06,
    2.950838279502932e-05,
    2.9992854251759127e-05,
    2.8130176360718906e-05,
    -4.9605769163463265e-06,
    -2.8492209821706638e-05,
    2.9740298487013206e-05,
    -2.915547702286858e-05,
    1.72006621141918e-05,
    -2.3816994598746533e-06,
    2.8670985557255335e-05,
    -3.001810000569094e-05,
    -2.9098951927153394e-05,
    2.695617513381876e-05,
    2.9546858058893122e-05
   ]
  },
  "base_model.model.model.layers.1.mlp.gate_proj.lora_A.weight": {
   "numel": 8192,
   "sum": 0.5820380929885687,
   "abs": 128.1008612931787,
   "sample": [
    -0.011917563155293465,
    -0.026748523116111755,
    0.008252437226474285,
    0.02794307842850685,
    -0.03114110417664051,
    0.02038322202861309,
    -0.0047315144911408424,
    0.020156722515821457,
    0.018204405903816223,
    0.0186921376734972,
    -0.0025787868071347475,
    -0.005844475235790014,
    -0.024399157613515854,
    -0.0224764384329319,
    -0.007156005594879389,
    -0.015762098133563995,
    -0.012863950803875923,
    -0.025279931724071503,
    0.030381860211491585,
    -0.00804157368838787,
    0.01197692472487688,
    0.010814442299306393,
    0.03025940991938114,
    -0.0280915480107069,
    -0.01734916679561138,
    -0.016830557957291603,
    0.02345278672873974,
    0.014816783368587494,
    -0.01267998106777668,
    0.008682302199304104,
    -0.019180120900273323,
    -0.019057607278227806,
    0.0060274614952504635,
    0.00962811429053545,
    0.007246886380016804,
    -0.015609859488904476,
    0.014785753563046455,
    -0.015869317576289177,
    0.02647368423640728,
    0.00800924003124237,
    -0.023083031177520752,
    -0.013015443459153175,
    0.010604580864310265,
    0.02439880557358265,
    -0.004147595260292292,
    0.002074954565614462,
    0.0023036645725369453,
    -0.014755072072148323,
    0.01232861913740635,
    -0.009579923935234547,
    -0.004745489917695522,
    -0.02807632088661194,
    0.013989915139973164,
    -0.007644973695278168,
    0.016829965636134148,
    -0.020371276885271072,
    0.027700264006853104,
    0.024764645844697952,
    0.028335856273770332,
    0.009630835615098476,
    0.02882418781518936,
    0.024154383689165115,
    -0.002594931749626994,
    -0.01670875959098339
   ]
  },
  "base_model.model.model.layers.1.mlp.gate_proj.lora_B.weight": {
   "numel": 24576,
   "sum": -0.03256204464377266,
   "abs": 0.5847286713007263,
   "sample": [
    -2.719806434470229e-05,
    1.0231468877464067e-05,
    4.593768608174287e-06,
    2.5750816348590888e-05,
    -2.6162089852732606e-05,
    2.9271974199218675e-05,
    -6.138987373560667e-06,
    3.0011435228516348e-05,
    -7.587335630887537e-07,
    -2.8304901206865907e-05,
    -2.9404012821032666e-05,
    2.985436367453076e-05,
    -2.920370206993539e-05,
    2.956237040052656e-05,
    -2.0142129869782366e-05,
    1.950076148204971e-05,
    1.576748036313802e-05,
    2.973113805637695e-05,
    2.938539364549797e-05,
    -2.9522263503167778e-05,
    2.872378536267206e-05,
    2.948654946521856e-05,
    -2.994293208757881e-05,
    2.8075613954570144e-05,
    1.3968252460472286e-05,
    2.2304455342236906e-05,
    2.9845559765817598e-05,
    2.9615075618494302e-05,
    -2.8925884180353023e-05,
    2.9637283660122193e-05,
    2.3644866814720444e-05,
    2.9755512514384463e-05,
    3.001855111506302e-05,
    2.0399080312927254e-05,
    2.7764092010329477e-05,
    2.690583460207563e-05,
    -2.9498945878003724e-05,
    2.2618467482971027e-05,
    2.9593753424705938e-05,
    -2.6755189537652768e-05,
    2.8879418096039444e-05,
    -2.8888996894238517e-05,
    -2.0707736894109985e-06,
    -2.9349808755796403e-05,
    -2.457281698298175e-05,
    -2.963380939036142e-05,
    2.6662904929253273e-05,
    -2.70033906417666e-05,
    2.6873156457440928e-05,
    4.889900537818903e-06,
    2.5558074412401766e-05,
    -2.466331352479756e-05,
    2.7379244784242474e-05,
    2.9514218113035895e-05,
    2.9510869353543967e-05,
    -1.5243405869114213e-05,
    3.0019848054507747e-05,
    2.723737998167053e-05,
    1.26349987112917e-05,
    2.4757691790000536e-05,
    2.9420642022159882e-05,
    -2.947746543213725e-05,
    -1.9689066903083585e-05,
    -8.095013981801458e-06
   ]
  },
  "base_model.model.model.layers.1.mlp.up_proj.lora_A.weight": {
   "numel": 8192,
   "sum": -0.22152565515671085,
   "abs": 128.10632935112108,
   "sample": [
    -0.020889710634946823,
    -0.0009083243203349411,
    0.01338146161288023,
    0.028078319504857063,
    0.007766295690089464,
    -0.014175704680383205,
    0.003769801463931799,
    0.012466722168028355,
    0.012008222751319408,
    -0.023910291492938995,
    0.007870355620980263,
    -0.02305782586336136,
    0.027572430670261383,
    0.005721577908843756,
    -0.022720785811543465,
    -0.006942310836166143,
    -0.024674028158187866,
    -0.01573125086724758,
    -0.01322872843593359,
    0.0008398513309657574,
    0.005081493407487869,
    0.02893495000898838,
    -0.020614169538021088,
    -0.030884243547916412,
    -0.01610455848276615,
    -0.005111828912049532,
    0.00514239352196455,
    0.020858732983469963,
    0.005142324138432741,
    0.008804135024547577,
    -0.013380132615566254,
    -0.013011045753955841,
    0.007461673114448786,
    0.0075041730888187885,
    0.008040954358875751,
    -0.024773800745606422,
    0.026351645588874817,
    0.023543864488601685,
    0.00018985073256772012,
    -0.02061431109905243,
    -0.0008284309296868742,
    0.028091412037611008,
    0.00801133643835783,
    0.0034795859828591347,
    -0.02622995711863041,
    0.00514246104285121,
    -0.026473503559827805,
    0.021224716678261757,
    0.012939469888806343,
    -0.0017549891490489244,
    -0.029678648337721825,
    0.018080372363328934,
    0.000197328845388256,
    0.008926870301365852,
    -0.009139404632151127,
    -0.013320079073309898,
    0.015365307219326496,
    0.02513071522116661,
    0.008986860513687134,
    0.020999357104301453,
    0.01380878034979105,
    -0.026627132669091225,
    0.013900147750973701,
    0.01710551045835018
   ]
  },
  "base_model.model.model.layers.1.mlp.up_proj.lora_B.weight": {
   "numel": 24576,
   "sum": -0.0022577355609953997,
   "abs": 0.6285327603359905,
   "sample": [
    2.9947788789286278e-05,
    -2.916577250289265e-05,
    -5.006863375456305e-06,
    2.9799979529343545e-05,
    2.9697854188270867e-05,
    -2.983233571285382e-05,
    -1.6116071492433548e-05,
    2.9533295673900284e-05,
    -2.7903310183319263e-05,
    -2.8594262403203174e-05,
    2.5885119612212293e-06,
    -1.7764974472811446e-05,
    3.0024761144886725e-05,
    -1.7394786482327618e-05,
    -2.9279433874762617e-05,
    2.931703784270212e-05,
    3.0041786885703914e-05,
    -3.0025927117094398e-05,
    -2.984298589581158e-05,
    1.3083202247798909e-05,
    2.8006725187879056e-05,
    -2.9873337552999146e-05,
    -2.4111559469019994e-05,
    -2.9923974580015056e-05,
    -2.998872696480248e-05,
    -2.9834951419616118e-05,
    -2.5084862500079907e-05,
    -2.9331176847335882e-05,
    2.8634711270569824e-05,
    2.997219780809246e-05,
    -2.906608824559953e-05,
    2.6322748453821987e-05,
    -2.9304024792509153e-05,
    -1.954152321559377e-05,
    1.3609148481918965e-05,
    -2.6544030333752744e-05,
    2.9032222300884314e-05,
    2.9723927582381293e-05,
    2.9336068109842017e-05,
    2.8900898541905917e-05,
    -2.9834245651727542e-05,
    -2.9589018595288508e-05,
    2.941580351034645e-05,
    2.9813794753863476e-05,
    -2.0098514141864143e-05,
    -1.9557488485588692e-05,
    2.988552841998171e-05,
    -3.002515404659789e-05,
    2.6940060706692748e-05,
    -4.471557986107655e-06,
    -2.65327726083342e-05,
    -2.2261604044615524e-06,
    -2.5445169740123674e-05,
    2.7312853490002453e-05,
    -2.9208174964878708e-05,
    -2.9420894861686975e-05,
    2.7754749680752866e-05,
    -2.7280013455310836e-05,
    -2.5202136384905316e-05,
    2.7153600967722014e-05,
    -2.4058459530351683e-05,
    1.4406372429220937e-05,
    1.2555150533444248e-05,
    -2.9829829145455733e-05
   ]
  },
  "base_model.model.model.layers.1.self_attn.k_proj.lora_A.weight": {
   "numel": 8192,
   "sum": 2.7379317345695426,
   "abs": 128.11071623905252,
   "sample": [
    0.00913926400244236,
    0.030501767992973328,
    0.007307508494704962,
    0.013442478142678738,
    -0.003341319039463997,
    -0.011581449769437313,
    -0.01698322407901287,
    -0.0035096437204629183,
    -0.015884628519415855,
    0.0045322878286242485,
    0.025880569592118263,
    0.026870690286159515,
    0.0035996725782752037,
    -0.003509740810841322,
    -0.02978958748281002,
    0.021590707823634148,
    0.019424544647336006,
    0.009200396947562695,
    -0.0016483545769006014,
    -0.02638283558189869,
    -0.005752678494900465,
    0.0030783778056502342,
    0.020253852009773254,
    0.023208659142255783,
    -0.0011209844378754497,
    0.0035243637394160032,
    0.01255748886615038,
    0.030044158920645714,
    -0.004470087122172117,
    0.012009027414023876,
    0.006529436446726322,
    0.016222238540649414,
    -0.012802732177078724,
    0.001983161550015211,
    -0.007644824683666229,
    -0.01634250394999981,
    0.02867078222334385,
    -0.012008298188447952,
    0.004226751625537872,
    0.0198819562792778,
    0.02561970241367817,
    -0.012100106105208397,
    0.029648281633853912,
    -0.009720228612422943,
    0.0041350750252604485,
    0.004958732519298792,
    -0.00999452080577612,
    0.021713219583034515,
    0.02931194007396698,
    -0.025376852601766586,
    0.010179084725677967,
    0.023426448926329613,
    0.01634231209754944,
    -0.01685931533575058,
    -0.030520040541887283,
    0.025772057473659515,
    -0.018417131155729294,
    0.029799697920680046,
    0.027222681790590286,
    0.005353628192096949,
    0.025891989469528198,
    0.015550822019577026,
    0.020767496898770332,
    0.02247646264731884
   ]
  },
  "base_model.model.model.layers.1.self_attn.k_proj.lora_B.weight": {
   "numel": 8192,
   "sum": -0.0002839372119126937,
   "abs": 0.20503566334062903,
   "sample": [
    1.653311301197391e-06,
    -2.9864539101254195e-05,
    2.7861136913998052e-05,
    2.916988705692347e-05,
    -2.4901190045056865e-05,
    -2.8393498723744415e-05,
    2.8092385036870837e-05,
    -2.9764332794002257e-05,
    -2.9790464395773597e-05,
    2.601888627395965e-05,
    -2.956379103125073e-05,
    -2.4472203676850768e-06,
    2.639064950926695e-05,
    -2.705735278141219e-05,
    1.2712234820355661e-05,
    -2.999747812282294e-05,
    2.3930862880661152e-05,
    2.8874099371023476e-05,
    -2.109331762767397e-05,
    2.7472631700220518e-05,
    3.0026931199245155e-05,
    2.9595223168144003e-05,
    -2.0594838133547455e-05,
    2.5538360205246136e-05,
    -2.7534813852980733e-05,
    2.9908185751992278e-05,
    2.997503543156199e-05,
    -3.990975073975278e-06,
    2.2472999262390658e-05,
    -2.9416443794616498e-05,
    2.9771050321869552e-05,
    -2.971056710521225e-05,
    2.320163548574783e-05,
    2.992161171277985e-05,
    5.125161806063261e-07,
    -4.411421286931727e-06,
    -2.5117184122791514e-05,
    2.994354690599721e-05,
    -1.3862072592019103e-06,
    -2.7483427402330562e-05,
    3.003242272825446e-05,
    -2.9802860808558762e-05,
    -3.0026700187590905e-05,
    -1.1334087730574538e-06,
    2.8476371880969964e-05,
    1.4340727830131073e-05,
    1.1740040463337209e-05,
    1.67921170941554e-05,
    2.8502570785349235e-05,
    2.8891663532704115e-05,
    -2.7135909476783127e-05,
    -2.9976141377119347e-05,
    -9.762517549916083e-08,
    2.5779156203498133e-05,
    -2.657880395418033e-05,
    2.8810349249397404e-05,
    -2.812116508721374e-05,
    -2.4658647816977464e-05,
    2.9002227165619843e-05,
    -1.1764168448280543e-05,
    2.7175485229236074e-05,
    3.0007233362994157e-05,
    -2.8667347578448243e-05,
    3.823079168796539e-06
   ]
  },
  "base_model.model.model.layers.1.self_attn.o_proj.lora_A.weight": {
   "numel": 16384,
   "sum": -2.3865129160159313,
   "abs": 182.21129119763202,
   "sample": [
    0.005539445206522942,
    -0.002838541055098176,
    -0.011459093540906906,
    -0.0033143034670501947,
    0.01176417712122202,
    0.0139614911749959,
    -0.017806783318519592,
    -0.02172486111521721,
    -0.006851190235465765,
    0.012649968266487122,
    -0.0038905907422304153,
    0.009353269822895527,
    0.006027498748153448,
    -0.005814168602228165,
    0.019394630566239357,
    0.005203200038522482,
    -0.0020723447669297457,
    -0.015613227151334286,
    0.0021804263815283775,
    0.012749673798680305,
    -0.008742121048271656,
    0.01188853569328785,
    0.009962799027562141,
    -0.003478208091109991,
    -0.0029901873786002398,
    -0.007339542731642723,
    -0.013992656953632832,
    -0.0018057494889944792,
    0.00017081672558560967,
    -0.018783029168844223,
    -0.0128328213468194,
    0.02159135602414608,
    0.0073396749794483185,
    -0.011055367067456245,
    -0.001457198872230947,
    -0.00828512292355299,
    0.00016937122563831508,
    -0.0159757137298584,
    0.01634177751839161,
    0.018081655725836754,
    -0.016463804990053177,
    -0.019162161275744438,
    -0.01747140847146511,
    0.012405426241457462,
    0.0018150961259379983,
    0.010623683221638203,
    -0.005080825183540583,
    0.014635014347732067,
    0.022109173238277435,
    0.005935254041105509,
    0.013778609223663807,
    -0.005232748109847307,
    -0.009028051979839802,
    0.012557819485664368,
    0.01246689260005951,
    -0.004030169919133186,
    0.008316071704030037,
    -0.0204938855022192,
    -0.0006674985634163022,
    0.01988159492611885,
    -0.01073530688881874,
    -0.009842212311923504,
    0.00718661630526185,
    -0.006118861958384514
   ]
  },
  "base_model.model.model.layers.1.self_attn.o_proj.lora_B.weight": {
   "numel": 8192,
   "sum": -9.582504547234194e-05,
   "abs": 0.20951367764667816,
   "sample": [
    2.9532373446272686e-05,
    -3.476335677987663e-06,
    2.5481998818577267e-05,
    2.6023906684713438e-05,
    2.9597482352983207e-05,
    -2.6776820959639736e-05,
    2.999645766976755e-05,
    2.8363174351397902e-05,
    -2.9955195714137517e-05,
    -2.382094862696249e-05,
    -2.9864637326681986e-05,
    -2.9364913643803447e-05,
    2.9860506401746534e-05,
    1.929216296048253e-06,
    -2.884314744733274e-05,
    -2.4157648113032337e-06,
    -2.9989272661623545e-05,
    2.8649670639424585e-05,
    2.7343114197719842e-05,
    -2.7313915779814124e-05,
    2.9453958632075228e-05,
    -2.731683707679622e-05,
    2.9882858143537305e-05,
    -1.0500151802261826e-05,
    -2.8698839741991833e-05,
    2.971266076201573e-05,
    -2.809490979416296e-05,
    2.5996187105192803e-05,
    2.96483158308547e-05,
    -1.5807003364898264e-05,
    2.4007433239603415e-05,
    -2.361404403927736e-05,
    -3.0045584935578518e-05,
    2.7990750822937116e-05,
    2.9895774787291884e-05,
    -2.815922925947234e-05,
    2.7241108909947798e-05,
    2.376876182097476e-05,
    3.7694524053222267e-06,
    -2.8563954401761293e-05,
    2.8263737476663664e-05,
    2.7495372705743648e-05,
    2.9579414331237786e-05,
    -3.3263672776229214e-06,
    2.992098052345682e-05,
    2.693883106985595e-05,
    4.794606866198592e-06,
    -2.9270251616253518e-05,
    -2.2679435005557025e-06,
    -2.7454434530227445e-05,
    2.2579781216336414e-05,
    2.9370656193350442e-05,
    2.9243989047245122e-05,
    -2.6738516680779867e-05,
    2.6164621885982342e-05,
    -2.9765727958874777e-05,
    2.9506873033824377e-05,
    -1.5333600458689034e-05,
    -4.7708685997349676e-06,
    2.419611882942263e-05,
    2.970542300317902e-05,
    -2.718639007071033e-05,
    -2.660061545611825e-05,
    2.8351652872515842e-05
   ]
  },
  "base_model.model.model.layers.1.self_attn.q_proj.lora_A.weight": {
   "numel": 8192,
   "sum": 1.1864343771932226,
   "abs": 129.2606487472268,
   "sample": [
    0.02052350528538227,
    0.012894143350422382,
    -0.0063105481676757336,
    -0.015016266144812107,
    -0.02674906887114048,
    0.009537349455058575,
    -0.01368733961135149,
    -0.030166644603013992,
    0.004867929499596357,
    0.024154474958777428,
    -0.01953372173011303,
    0.01817377842962742,
    0.026730729267001152,
    -0.03037971816956997,
    0.004523064941167831,
    0.0032049519941210747,
    0.028549043461680412,
    -0.01478642039000988,
    -0.008316324092447758,
    0.01890699379146099,
    0.014634061604738235,
    0.013381005264818668,
    -0.005446228198707104,
    -0.02183501608669758,
    -0.011001981794834137,
    -0.020492304116487503,
    0.01149019505828619,
    -0.011977465823292732,
    -0.024416500702500343,
    0.005447452887892723,
    -0.009017305448651314,
    0.0030824439600110054,
    -0.0010678066173568368,
    0.0006352639175020158,
    -0.02708388864994049,
    -0.020385945215821266,
    -0.013564571738243103,
    0.01612882874906063,
    0.025649912655353546,
    0.010512683540582657,
    0.02964790165424347,
    -0.02760293334722519,
    0.02197251282632351,
    -0.006576998624950647,
    -0.010025052353739738,
    -0.02588922716677189,
    0.01734948344528675,
    -0.023575015366077423,
    0.025253593921661377,
    0.001038006623275578,
    0.007155447732657194,
    0.007094844244420528,
    0.004472821485251188,
    0.0195156242698431,
    -0.027462763711810112,
    -0.022842442616820335,
    0.028824100270867348,
    0.019179604947566986,
    -0.01670822687447071,
    0.00884911697357893,
    -0.026478132233023643,
    -0.0071724108420312405,
    0.01893622800707817,
    0.022598130628466606
   ]
  },
  "base_model.model.model.layers.1.self_attn.q_proj.lora_B.weight": {
   "numel": 16384,
   "sum": -0.0002523630230966134,
   "abs": 0.417467816650789,
   "sample": [
    -2.963214683404658e-05,
    2.9884413379477337e-05,
    -2.965463681903202e-05,
    -2.9734845156781375e-05,
    -1.5161742794589372e-06,
    -1.3714996384806e-05,
    -1.6951509678619914e-05,
    2.7812646294478327e-05,
    -2.7468609914649278e-05,
    -2.837881402228959e-05,
    2.8278125682845712e-05,
    2.8791409931727685e-05,
    -3.0040351703064516e-05,
    2.9684510082006454e-05,
    1.0164862942474429e-05,
    -2.966337706311606e-05,
    2.988397864100989e-05,
    2.9907623684266582e-05,
    2.820528970914893e-05,
    -3.0030809284653515e-05,
    2.9975180950714275e-05,
    3.0023540602996945e-05,
    2.9994751457707025e-05,
    -2.9506227292586118e-05,
    2.8459806344471872e-05,
    3.0047609470784664e-05,
    2.860387940017972e-05,
    2.8766900868504308e-05,
    -2.4996888896566816e-05,
    -2.6047389837913215e-05,
    -2.9108621674822643e-05,
    1.888351107481867e-05,
    3.0028233595658094e-05,
    2.8501965061877854e-05,
    2.634341763041448e-05,
    3.003811616508756e-05,
    2.9882905437261797e-05,
    -2.9925447961431928e-05,
    2.953033435915131e-05,
    2.1966347048874013e-05,
    -2.9279068257892504e-05,
    2.7467503969091922e-05,
    -2.852801299013663e-05,
    -1.5718111171736382e-05,
    -2.9253676984808408e-05,
    3.0020102713024244e-05,
    2.1568497686530463e-05,
    2.985813443956431e-05,
    2.8208611183799803e-05,
    -2.5577792257536203e-05,
    -2.9760367397102527e-05,
    -2.9348677344387397e-05,
    2.9845661629224196e-05,
    -2.965276871691458e-05,
    2.983090416819323e-05,
    3.0017676181159914e-05,
    2.1724867110606283e-05,
    2.755566492851358e-05,
    -1.770324342942331e-05,
    -2.97333699563751e-05,
    2.000209133257158e-05,
    2.8570881113409996e-05,
    -2.7225591111346148e-05,
    3.7106140098330798e-06
   ]
  },
  "base_model.model.model.layers.1.self_attn.v_proj.lora_A.weight": {
   "numel": 8192,
   "sum": -0.4384038136554409,
   "abs": 126.54280189150677,
   "sample": [
    0.016983509063720703,
    0.02684086002409458,
    0.004593329504132271,
    0.005172043107450008,
    -0.017928970977663994,
    0.027603639289736748,
    0.026961982250213623,
    0.002090123016387224,
    0.024551792070269585,
    0.008224092423915863,
    -0.002258717780932784,
    0.0009688111022114754,
    0.0010043750517070293,
    0.011795694008469582,
    0.025008833035826683,
    -0.017928471788764,
    -0.005936095956712961,
    0.029403148218989372,
    0.027938537299633026,
    0.006881214678287506,
    0.025985335931181908,
    -0.003920767921954393,
    -0.003738066181540489,
    -0.0030822940170764923,
    0.009597971104085445,
    -0.013901807367801666,
    0.009780842810869217,
    0.01951581798493862,
    0.0014194092946127057,
    -0.01310686580836773,
    -0.0013888032408431172,
    -0.006057250779122114,
    -0.02125578373670578,
    0.029678504914045334,
    -0.03016708604991436,
    -0.007888609543442726,
    -0.028551645576953888,
    -0.022933509200811386,
    -0.01216073241084814,
    -0.0087735028937459,
    -0.01707441173493862,
    -0.02500881440937519,
    0.00978089403361082,
    -0.014266373589634895,
    0.024154506623744965,
    0.022567754611372948,
    -0.02500883676111698,
    -0.004958686884492636,
    0.011398209258913994,
    0.0023953623604029417,
    -0.004929267801344395,
    0.010055137798190117,
    -0.027817388996481895,
    -0.0022282330319285393,
    -0.028821827843785286,
    0.01963837631046772,
    0.0034025846980512142,
    -0.02381712570786476,
    -0.006881998851895332,
    -0.009155401960015297,
    -0.029311953112483025,
    0.01649470254778862,
    0.0018619068432599306,
    0.012008530087769032
   ]
  },
  "base_model.model.model.layers.1.self_attn.v_proj.lora_B.weight": {
   "numel": 8192,
   "sum": 0.003296728628499501,
   "abs": 0.2205480195128322,
   "sample": [
    2.645304448378738e-05,
    2.9079401429044083e-05,
    3.0038987461011857e-05,
    -2.9780900149489753e-05,
    -6.826355729572242e-07,
    -3.0009628972038627e-05,
    -2.997231058543548e-05,
    2.9899731089244597e-05,
    2.811191552609671e-05,
    -2.9651002478203736e-05,
    3.0021566999494098e-05,
    -2.9959879611851647e-05,
    2.8355923859635368e-05,
    2.8073982321075164e-05,
    -2.8615855626412667e-05,
    -2.9863753297831863e-05,
    2.944067819043994e-05,
    -2.9985507353558205e-05,
    2.9989181712153368e-05,
    -3.000954893650487e-05,
    -2.670770845725201e-05,
    -2.9800346965203062e-05,
    -4.966008418705314e-06,
    -2.9888979042880237e-05,
    -2.6989484467776492e-05,
    2.9192531656008214e-05,
    2.9874245228711516e-05,
    2.9815260859322734e-05,
    -2.449928615533281e-05,
    1.823782986321021e-05,
    2.8223519620951265e-05,
    2.999793468916323e-05,
    2.1560676032095216e-05,
    -3.0010663977009244e-05,
    2.926805791503284e-05,
    -2.9979086320963688e-05,
    -2.784613570838701e-05,
    -2.9984033972141333e-05,
    2.992520239786245e-05,
    -2.9567103410954587e-05,
    -2.9981314582983032e-05,
    2.8615950213861652e-05,
    -2.992615736729931e-05,
    1.3595124073617626e-05,
    2.697834133869037e-05,
    -3.0033752409508452e-05,
    -3.003448000526987e-05,
    -2.9413473384920508e-05,
    -6.716777534165885e-06,
    2.4482704247930087e-05,
    2.6364577934145927e-05,
    2.8897573429276235e-05,
    2.774194763333071e-05,
    -2.7255964596406557e-05,
    2.3129332475946285e-05,
    2.9791806809953414e-05,
    -2.9882134185754694e-05,
    -2.9348157113417983e-05,
    -2.7188589228899218e-05,
    2.90945426968392e-05,
    -2.9474096663761884e-05,
    2.9967966838739812e-05,
    -3.000111428264063e-05,
    -2.9829558116034605e-05
   ]
  },
  "base_model.model.model.layers.10.mlp.down_proj.lora_A.weight": {
   "numel": 24576,
   "sum": -2.7382032232835627,
   "abs": 222.16699237340072,
   "sample": [
    -0.017594080418348312,
    0.013931789435446262,
    -0.005905711557716131,
    0.002563941990956664,
    0.009901966899633408,
    -0.010665618814527988,
    -0.0077969771809875965,
    0.00697271479293704,
    0.005721701309084892,
    -0.0047951340675354,
    0.009139573201537132,
    -0.015884842723608017,
    0.012985100969672203,
    0.005796764511615038,
    -0.016707710921764374,
    -0.0016550959553569555,
    -0.015456853434443474,
    0.0006102488259784877,
    -0.01429804228246212,
    -0.017928501591086388,
    -0.014969477429986,
    0.002959680277854204,
    0.009354308247566223,
    0.012955346144735813,
    0.008743236772716045,
    0.009720338508486748,
    0.012772126123309135,
    -0.01149056851863861,
    0.0067285895347595215,
    0.00999396201223135,
    0.01551835611462593,
    0.01625082641839981,
    0.00666850944980979,
    -0.0025486014783382416,
    0.010391613468527794,
    0.011916954070329666,
    0.007828364148736,
    0.006057568360120058,
    0.0008050103788264096,
    0.010758135467767715,
    -0.009017866104841232,
    -0.01588493399322033,
    0.005049929488450289,
    0.014755318872630596,
    -0.010605717077851295,
    0.013656143099069595,
    0.012466770596802235,
    0.016373300924897194,
    -0.0013507562689483166,
    -0.016982940956950188,
    0.011795447207987309,
    0.007217178121209145,
    -0.015884680673480034,
    -0.00932316668331623,
    0.01091068610548973,
    0.0006822317373007536,
    0.00021763372933492064,
    0.00263994000852108,
    -0.013841033913195133,
    0.005356105510145426,
    -0.009689325466752052,
    -0.011215989477932453,
    -0.010635734535753727,
    0.0027675547171384096
   ]
  },
  "base_model.model.model.layers.10.mlp.down_proj.lora_B.weight": {
   "numel": 8192,
   "sum": -0.0008650661504550072,
   "abs": 0.19324547833007655,
   "sample": [
    2.8353571906336583e-05,
    -2.0435183614608832e-05,
    7.835368705855217e-06,
    2.4624898287584074e-05,
    -2.968209628306795e-05,
    -2.8749564080499113e-05,
    3.0030541893211193e-05,
    2.516628046578262e-05,
    -2.7690608476405032e-05,
    -2.718751829888788e-06,
    -2.9093742341501638e-05,
    -2.6223806344205514e-05,
    -1.7935122741619125e-05,
    -1.683426853560377e-05,
    2.9075999918859452e-05,
    -2.6679967390919046e-07,
    -2.9746524887741543e-05,
    2.763182965281885e-05,
    2.7953281460213475e-05,
    5.040576979808975e-06,
    -2.8110765924793668e-05,
    2.1419930362753803e-06,
    2.8051925255567767e-05,
    -2.514732113922946e-05,
    2.9914308470324613e-05,
    2.342806510569062e-05,
    2.1324996851035394e-05,
    -1.517374585091602e-06,
    -2.9152171919122338e-05,
    -2.9452965463860892e-05,
    2.9420285500236787e-05,
    -2.792134546325542e-05,
    -2.955477248178795e-05,
    -1.4034689229447395e-05,
    2.7818612579721957e-05,
    9.023746315506287e-06,
    -2.955877971544396e-05,
    -2.4176047190849204e-06,
    2.760265488177538e-05,
    -2.7474061425891705e-05,
    -2.5315635866718367e-05,
    -2.8434445994207636e-05,
    2.877896804420743e-05,
    -2.878327177313622e-05,
    -2.6669216822483577e-05,
    -2.2014613932697102e-05,
    -2.6700949092628434e-05,
    2.8266422305023298e-05,
    -2.8961772841284983e-05,
    -2.986504478030838e-05,
    -2.90931075141998e-05,
    4.103740593563998e-06,
    -2.9891301892348565e-05,
    -3.0021103157196194e-05,
    -6.222375077413744e-07,
    -3.0034965675440617e-05,
    -2.9759636163362302e-05,
    -1.8557650037109852e-05,
    -2.9215749236755073e-05,
    3.030125981240417e-07,
    6.871520099593909e-07,
    -5.713315204047831e-06,
    -3.3432361306040548e-06,
    2.976636642415542e-05
   ]
  },
  "base_model.model.model.layers.10.mlp.gate_proj.lora_A.weight": {
   "numel": 8192,
   "sum": -1.1312623280482512,
   "abs": 128.33135353877242,
   "sample": [
    -0.016861442476511,
    -0.007889317348599434,
    -0.014693745411932468,
    -0.0251307375729084,
    0.024045448750257492,
    0.007552575320005417,
    -0.01621953770518303,
    0.016463609412312508,
    -0.02647341415286064,
    0.028060603886842728,
    -0.008651824668049812,
    -0.0041658817790448666,
    -0.008652832359075546,
    -0.011336831375956535,
    0.026016760617494583,
    -0.03013577312231064,
    -0.00801149383187294,
    -0.023817934095859528,
    0.008408104069530964,
    0.031112181022763252,
    0.019057460129261017,
    0.024062255397439003,
    0.006272004451602697,
    0.023299535736441612,
    0.001029515522532165,
    0.006819938775151968,
    -8.569910278310999e-05,
    0.02894565649330616,
    0.027592478320002556,
    -0.014693531207740307,
    -0.01322874054312706,
    -0.019271593540906906,
    -0.0047453767620027065,
    0.007736545521765947,
    0.011463319882750511,
    -0.019149407744407654,
    0.01228349469602108,
    -0.017684193328022957,
    0.006515956483781338,
    0.027327947318553925,
    -0.002411473309621215,
    0.01310693472623825,
    -0.01106309611350298,
    0.028914986178278923,
    -0.02698160707950592,
    0.013900414109230042,
    0.008651900105178356,
    0.00921401847153902,
    0.01081895176321268,
    -0.01277132611721754,
    -0.003219077130779624,
    0.0162506066262722,
    0.011275677010416985,
    0.001395928324200213,
    -0.01857057772576809,
    0.020157465711236,
    -0.003128026146441698,
    0.013062169775366783,
    -0.013778501190245152,
    0.023177457973361015,
    0.006210898049175739,
    -0.013717016205191612,
    -0.016112444922327995,
    0.009689047932624817
   ]
  },
  "base_model.model.model.layers.10.mlp.gate_proj.lora_B.weight": {
   "numel": 24576,
   "sum": -0.05191274747292507,
   "abs": 0.5839994390802188,
   "sample": [
    2.998306263179984e-05,
    2.9960108804516494e-05,
    2.728781328187324e-05,
    -2.9997068850207143e-05,
    -2.8992944862693548e-05,
    -2.9299440939212218e-05,
    2.9919059670646675e-05,
    2.0019093426526524e-05,
    -2.906659574364312e-05,
    -1.4800014469074085e-05,
    2.9639253625646234e-05,
    2.89760937448591e-05,
    1.4437267054745462e-05,
    3.0029428671696223e-05,
    2.7583580958889797e-05,
    1.3318339370016474e-05,
    -2.9475406336132437e-05,
    2.8762395231751725e-05,
    2.9734383133472875e-05,
    2.9403234293567948e-05,
    2.4951941668405198e-05,
    -2.6560173864709213e-05,
    2.7367917937226593e-05,
    2.368426794419065e-05,
    -2.802325616357848e-05,
    -2.9970218747621402e-05,
    2.2168980649439618e-05,
    3.0036277166800573e-05,
    -2.9083255867590196e-05,
    -2.7279909772914834e-05,
    2.7542473617359065e-05,
    2.1844363800482824e-05,
    2.3791786588844843e-05,
    -2.9490687666111626e-05,
    -2.940165541076567e-05,
    -2.9196589821367525e-05,
    -2.0620938812498935e-05,
    -2.9889373763580807e-05,
    -1.4148159607429989e-05,
    -2.074180702038575e-05,
    2.272527854074724e-05,
    2.6948031518259086e-05,
    2.2944394004298374e-05,
    2.346441942790989e-05,
    2.988096275657881e-05,
    2.9695473131141625e-05,
    -2.84527413896285e-05,
    -2.7579015295486897e-05,
    -1.3454832696879748e-05,
    2.7017202228307724e-05,
    -2.8645257771131583e-05,
    -2.6460234948899597e-05,
    -2.932310599135235e-05,
    -2.7021418645745143e-05,
    -2.7301739464746788e-05,
    -2.7880294510396197e-05,
    -2.9854685635655187e-05,
    2.9110700779710896e-05,
    -2.845999006240163e-05,
    -1.5775813153595664e-05,
    -2.9686229026992805e-05,
    2.224209856649395e-05,
    3.908778126060497e-06,
    -2.641641185618937e-05
   ]
  },
  "base_model.model.model.layers.10.mlp.up_proj.lora_A.weight": {
   "numel": 8192,
   "sum": 1.1148701482952674,
   "abs": 126.85181368045869,
   "sample": [
    0.014144385233521461,
    0.013350825756788254,
    0.022598765790462494,
    -0.0027613260317593813,
    -0.005434220656752586,
    -0.015030426904559135,
    0.004532426130026579,
    0.005416179541498423,
    -0.021744342520833015,
    -0.00498932646587491,
    -0.02076740749180317,
    0.02479579672217369,
    -0.002546977950260043,
    -0.0037694182246923447,
    -0.02565060183405876,
    0.025863319635391235,
    -0.009354164823889732,
    -0.017103588208556175,
    -0.012955216690897942,
    -0.007309270091354847,
    0.025894565507769585,
    0.014755863696336746,
    -0.028182417154312134,
    0.023910317569971085,
    -0.028304573148489,
    0.008194687776267529,
    -0.01481700874865055,
    -0.023818761110305786,
    0.01769583858549595,
    0.01267931703478098,
    0.0009914326947182417,
    0.02329985611140728,
    -0.0014801279176026583,
    0.027205882593989372,
    0.019301405176520348,
    0.008346100337803364,
    -0.018692268058657646,
    -0.0014426971320062876,
    0.007247400935739279,
    -0.019027091562747955,
    -0.01881479099392891,
    0.02720578946173191,
    0.027938468381762505,
    0.008529437705874443,
    -0.006698417477309704,
    0.007308340631425381,
    0.01649518497288227,
    0.026993053033947945,
    -0.00740015460178256,
    -0.006881532724946737,
    0.02760361135005951,
    -0.010238480754196644,
    -0.03089975006878376,
    -0.02662685513496399,
    0.0013957120245322585,
    -0.020491844043135643,
    0.024063438177108765,
    -0.015335028991103172,
    -0.02427711710333824,
    -0.028335709124803543,
    -0.016341716051101685,
    -0.012557554058730602,
    -0.00793168880045414,
    0.00027093428070656955
   ]
  },
  "base_model.model.model.layers.10.mlp.up_proj.lora_B.weight": {
   "numel": 24576,
   "sum": 8.283049028845468e-05,
   "abs": 0.6375853928297199,
   "sample": [
    -2.9807042665197514e-05,
    3.0045410312595777e-05,
    2.7569134545046836e-05,
    3.003876918228343e-05,
    -2.9947745133540593e-05,
    -2.9785605875076726e-05,
    2.985334867844358e-05,
    2.7257377951173112e-05,
    -2.9619410270242952e-05,
    2.889132701966446e-05,
    2.7346794013283215e-05,
    -2.9530507163144648e-05,
    -2.7249439881416038e-05,
    2.972260699607432e-05,
    -2.8219190426170826e-05,
    2.1192379790591076e-05,
    -2.5858846129267476e-05,
    9.966374818759505e-06,
    2.220393253082875e-05,
    -2.952251634269487e-05,
    2.9577409804915078e-05,
    -1.6576028428971767e-05,
    2.9245093173813075e-05,
    -2.9307811928447336e-05,
    -2.9931054086773656e-05,
    2.7602545742411166e-05,
    -2.9922553949290887e-05,
    -2.9634704333147965e-05,
    -2.9919199732830748e-05,
    2.775094981188886e-05,
    -2.924225373135414e-05,
    -2.9585991796921007e-05,
    2.7372860131436028e-05,
    2.9155119136703433e-06,
    2.9929333322797902e-05,
    -2.310975469299592e-05,
    -2.9665303372894414e-05,
    -1.5779691239004023e-05,
    -2.974811832245905e-05,
    2.8230208044988103e-05,
    2.992520785483066e-05,
    -4.45624152689561e-07,
    -2.8459373424993828e-05,
    2.977252734126523e-05,
    -2.9733091650996357e-05,
    2.995832073793281e-05,
    2.2387255285138963e-06,
    2.997515184688382e-05,
    2.971867252199445e-05,
    -2.216482607764192e-05,
    -2.6853729650611058e-05,
    2.889405732275918e-05,
    -2.7214688088861294e-05,
    2.9933935365988873e-05,
    2.98204249702394e-05,
    -2.9493461624952033e-05,
    3.000280230480712e-05,
    -2.973322625621222e-05,
    -2.8267379093449563e-05,
    3.0029084882698953e-05,
    2.670520916581154e-05,
    -2.962594044220168e-05,
    2.9844619348295964e-05,
    -1.258412521565333e-05
   ]
  },
  "base_model.model.model.layers.10.self_attn.k_proj.lora_A.weight": {
   "numel": 8192,
   "sum": -0.08185352621694619,
   "abs": 127.6107011847198,
   "sample": [
    0.002975005656480789,
    -0.02235456556081772,
    0.020157037302851677,
    0.023819373920559883,
    0.018202340230345726,
    -0.028336217626929283,
    0.02256746217608452,
    0.017684735357761383,
    0.01292372215539217,
    -0.021224811673164368,
    -0.028670838102698326,
    0.025136731564998627,
    0.0007055841269902885,
    -0.003513521980494261,
    -0.02809179574251175,
    0.010330213233828545,
    -0.009810843504965305,
    -0.0020619274582713842,
    -0.0206457432359457,
    0.00660729268565774,
    0.023575419560074806,
    -0.024521222338080406,
    -0.013961639255285263,
    -0.02293362095952034,
    -0.009781226515769958,
    0.018050605431199074,
    -0.000898981757927686,
    -0.009597829543054104,
    0.005219906102865934,
    -0.0225670225918293,
    0.0020606471225619316,
    0.0012280296068638563,
    -0.009139589965343475,
    -0.002624835353344679,
    0.01048447284847498,
    -0.016006875783205032,
    0.002028916496783495,
    -0.009952222928404808,
    -0.030272243544459343,
    -0.01698334515094757,
    -0.015760861337184906,
    -0.021255899220705032,
    -0.028184836730360985,
    -0.013352170586585999,
    0.005233863368630409,
    0.02598646469414234,
    0.0168603602796793,
    0.000985512975603342,
    0.00932403840124607,
    0.008896595798432827,
    0.002243750263005495,
    0.019424600526690483,
    -0.0030675644520670176,
    0.025147026404738426,
    0.011978479102253914,
    -0.03074594773352146,
    0.023208413273096085,
    -0.009659463539719582,
    -0.010269379243254662,
    -0.005630043800920248,
    -0.03102172166109085,
    -0.01222145464271307,
    -0.008369075134396553,
    0.001853415509685874
   ]
  },
  "base_model.model.model.layers.10.self_attn.k_proj.lora_B.weight": {
   "numel": 8192,
   "sum": 0.004532092548604538,
   "abs": 0.2114388945684702,
   "sample": [
    -2.2719324988429435e-05,
    2.704136750253383e-05,
    2.9985911169205792e-05,
    -2.9890999940107577e-05,
    2.75251532002585e-05,
    -3.0019773475942202e-05,
    -3.000006290676538e-05,
    -2.9488226573448628e-05,
    2.9981136322021484e-05,
    -3.001995173690375e-05,
    -7.145398285501869e-06,
    2.9981883926666342e-05,
    -1.6840720491018146e-05,
    2.9287610232131556e-05,
    -2.987032894452568e-05,
    3.003409074153751e-05,
    2.991210567415692e-05,
    2.0307221348048188e-05,
    -2.9809878469677642e-05,
    2.754258457571268e-05,
    2.9084994821459986e-05,
    -3.002201447088737e-05,
    -3.0022782084415667e-05,
    2.9984563298057765e-05,
    2.997426599904429e-05,
    -2.9204074962763116e-05,
    1.5669975255150348e-05,
    -2.9936343707959168e-05,
    2.9400662242551334e-06,
    2.7509945539350156e-06,
    -2.9183145670685917e-05,
    -2.940450212918222e-05,
    2.9364813599386252e-05,
    -2.9968085073051043e-05,
    2.9891763915657066e-05,
    -2.569975367805455e-05,
    2.9877974156988785e-05,
    -2.9884638934163377e-05,
    -3.001586264872458e-05,
    -2.885548019548878e-05,
    2.9899354558438063e-05,
    3.0014118237886578e-05,
    -2.8159565772511996e-05,
    -2.8864787964266725e-05,
    2.7047197363572195e-05,
    -2.060177621387993e-06,
    -2.9257716960273683e-05,
    2.3691034584771842e-05,
    -1.7515811123303138e-05,
    2.877164115488995e-05,
    2.8536373065435328e-05,
    -2.830938683473505e-05,
    -1.4139197446638718e-05,
    -9.658514500188176e-06,
    2.9995278964634053e-05,
    2.790286271192599e-05,
    -2.9233873647172004e-05,
    2.8829934308305383e-05,
    2.984226739499718e-05,
    -2.0523213606793433e-05,
    2.9402390282484703e-05,
    2.9051157980575226e-05,
    -2.9888127755839378e-05,
    -2.9837547117494978e-05
   ]
  },
  "base_model.model.model.layers.10.self_attn.o_proj.lora_A.weight": {
   "numel": 16384,
   "sum": -0.1472371896472282,
   "abs": 181.73278974448698,
   "sample": [
    0.017806364223361015,
    0.0050498987548053265,
    -0.01063573732972145,
    0.015182112343609333,
    -0.009200810454785824,
    0.005996893625706434,
    0.01402231678366661,
    -0.016372954472899437,
    0.020755162462592125,
    0.018203677609562874,
    -0.010575084015727043,
    -0.016129054129123688,
    0.020980242639780045,
    -0.021988168358802795,
    0.01719636656343937,
    0.020858343690633774,
    0.012039663270115852,
    -0.006851337384432554,
    0.020492590963840485,
    0.02159073017537594,
    -0.01695718988776207,
    0.009890599176287651,
    0.016708053648471832,
    -0.00856054201722145,
    -0.007124429568648338,
    0.007034639362245798,
    -0.0041960119269788265,
    -0.0016305850585922599,
    0.00773686682805419,
    -0.016494298353791237,
    -0.01768477074801922,
    -0.016586128622293472,
    0.00419562729075551,
    0.013565564528107643,
    0.01268061250448227,
    0.012435480952262878,
    -0.01866075024008751,
    -0.016983482986688614,
    -0.0027308473363518715,
    -0.004506740719079971,
    -0.004470236133784056,
    -0.01646401174366474,
    0.009078296832740307,
    -0.0028987079858779907,
    0.0010067903203889728,
    -0.017565356567502022,
    0.009566559456288815,
    -0.00434831902384758,
    -0.008072352968156338,
    -0.01783766597509384,
    0.016251306980848312,
    -0.005660750903189182,
    -0.0054471842013299465,
    -0.007431725040078163,
    0.009964458644390106,
    0.014358775690197945,
    0.00040190693107433617,
    -0.02049253322184086,
    -0.014876829460263252,
    -0.007340047042816877,
    -0.011153466999530792,
    -0.015548555180430412,
    -0.015120714902877808,
    0.016983382403850555
   ]
  },
  "base_model.model.model.layers.10.self_attn.o_proj.lora_B.weight": {
   "numel": 8192,
   "sum": -0.0003135809657397459,
   "abs": 0.2216756603624983,
   "sample": [
    2.941594721050933e-05,
    2.996490366058424e-05,
    2.9319240638869815e-05,
    -2.968212720588781e-05,
    2.9723410989390686e-05,
    2.857621802832e-05,
    -2.9099010134814307e-05,
    6.524467607960105e-06,
    2.993521047756076e-05,
    -2.9773123969789594e-05,
    -2.9142336643417366e-05,
    2.9775454095215537e-05,
    -2.9615717721753754e-05,
    -2.9470793379005045e-05,
    3.0023638828424737e-05,
    2.9921568057034165e-05,
    -2.973645860038232e-05,
    -3.0034569135750644e-05,
    2.9245493351481855e-05,
    2.959310404548887e-05,
    -2.9598024411825463e-05,
    -3.0031993446755223e-05,
    -7.49023047319497e-06,
    2.8695638320641592e-05,
    6.386737823049771e-06,
    2.9847436962882057e-05,
    7.497480055462802e-06,
    -2.9719967642449774e-05,
    2.9868380806874484e-05,
    2.992002191604115e-05,
    2.9080078093102202e-05,
    -2.6997315217158757e-05,
    2.9507380531867966e-05,
    2.9853792511858046e-05,
    2.971426692965906e-05,
    2.896600381063763e-05,
    -2.942497667390853e-05,
    2.378221688559279e-05,
    3.001246295752935e-05,
    2.8931917768204585e-05,
    -3.001821824000217e-05,
    -2.9657132472493686e-05,
    2.995324757648632e-05,
    -2.9663431632798165e-05,
    -2.977306030516047e-05,
    2.980210047098808e-05,
    -2.662527003849391e-05,
    -9.073795808944851e-06,
    -4.7166408876364585e-06,
    2.2561565856449306e-05,
    -2.974890776386019e-05,
    -2.8749494958901778e-05,
    2.975010829686653e-05,
    2.885231515392661e-05,
    2.922671592386905e-05,
    2.970413515868131e-05,
    3.003723031724803e-05,
    2.7970429073320702e-05,
    -2.9683080356335267e-05,
    -2.8732256396324374e-05,
    -2.9143953724997118e-05,
    2.9776865630992688e-05,
    -2.849579141184222e-05,
    -2.9584791263914667e-05
   ]
  },
  "base_model.model.model.layers.10.self_attn.q_proj.lora_A.weight": {
   "numel": 8192,
   "sum": -2.260893164796016,
   "abs": 126.9176207011792,
   "sample": [
    -0.02439829520881176,
    -0.020858298987150192,
    -0.014542213641107082,
    -0.006515973713248968,
    -0.016006125137209892,
    -0.00987169612199068,
    -0.030258052051067352,
    0.0005345401004888117,
    -0.02049219235777855,
    0.017318470403552055,
    -0.005170661024749279,
    -0.011612148955464363,
    -0.030045239254832268,
    -0.015243067406117916,
    0.0141759617254138,
    0.02696196734905243,
    -0.004074668046087027,
    -0.02308558113873005,
    -0.027601392939686775,
    -0.006821074057370424,
    0.0017390747088938951,
    0.008407291024923325,
    -0.02589442767202854,
    0.01335109956562519,
    -0.026627089828252792,
    0.004805791191756725,
    -0.01832553930580616,
    -0.00034844898618757725,
    -0.011977910064160824,
    0.010575002059340477,
    0.01905888505280018,
    -0.027481451630592346,
    -0.0219879150390625,
    0.023575296625494957,
    -0.02539401687681675,
    -0.014083496294915676,
    0.029556680470705032,
    0.0016561844386160374,
    -0.0174715556204319,
    -0.020614108070731163,
    -0.022354798391461372,
    0.0002949486952275038,
    0.02037033624947071,
    0.004354313015937805,
    -0.008712931536138058,
    -0.023941703140735626,
    0.0305017177015543,
    -0.025284266099333763,
    0.012313634157180786,
    -0.021591762080788612,
    -0.019180772826075554,
    0.026871059089899063,
    -0.026351170614361763,
    -0.03050200082361698,
    -0.012405133806169033,
    -0.002914972836151719,
    0.008896330371499062,
    0.00843810848891735,
    0.005722348112612963,
    -0.03028935007750988,
    -0.03025747276842594,
    -0.030746346339583397,
    -0.009627954103052616,
    0.007340190000832081
   ]
  },
  "base_model.model.model.layers.10.self_attn.q_proj.lora_B.weight": {
   "numel": 16384,
   "sum": 0.0002947134342070612,
   "abs": 0.4273753002257257,
   "sample": [
    2.9814973458996974e-05,
    -2.9941948014311492e-05,
    2.9480352168320678e-05,
    -2.9907938369433396e-05,
    2.840890192601364e-05,
    -9.8173995866091e-07,
    -2.8716656743199565e-05,
    2.9716540666413493e-05,
    -2.9970513423904777e-05,
    -2.906508234445937e-05,
    2.8986303732381202e-05,
    -2.9913015168858692e-05,
    2.9924203772679903e-05,
    -2.9367483875830658e-05,
    2.522192517062649e-05,
    -2.9568467653007247e-05,
    2.994152600876987e-05,
    3.004148675245233e-05,
    1.567479921504855e-05,
    2.982977639476303e-05,
    -2.999995012942236e-05,
    -2.924577347585e-05,
    2.628534821269568e-05,
    -2.9043801987427287e-05,
    -2.9677401471417397e-05,
    -2.9342711059143767e-05,
    2.454781497363001e-05,
    2.212417712144088e-05,
    -2.9906590498285368e-05,
    -9.314856470155064e-06,
    2.9964330678922124e-05,
    2.980518365802709e-05,
    2.9184961022110656e-05,
    -2.9703989639529027e-05,
    2.8498277970356867e-05,
    2.9800579795846716e-05,
    2.895907346101012e-05,
    2.8654809284489602e-05,
    2.926156776084099e-05,
    2.5521369025227614e-05,
    2.9781225748592988e-05,
    -2.913899879786186e-05,
    2.362069244554732e-05,
    2.981646866828669e-05,
    2.9025937692495063e-05,
    2.9750162866548635e-05,
    -2.303685869264882e-05,
    2.9018507120781578e-05,
    -2.9792274290230125e-05,
    2.1109560748300282e-06,
    -2.9024913601460867e-05,
    -2.4427952666883357e-05,
    2.9755066861980595e-05,
    2.963076622108929e-05,
    -1.0451222806295846e-05,
    2.8728692996082827e-05,
    2.8201455279486254e-05,
    2.981095531140454e-05,
    2.895381476264447e-05,
    -3.8260600376816e-06,
    -2.973211849166546e-05,
    -2.696351111808326e-05,
    1.6630829122732393e-05,
    -2.5976585675380193e-05
   ]
  },
  "base_model.model.model.layers.10.self_attn.v_proj.lora_A.weight": {
   "numel": 8192,
   "sum": -2.2605215207245237,
   "abs": 127.25667417758586,
   "sample": [
    -0.019424941390752792,
    0.004623819142580032,
    -0.02281133085489273,
    0.02381937950849533,
    0.005736485123634338,
    0.0048363409005105495,
    0.005355851724743843,
    0.0038903525564819574,
    -0.006149724125862122,
    0.020157545804977417,
    0.017715580761432648,
    -0.012925190851092339,
    -0.030258331447839737,
    0.030044518411159515,
    -0.023209095001220703,
    -0.0013655581278726459,
    0.025040162727236748,
    -0.015139630995690823,
    -0.015731504186987877,
    -0.008438454940915108,
    -0.015609304420650005,
    -0.030257977545261383,
    -0.0016247252933681011,
    -0.0022289857733994722,
    -0.02027939446270466,
    -0.0017096421215683222,
    -0.027603227645158768,
    -0.013368816114962101,
    -0.002165882382541895,
    0.0009505064226686954,
    0.009354185312986374,
    -0.005417595151811838,
    -0.01512124203145504,
    0.027085164561867714,
    -0.02894553914666176,
    -0.014175794087350368,
    0.010177026502788067,
    0.027693992480635643,
    -0.003200412495061755,
    -0.021499989554286003,
    -0.027083788067102432,
    0.005295220762491226,
    0.02809171937406063,
    0.02415495552122593,
    -0.02317740209400654,
    0.01979133114218712,
    -0.022933414205908775,
    0.010269848629832268,
    0.029556594789028168,
    -0.011001752689480782,
    -0.011397774331271648,
    0.029159093275666237,
    0.018416615203022957,
    0.01017729751765728,
    0.017440594732761383,
    0.022598806768655777,
    0.0095374695956707,
    -0.0003459230938460678,
    -0.014114811085164547,
    -0.002976224757730961,
    0.015091676265001297,
    0.0016482470091432333,
    0.0168614499270916,
    0.0045626224018633366
   ]
  },
  "base_model.model.model.layers.10.self_attn.v_proj.lora_B.weight": {
   "numel": 8192,
   "sum": -0.00025630103093421397,
   "abs": 0.22610661447330171,
   "sample": [
    2.9811204512952827e-05,
    -2.599508843559306e-05,
    -2.493375177436974e-05,
    -2.9001665097894147e-05,
    2.6503124900045805e-05,
    2.8166063202661462e-05,
    3.0019422410987318e-05,
    -2.9913733669673093e-05,
    -3.0015757147339173e-05,
    -2.5524335796944797e-05,
    -1.8682046629692195e-06,
    2.9747989174211398e-06,
    2.999803655256983e-05,
    -2.9996152079547755e-05,
    2.8026086511090398e-05,
    2.8495851438492537e-05,
    -2.9755168725387193e-05,
    -1.4092986020841636e-05,
    5.63743833481567e-06,
    -2.9624510716530494e-05,
    -2.9392271244432777e-05,
    3.0011458875378594e-05,
    2.0812571165151894e-05,
    -2.9585566153400578e-05,
    2.9801363780279644e-05,
    2.9846429242752492e-05,
    -2.993737143697217e-05,
    -2.9986091249156743e-05,
    -2.9922301109763794e-05,
    -2.879386374843307e-05,
    -3.0045337553019635e-05,
    2.999516982526984e-05,
    -2.982269143103622e-05,
    -2.987872539961245e-05,
    -2.9789243853883818e-05,
    3.0038336262805387e-05,
    2.9656284823431633e-05,
    2.9958191589685157e-05,
    2.9837396141374484e-05,
    2.92900440399535e-05,
    2.6605257517076097e-05,
    -2.7398846214055084e-05,
    2.9920143788331188e-05,
    -2.9780285331071354e-05,
    3.0034847441129386e-05,
    3.004054269695189e-05,
    2.8162146918475628e-05,
    -3.0027465982129797e-05,
    2.9989960239618085e-05,
    -4.850870027439669e-06,
    5.562354999710806e-06,
    -2.811776357702911e-05,
    -2.9671258744201623e-05,
    -3.003519304911606e-05,
    -2.9582113711512648e-05,
    2.7826356017612852e-05,
    -2.9942215405753814e-05,
    2.9540544346673414e-05,
    2.8903534257551655e-05,
    2.9768589229206555e-05,
    -2.9574021027656272e-05,
    -2.936797318398021e-05,
    -2.9944971174700186e-05,
    3.0016208256711252e-05
   ]
  },
  "base_model.model.model.layers.11.mlp.down_proj.lora_A.weight": {
   "numel": 24576,
   "sum": 1.800842468544488,
   "abs": 222.89639615886813,
   "sample": [
    -0.000850232841912657,
    -0.00477634696289897,
    0.0014502815902233124,
    -0.01252074632793665,
    -0.012008635327219963,
    -0.011581823229789734,
    0.015762686729431152,
    -0.017684506252408028,
    -0.014785758219659328,
    -0.00953688845038414,
    -0.010818195529282093,
    -0.007033746223896742,
    -0.002059655962511897,
    0.0026247603818774223,
    0.012954950332641602,
    0.004989521577954292,
    0.009109290316700935,
    0.003951970022171736,
    -0.0016262102872133255,
    0.0097806416451931,
    0.0013902728678658605,
    -0.0045608398504555225,
    -0.014694091863930225,
    -0.016830770298838615,
    -0.0038759522140026093,
    0.0007252477807924151,
    -0.009933385998010635,
    -0.008011197671294212,
    -0.006851207464933395,
    -0.00781402550637722,
    -0.016251178458333015,
    0.0020628152415156364,
    -0.01588478311896324,
    0.011368042789399624,
    0.01744539849460125,
    -0.014636260457336903,
    -0.007796975784003735,
    0.005530168768018484,
    0.008437953889369965,
    -0.006485404912382364,
    -0.0006043719477020204,
    0.003631376661360264,
    -0.008773589506745338,
    0.012984873726963997,
    0.0038151948247104883,
    0.014693590812385082,
    -0.005507728550583124,
    0.013839835301041603,
    -0.01585344411432743,
    0.010818631388247013,
    0.01747126132249832,
    -0.00849899835884571,
    0.00027727079577744007,
    -0.0028997771441936493,
    -0.01634185202419758,
    -0.007674993481487036,
    0.0147243095561862,
    -0.008473750203847885,
    0.01710520125925541,
    -0.006912455428391695,
    -0.004322252701967955,
    0.001579123898409307,
    -0.013199216686189175,
    0.017592445015907288
   ]
  },
  "base_model.model.model.layers.11.mlp.down_proj.lora_B.weight": {
   "numel": 8192,
   "sum": 1.7666291183826566e-05,
   "abs": 0.2029634498014855,
   "sample": [
    -3.004092832270544e-05,
    2.9375454687396996e-05,
    2.9899294531787746e-05,
    -2.7765574486693367e-05,
    -2.9938963052700274e-05,
    -2.882468470488675e-05,
    -2.909116301452741e-05,
    2.8407066565705463e-05,
    -2.9907427233411e-05,
    2.8375143301673234e-05,
    -6.604354894079734e-06,
    -2.7562278773984872e-05,
    2.9342178095248528e-05,
    -2.0741117623401806e-05,
    -2.40733952523442e-05,
    1.0584129995550029e-05,
    2.8806149202864617e-05,
    -2.9664417525054887e-05,
    -2.8818116334150545e-05,
    2.5738983822520822e-05,
    2.919825419667177e-05,
    2.9824150260537863e-05,
    7.870112312957644e-06,
    -2.8599264624062926e-05,
    -3.446166601861478e-06,
    -2.6568537577986717e-05,
    2.3607628463651054e-05,
    4.1889043131959625e-06,
    -2.989252061524894e-05,
    -2.836258317984175e-05,
    2.5635295969550498e-05,
    2.638071782712359e-05,
    -2.971313188027125e-05,
    2.986207437061239e-05,
    -2.998646414198447e-05,
    -1.8721255401032977e-05,
    3.002364610438235e-05,
    2.9689492293982767e-05,
    -2.9691154850297607e-05,
    -2.8810589355998673e-05,
    -2.9727267246926203e-05,
    2.922712519648485e-05,
    -2.732560460572131e-05,
    -2.987896186823491e-05,
    2.974390190502163e-05,
    -2.834458791767247e-05,
    -2.9141699997126125e-05,
    2.9616410756716505e-05,
    2.957985816465225e-05,
    2.952344948425889e-05,
    -3.003925121447537e-05,
    -8.210327905544546e-06,
    -2.9009557692916133e-05,
    2.9022567105130292e-05,
    2.6996194719686173e-05,
    -2.746394784480799e-05,
    -3.0046141546336003e-05,
    2.9375623853411525e-05,
    2.522462273191195e-05,
    -6.853038030385505e-06,
    2.9784780053887516e-05,
    2.6826523026102223e-05,
    -2.998890158778522e-05,
    -3.0018296456546523e-05
   ]
  },
  "base_model.model.model.layers.11.mlp.gate_proj.lora_A.weight": {
   "numel": 8192,
   "sum": -1.0381493055495525,
   "abs": 129.67999572682248,
   "sample": [
    -0.02870221994817257,
    -0.01435879897326231,
    0.001297426177188754,
    0.005686559248715639,
    -0.004745883401483297,
    0.0011362910736352205,
    0.007156854961067438,
    0.008285327814519405,
    0.018448522314429283,
    -0.02760354056954384,
    0.026503603905439377,
    -0.01240544393658638,
    -0.023301053792238235,
    0.010147376917302608,
    -0.003920844756066799,
    -0.01917959190905094,
    -0.00953723955899477,
    0.030627239495515823,
    0.01310739666223526,
    -1.904878627101425e-05,
    0.006606906186789274,
    0.024795733392238617,
    -0.023180155083537102,
    0.0008771985303610563,
    0.02012605220079422,
    -0.020645538344979286,
    -0.017593177035450935,
    0.016219500452280045,
    -0.02905219793319702,
    -0.026229528710246086,
    -0.023547878488898277,
    -0.02808961644768715,
    0.028091633692383766,
    -0.02430742420256138,
    -0.01240401342511177,
    0.01646393910050392,
    -0.018325841054320335,
    0.02940349653363228,
    0.01521350909024477,
    0.002136048162356019,
    0.022078949958086014,
    0.016097502782940865,
    -0.006790619343519211,
    -0.021957475692033768,
    -0.017562609165906906,
    0.013228720985352993,
    0.0011438061483204365,
    -0.029800770804286003,
    0.01197852287441492,
    0.02601633034646511,
    -0.018172604963183403,
    -0.018416887149214745,
    -0.02223256230354309,
    -0.028458021581172943,
    0.030136780813336372,
    0.03086821921169758,
    -0.02112053520977497,
    -0.019303055480122566,
    0.017563823610544205,
    -0.016341514885425568,
    -0.015387384220957756,
    -0.019027454778552055,
    -0.012711135670542717,
    0.022598763927817345
   ]
  },
  "base_model.model.model.layers.11.mlp.gate_proj.lora_B.weight": {
   "numel": 24576,
   "sum": -0.0015915409393577606,
   "abs": 0.582704539447585,
   "sample": [
    -2.6672438252717257e-05,
    -2.9510165404644795e-05,
    2.9837192414561287e-05,
    -2.9976843507029116e-05,
    2.877436054404825e-05,
    2.9941740649519488e-05,
    2.8172198653919622e-05,
    2.81837292277487e-05,
    -2.3942364350659773e-05,
    -2.9934455596958287e-05,
    -1.4138039659883361e-05,
    1.8118413208867423e-05,
    -2.149404099327512e-05,
    2.603294160508085e-05,
    -2.6477915525902063e-05,
    2.8443388146115467e-05,
    2.9898072170908563e-05,
    -1.4936137631593738e-05,
    2.8499602194642648e-05,
    -1.687388248683419e-05,
    2.825310548359994e-05,
    -2.90530933853006e-05,
    2.935323391284328e-05,
    2.9757124138996005e-05,
    -3.0021590646356344e-05,
    -2.965600651805289e-05,
    -2.7319343644194305e-05,
    -2.930957271018997e-05,
    -3.1530212254438084e-06,
    -4.027771410619607e-06,
    -2.9957071092212573e-05,
    3.0021514248801395e-05,
    1.1324261322442908e-05,
    3.0021898055565543e-05,
    2.9835289751645178e-05,
    -2.720682641665917e-05,
    7.839856152713764e-06,
    2.492505700502079e-05,
    -1.5208390323095955e-05,
    -2.7115300326840952e-05,
    2.9880739020882174e-05,
    -2.0821937141590752e-05,
    -3.100844025993865e-07,
    1.4814489077252802e-05,
    -3.0031147616682574e-05,
    2.713190406211652e-05,
    -1.3760477486357559e-06,
    -2.9716433346038684e-05,
    2.9548076781793498e-05,
    2.8529764676932245e-05,
    2.996874536620453e-05,
    -2.9362361601670273e-05,
    -2.9665950933122076e-05,
    -1.5128085806281888e-06,
    -3.7458946735569043e-06,
    -2.949597364931833e-05,
    2.9866139811929315e-05,
    2.9094535420881584e-05,
    2.237538865301758e-05,
    -2.9201508368714713e-05,
    -2.6914805857813917e-05,
    5.621333457384026e-06,
    -2.3595999664394185e-05,
    -2.9703141990466975e-05
   ]
  },
  "base_model.model.model.layers.11.mlp.up_proj.lora_A.weight": {
   "numel": 8192,
   "sum": 0.15995621915294578,
   "abs": 128.3201640882587,
   "sample": [
    0.027328040450811386,
    0.0014341387432068586,
    0.0032962907571345568,
    -0.02379773184657097,
    0.027847332879900932,
    0.02622927539050579,
    -0.0032801488414406776,
    -0.02015695348381996,
    0.012650086544454098,
    0.003646508324891329,
    0.0022124832030385733,
    -0.014908039011061192,
    0.02953886054456234,
    0.02503998950123787,
    0.020523425191640854,
    -0.006301266141235828,
    0.021590687334537506,
    -0.027222972363233566,
    0.0015944186598062515,
    -0.009110073558986187,
    0.0018151556141674519,
    -0.015853513032197952,
    0.02112981677055359,
    -0.023941241204738617,
    -0.013199148699641228,
    -0.005495167337357998,
    0.008651643991470337,
    0.019149092957377434,
    -0.02929532527923584,
    -0.0160975381731987,
    0.0014564447337761521,
    -0.007154139690101147,
    -0.02683998830616474,
    0.022201290354132652,
    0.017563924193382263,
    -0.027237270027399063,
    0.020004164427518845,
    0.02378808706998825,
    -0.0070032053627073765,
    -0.01350419595837593,
    0.0055394601076841354,
    -0.006484404671937227,
    0.01673932932317257,
    0.011154253967106342,
    0.020980512723326683,
    -0.008040660060942173,
    0.01533567626029253,
    0.0034640284720808268,
    -0.03050185553729534,
    0.01710561104118824,
    -0.02696163021028042,
    0.0312657505273819,
    0.014388439245522022,
    0.016341663897037506,
    -0.008804362267255783,
    0.022080715745687485,
    -0.02856217510998249,
    0.008194705471396446,
    0.01734825223684311,
    0.01493766438215971,
    0.022346841171383858,
    0.02403230592608452,
    0.02504028007388115,
    -0.028214046731591225
   ]
  },
  "base_model.model.model.layers.11.mlp.up_proj.lora_B.weight": {
   "numel": 24576,
   "sum": -0.0016264493620123943,
   "abs": 0.641678640073903,
   "sample": [
    -2.9261422241688706e-05,
    2.9976436053402722e-05,
    2.6838324629352428e-05,
    2.3128517568693496e-05,
    -3.057814979001705e-07,
    -2.988336382259149e-05,
    -2.5462264602538198e-05,
    -2.8272494091652334e-05,
    -2.9377115424722433e-05,
    2.747331564023625e-05,
    -2.8401096642483026e-05,
    -2.9988863389007747e-05,
    -2.907198722823523e-05,
    -2.9143640858819708e-05,
    2.243278140667826e-05,
    -2.7737047275877558e-05,
    -3.605672873163712e-06,
    -2.9896025807829574e-05,
    -2.6809877454070374e-05,
    -2.8517899409052916e-05,
    -2.869057971111033e-05,
    1.6841672731970903e-06,
    -2.5482684577582404e-05,
    2.995419708895497e-05,
    2.99604707834078e-05,
    -2.9904367693234235e-05,
    -2.649774069141131e-05,
    -2.741981552389916e-05,
    2.7716996555682272e-05,
    2.9607439500978217e-05,
    2.9651893783011474e-05,
    2.975229472212959e-05,
    3.0028506444068626e-05,
    -2.595305886643473e-05,
    2.1660621314367745e-06,
    3.001576624228619e-05,
    2.982236946991179e-05,
    3.279489249052858e-07,
    -3.0004148356965743e-05,
    1.7974916772800498e-05,
    3.001531513291411e-05,
    -2.924980981333647e-05,
    -2.9754888601019047e-05,
    2.382621642027516e-05,
    -3.004430436703842e-05,
    -2.9770677429041825e-05,
    1.8790866306517273e-05,
    -2.5128752895398065e-05,
    -2.984538696182426e-05,
    2.9971210096846335e-05,
    -3.0027516913833097e-05,
    2.9879678550059907e-05,
    -2.996131661348045e-05,
    2.992561348946765e-05,
    2.9154980438761413e-05,
    -2.958968616439961e-05,
    -2.94543551717652e-05,
    -2.9960032406961545e-05,
    -9.59827139013214e-06,
    2.77822637144709e-05,
    -2.718132054724265e-05,
    2.981279067171272e-05,
    -2.768430204014294e-05,
    2.9528278901125304e-05
   ]
  },
  "base_model.model.model.layers.11.self_attn.k_proj.lora_A.weight": {
   "numel": 8192,
   "sum": -2.6230454486247936,
   "abs": 128.65935642013199,
   "sample": [
    0.01271109003573656,
    0.0022428734228014946,
    -0.0005916521186009049,
    -0.006424217019230127,
    0.00014863772958051413,
    0.016373224556446075,
    0.014815980568528175,
    -0.02623004838824272,
    0.022933727130293846,
    -0.001289990497753024,
    0.005142004229128361,
    0.0128322159871459,
    0.005111487582325935,
    -0.02830442041158676,
    -0.030013633891940117,
    0.0231774915009737,
    0.023575332015752792,
    0.023940738290548325,
    0.028914976865053177,
    -0.015304134227335453,
    -0.017959944903850555,
    -0.026626812294125557,
    -0.01637325994670391,
    0.011795073747634888,
    0.001848278334364295,
    0.01612822338938713,
    0.022567596286535263,
    -0.030167032033205032,
    0.005706381052732468,
    0.030288636684417725,
    0.014724677428603172,
    -0.01237609051167965,
    -0.021224670112133026,
    -0.022840816527605057,
    -0.02220585010945797,
    -0.027572395280003548,
    0.012832853011786938,
    0.008071888238191605,
    -0.02454984374344349,
    0.02110547013580799,
    -0.009964224882423878,
    0.01362655870616436,
    0.028672397136688232,
    -0.00517421355471015,
    -0.021744081750512123,
    0.015762388706207275,
    0.028212303295731544,
    0.015578420832753181,
    -0.0093228192999959,
    -0.028091151267290115,
    0.0061498722061514854,
    0.01252809353172779,
    0.01194704044610262,
    0.0126798702403903,
    0.02504032850265503,
    -0.012008202262222767,
    0.005109000951051712,
    0.02366585284471512,
    -0.012264672666788101,
    -0.015304339118301868,
    0.015760960057377815,
    -0.001167817390523851,
    -0.02870245650410652,
    0.026626890525221825
   ]
  },
  "base_model.model.model.layers.11.self_attn.k_proj.lora_B.weight": {
   "numel": 8192,
   "sum": 0.0024205048574508226,
   "abs": 0.21606231683108135,
   "sample": [
    2.758627124421764e-05,
    2.216779648733791e-05,
    2.7324904294800945e-05,
    -2.5527515390422195e-05,
    3.0030812922632322e-05,
    2.1523088435060345e-05,
    2.988765663758386e-05,
    3.0018098186701536e-05,
    2.388901702943258e-05,
    -2.9682652893825434e-05,
    -2.9658584026037715e-05,
    -2.737183058343362e-05,
    -3.001923869305756e-05,
    2.9799264666507952e-05,
    3.0046236133784987e-05,
    -1.738228093017824e-05,
    -2.9836490284651518e-05,
    2.9769522370770574e-05,
    -1.9833913029287942e-05,
    2.950482848973479e-05,
    2.450749343552161e-05,
    -2.9346829251153395e-05,
    -2.7173649868927896e-05,
    -2.861822758859489e-05,
    2.9421766157611273e-05,
    1.2439873898983933e-05,
    -2.947911707451567e-05,
    -2.844632399501279e-05,
    -2.9807175451423973e-05,
    -2.896823571063578e-05,
    -2.8776414183084853e-05,
    3.001495497301221e-05,
    2.9022885428275913e-05,
    2.7249991035205312e-05,
    -2.9645234462805092e-05,
    -2.852828401955776e-05,
    -2.886508809751831e-05,
    -2.9852930310880765e-05,
    2.9985681976540945e-05,
    -2.986826621054206e-05,
    2.991560540976934e-05,
    -2.999787284352351e-05,
    2.7539766961126588e-05,
    -2.962823782581836e-05,
    2.9928325602668338e-05,
    -2.7471347493701614e-05,
    4.457823706616182e-06,
    2.9902023015893064e-05,
    -2.9877641281927936e-05,
    2.8156857297290117e-05,
    -2.9478786018444225e-05,
    2.9976981750223786e-05,
    2.1237439796095714e-05,
    -2.885512003558688e-05,
    2.7918700652662665e-05,
    2.9970389732625335e-05,
    -2.88295323116472e-05,
    -2.9910232115071267e-05,
    -2.9972163247293793e-05,
    2.9553288186434656e-05,
    5.523094841919374e-06,
    2.8382459277054295e-05,
    2.9252218155306764e-05,
    -3.92356923839543e-06
   ]
  },
  "base_model.model.model.layers.11.self_attn.o_proj.lora_A.weight": {
   "numel": 16384,
   "sum": 0.22128083628606987,
   "abs": 179.77420262068327,
   "sample": [
    -0.018082039430737495,
    0.017073895782232285,
    -0.0058753108605742455,
    0.018051346763968468,
    -0.01942460611462593,
    0.013595444150269032,
    0.009781431406736374,
    -0.000980650307610631,
    0.010879626497626305,
    0.014969252049922943,
    0.009781097993254662,
    -0.017838045954704285,
    0.013382449746131897,
    -0.010848362930119038,
    0.019271956756711006,
    -0.006484400946646929,
    0.012039616703987122,
    0.008895383216440678,
    0.015579327940940857,
    0.005736151244491339,
    0.006180338561534882,
    0.005843988619744778,
    0.020035427063703537,
    0.009842347353696823,
    0.0195152647793293,
    -0.005600553471595049,
    -0.0030359639786183834,
    -0.015120940282940865,
    -0.01771591790020466,
    -0.0030513000674545765,
    -0.02012573927640915,
    0.015853507444262505,
    0.0036454638466238976,
    -0.008682814426720142,
    -0.0202648788690567,
    0.005873935297131538,
    0.0077354684472084045,
    -0.00792201329022646,
    0.017440108582377434,
    -0.008621222339570522,
    -0.004624133463948965,
    -0.006881945766508579,
    0.00813241582363844,
    -3.6994693800807e-05,
    0.008540109731256962,
    0.01280153263360262,
